{"learner":{"attributes":{"best_iteration":"0","best_score":"1.069814926122918","scikit_learn":"{\"_estimator_type\": \"classifier\"}"},"feature_names":[],"feature_types":[],"gradient_booster":{"model":{"cats":{"enc":[],"feature_segments":[],"sorted_idx":[]},"gbtree_model_param":{"num_parallel_tree":"1","num_trees":"63"},"iteration_indptr":[0,3,6,9,12,15,18,21,24,27,30,33,36,39,42,45,48,51,54,57,60,63],"tree_info":[0,1,2,0,1,2,0,1,2,0,1,2,0,1,2,0,1,2,0,1,2,0,1,2,0,1,2,0,1,2,0,1,2,0,1,2,0,1,2,0,1,2,0,1,2,0,1,2,0,1,2,0,1,2,0,1,2,0,1,2,0,1,2],"trees":[{"base_weights":[-1.685343E-2,-2.986041E-1,4.8831332E-1,-5.160137E-1,8.454016E-2,-1.6313884E-2,5.9775925E-1,-5.6026655E-1,-1.2242146E-3,3.271938E-1,-2.3958834E-2,8.474102E-1,1.22950085E-1,-2.0793898E-2,-3.2550946E-2,-8.130373E-3,2.344968E-2,5.5080753E-2,2.0444216E-2,-3.0149564E-2,3.0604202E-2],"categories":[],"categories_nodes":[],"categories_segments":[],"categories_sizes":[],"default_left":[0,0,0,0,0,0,0,0,0,0,0,0,0,0,0,0,0,0,0,0,0],"id":0,"left_children":[1,3,5,7,9,-1,11,13,-1,15,-1,17,19,-1,-1,-1,-1,-1,-1,-1,-1],"loss_changes":[2.2911291E1,8.729544E0,5.4526844E0,1.365366E0,5.4984426E0,0E0,5.83864E0,2.821293E-1,0E0,2.089174E0,0E0,2.8843498E0,7.5151463E0,0E0,0E0,0E0,0E0,0E0,0E0,0E0,0E0],"parents":[2147483647,0,0,1,1,2,2,3,3,4,4,6,6,7,7,9,9,11,11,12,12],"right_children":[2,4,6,8,10,-1,12,14,-1,16,-1,18,20,-1,-1,-1,-1,-1,-1,-1,-1],"split_conditions":[3.6782154E-1,1.17800295E-1,-1.4359335E0,5.2366674E-1,7.883383E-1,-1.6313884E-2,6.19192E-1,-1.2293174E0,-1.2242146E-3,-2.8470314E-1,-2.3958834E-2,1.374826E0,1.3272876E0,-2.0793898E-2,-3.2550946E-2,-8.130373E-3,2.344968E-2,5.5080753E-2,2.0444216E-2,-3.0149564E-2,3.0604202E-2],"split_indices":[4,17,10,16,17,0,10,13,0,16,0,13,0,0,0,0,0,0,0,0,0],"split_type":[0,0,0,0,0,0,0,0,0,0,0,0,0,0,0,0,0,0,0,0,0],"sum_hessian":[1.5806842E2,1.01993866E2,5.607455E1,6.490519E1,3.708868E1,6.1814466E0,4.9893105E1,5.9165276E1,5.739915E0,2.6491913E1,1.05967655E1,3.1790297E1,1.8102808E1,2.6491913E1,3.267336E1,5.739915E0,2.0751999E1,1.854434E1,1.3245956E1,7.0645103E0,1.1038298E1],"tree_param":{"num_deleted":"0","num_feature":"20","num_nodes":"21","size_leaf_vector":"1"}},{"base_weights":[-0E0,7.786514E-1,-1.660309E-1,-2.3554117E-5,1.0092733E0,-4.3389536E-3,-4.0558845E-1,7.333522E-2,2.212584E-2,-3.5419822E-1,1.8360175E-1,-5.359703E-1,-1.1892038E-1,1.5099709E-3,-2.4373809E-2,-2.8159339E-2,1.6865637E-2,-3.0397324E-2,-1.0539469E-2,9.68862E-3,-1.6347738E-2],"categories":[],"categories_nodes":[],"categories_segments":[],"categories_sizes":[],"default_left":[0,0,0,0,0,0,0,0,0,0,0,0,0,0,0,0,0,0,0,0,0],"id":1,"left_children":[1,3,5,-1,7,9,11,-1,-1,13,15,17,19,-1,-1,-1,-1,-1,-1,-1,-1],"loss_changes":[1.9528849E1,4.870331E0,4.7870126E0,0E0,4.1703854E0,5.1264086E0,1.7073355E0,0E0,0E0,1.4682136E0,6.0462923E0,5.145216E-1,1.2659777E0,0E0,0E0,0E0,0E0,0E0,0E0,0E0,0E0],"parents":[2147483647,0,0,1,1,2,2,4,4,5,5,6,6,9,9,10,10,11,11,12,12],"right_children":[2,4,6,-1,8,10,12,-1,-1,14,16,18,20,-1,-1,-1,-1,-1,-1,-1,-1],"split_conditions":[-1.3340795E0,-1.6769116E-1,2.6717445E-1,-2.3554117E-5,-1.3032072E0,-3.9222077E-1,1.374826E0,7.333522E-2,2.212584E-2,-3.5397905E-1,-1.2334644E0,8.6557376E-1,1.0141009E0,1.5099709E-3,-2.4373809E-2,-2.8159339E-2,1.6865637E-2,-3.0397324E-2,-1.0539469E-2,9.68862E-3,-1.6347738E-2],"split_indices":[12,8,19,0,19,17,13,0,0,0,13,8,19,0,0,0,0,0,0,0,0],"split_type":[0,0,0,0,0,0,0,0,0,0,0,0,0,0,0,0,0,0,0,0,0],"sum_hessian":[1.4825139E2,2.5039778E1,1.2321161E2,5.961852E0,1.9077927E1,7.472188E1,4.848973E1,9.141506E0,9.9364195E0,2.5834692E1,4.8887184E1,3.2194E1,1.6295729E1,6.7567654E0,1.9077927E1,7.551679E0,4.1335506E1,2.5039778E1,7.1542225E0,6.3593087E0,9.9364195E0],"tree_param":{"num_deleted":"0","num_feature":"20","num_nodes":"21","size_leaf_vector":"1"}},{"base_weights":[1.7764116E-2,2.271269E-1,-1.5020545E-1,3.2818273E-1,-2.9329509E-2,-2.7325162E-1,5.24865E-1,-2.0304543E-1,4.4991168E-1,-2.3113247E-2,-4.527465E-1,2.9542407E-3,4.5708034E-2,7.803163E-3,-2.3237418E-2,3.804577E-2,5.2259252E-3,-3.134481E-2,1.0846291E-2,-6.798961E-3,-2.784056E-2],"categories":[],"categories_nodes":[],"categories_segments":[],"categories_sizes":[],"default_left":[0,0,0,0,0,0,0,0,0,0,0,0,0,0,0,0,0,0,0,0,0],"id":2,"left_children":[1,3,5,7,-1,9,11,13,15,17,19,-1,-1,-1,-1,-1,-1,-1,-1,-1,-1],"loss_changes":[6.579359E0,7.1210318E0,8.788562E0,5.028371E0,0E0,3.9178348E0,2.7858858E0,1.5409626E0,6.437772E0,5.8767595E0,1.5085764E0,0E0,0E0,0E0,0E0,0E0,0E0,0E0,0E0,0E0,0E0],"parents":[2147483647,0,0,1,1,2,2,3,3,5,5,6,6,7,7,8,8,9,9,10,10],"right_children":[2,4,6,8,-1,10,12,14,16,18,20,-1,-1,-1,-1,-1,-1,-1,-1,-1,-1],"split_conditions":[-1.6093864E-1,1.4995029E0,1.1214306E0,-1.2415665E0,-2.9329509E-2,-3.014069E-1,1.175926E0,-1.3889706E0,3.4436804E-1,-1.3032072E0,-2.620453E-1,2.9542407E-3,4.5708034E-2,7.803163E-3,-2.3237418E-2,3.804577E-2,5.2259252E-3,-3.134481E-2,1.0846291E-2,-6.798961E-3,-2.784056E-2],"split_indices":[17,6,18,13,0,19,14,3,5,19,16,0,0,0,0,0,0,0,0,0,0],"split_type":[0,0,0,0,0,0,0,0,0,0,0,0,0,0,0,0,0,0,0,0,0],"sum_hessian":[1.8391733E2,8.190069E1,1.0201665E2,7.3758514E1,8.142174E0,8.716915E1,1.4847493E1,1.3410639E1,6.0347878E1,3.7358208E1,4.9810944E1,7.6632223E0,7.184271E0,5.7474165E0,7.6632223E0,3.065289E1,2.9694986E1,1.005798E1,2.730023E1,1.3410639E1,3.6400307E1],"tree_param":{"num_deleted":"0","num_feature":"20","num_nodes":"21","size_leaf_vector":"1"}},{"base_weights":[-1.4218348E-6,-2.6786673E-1,5.053012E-1,-4.1527057E-1,1.5411668E-1,-8.176607E-3,5.830877E-1,-6.135264E-1,-3.1886375E-1,-2.801079E-2,3.4290427E-1,1.0298423E0,2.755043E-1,-3.3940203E-2,-1.33589525E-2,4.43295E-2,-2.3037901E-2,2.6600007E-2,-1.3305269E-2,3.2298587E-2,6.0102668E-2,-2.2644468E-2,3.764021E-2],"categories":[],"categories_nodes":[],"categories_segments":[],"categories_sizes":[],"default_left":[0,0,0,0,0,0,0,0,0,0,0,0,0,0,0,0,0,0,0,0,0,0,0],"id":3,"left_children":[1,3,5,7,9,-1,11,13,15,-1,17,19,21,-1,-1,-1,-1,-1,-1,-1,-1,-1,-1],"loss_changes":[2.3300644E1,7.135416E0,3.284298E0,1.2215586E0,4.326613E0,0E0,6.840622E0,2.1139812E-1,1.0845987E1,0E0,3.1012666E0,5.6427002E-2,1.2382749E1,0E0,0E0,0E0,0E0,0E0,0E0,0E0,0E0,0E0,0E0],"parents":[2147483647,0,0,1,1,2,2,3,3,4,4,6,6,7,7,8,8,10,10,11,11,12,12],"right_children":[2,4,6,8,10,-1,12,14,16,-1,18,20,22,-1,-1,-1,-1,-1,-1,-1,-1,-1,-1],"split_conditions":[3.5956296E-1,8.010682E-1,-1.3350328E0,-1.3091263E0,-1.2705597E0,-8.176607E-3,5.733877E-1,-1.2836136E0,-1.280783E0,-2.801079E-2,2.6380926E-1,7.8591955E-1,1.3272876E0,-3.3940203E-2,-1.33589525E-2,4.43295E-2,-2.3037901E-2,2.6600007E-2,-1.3305269E-2,3.2298587E-2,6.0102668E-2,-2.2644468E-2,3.764021E-2],"split_indices":[4,14,10,12,19,0,19,6,12,0,19,4,0,0,0,0,0,0,0,0,0,0,0],"split_type":[0,0,0,0,0,0,0,0,0,0,0,0,0,0,0,0,0,0,0,0,0,0,0],"sum_hessian":[1.6932257E2,1.11250465E2,5.807211E1,8.264309E1,2.8607374E1,5.7440343E0,5.2328075E1,2.4067106E1,5.8575985E1,5.2524304E0,2.3354944E1,1.9768145E1,3.2559933E1,1.8795975E1,5.2711315E0,5.265567E0,5.3310417E1,1.8091469E1,5.2634754E0,8.508764E0,1.1259379E1,1.2836984E1,1.9722948E1],"tree_param":{"num_deleted":"0","num_feature":"20","num_nodes":"23","size_leaf_vector":"1"}},{"base_weights":[-4.191133E-2,8.745042E-1,-2.5257137E-1,2.0128543E-2,1.011431E0,-8.3598435E-2,-4.41678E-1,5.8599617E-2,2.4097268E-2,-2.4688375E-1,2.2973695E-1,-9.351354E-3,-2.9441316E-2,9.346346E-3,-1.7153712E-2,3.9345957E-2,2.47004E-4,-2.0493934E-2,1.4386201E-2],"categories":[],"categories_nodes":[],"categories_segments":[],"categories_sizes":[],"default_left":[0,0,0,0,0,0,0,0,0,0,0,0,0,0,0,0,0,0,0],"id":4,"left_children":[1,3,5,-1,7,9,11,-1,-1,13,15,17,-1,-1,-1,-1,-1,-1,-1],"loss_changes":[2.9563557E1,1.0966034E0,3.8746314E0,0E0,7.743263E-1,3.5633414E0,3.6333437E0,0E0,0E0,2.0147986E0,2.9017944E0,2.1490147E0,0E0,0E0,0E0,0E0,0E0,0E0,0E0],"parents":[2147483647,0,0,1,1,2,2,4,4,5,5,6,6,9,9,10,10,11,11],"right_children":[2,4,6,-1,8,10,12,-1,-1,14,16,18,-1,-1,-1,-1,-1,-1,-1],"split_conditions":[-1.3103364E0,-6.383416E-2,2.0769978E-1,2.0128543E-2,-1.3374809E0,-4.8549413E-3,-9.439446E-1,5.8599617E-2,2.4097268E-2,-8.3057487E-1,-7.6464124E-2,1.0039787E0,-2.9441316E-2,9.346346E-3,-1.7153712E-2,3.9345957E-2,2.47004E-4,-2.0493934E-2,1.4386201E-2],"split_indices":[4,8,12,0,4,0,9,0,0,16,12,6,0,0,0,0,0,0,0],"split_type":[0,0,0,0,0,0,0,0,0,0,0,0,0,0,0,0,0,0,0],"sum_hessian":[1.5024365E2,2.7109602E1,1.23134056E2,7.5900483E0,1.9519552E1,6.645037E1,5.6683678E1,1.3436134E1,6.083419E0,4.4104107E1,2.2346266E1,1.4971585E1,4.1712093E1,7.559022E0,3.6545086E1,5.2177706E0,1.7128494E1,6.2764726E0,8.695112E0],"tree_param":{"num_deleted":"0","num_feature":"20","num_nodes":"19","size_leaf_vector":"1"}},{"base_weights":[-3.6453935E-3,4.915242E-2,-4.7525667E-2,1.2870674E-1,-3.8970503E-1,9.586252E-3,6.941219E-1,9.7123355E-2,-4.9687442E-1,-2.4316898E-2,4.0701833E-3,4.8827548E-2,1.2934078E-2,-1.6952062E-2,2.6412383E-2,-3.3329405E-2,-1.3233282E-2],"categories":[],"categories_nodes":[],"categories_segments":[],"categories_sizes":[],"default_left":[0,0,0,0,0,0,0,0,0,0,0,0,0,0,0,0,0],"id":5,"left_children":[1,-1,3,5,7,9,11,13,15,-1,-1,-1,-1,-1,-1,-1,-1],"loss_changes":[7.9006248E0,0E0,1.0760207E1,7.8404655E0,3.2767963E0,3.5379195E0,1.9937801E0,2.5495822E0,1.6175451E0,0E0,0E0,0E0,0E0,0E0,0E0,0E0,0E0],"parents":[2147483647,0,0,2,2,3,3,4,4,5,5,6,6,7,7,8,8],"right_children":[2,-1,4,6,8,10,12,14,16,-1,-1,-1,-1,-1,-1,-1,-1],"split_conditions":[-1.9981344E0,4.915242E-2,3.7879723E-1,2.9072934E-1,-2.0199902E-1,-1.3031192E0,8.4564304E-1,5.958911E-1,7.357559E-1,-2.4316898E-2,4.0701833E-3,4.8827548E-2,1.2934078E-2,-1.6952062E-2,2.6412383E-2,-3.3329405E-2,-1.3233282E-2],"split_indices":[11,0,6,19,19,13,8,3,19,0,0,0,0,0,0,0,0],"split_type":[0,0,0,0,0,0,0,0,0,0,0,0,0,0,0,0,0],"sum_hessian":[1.8151982E2,6.264845E0,1.7525497E2,1.1610239E2,5.9152584E1,9.7304726E1,1.8797663E1,1.052936E1,4.8623222E1,1.1037403E1,8.626732E1,1.0132197E1,8.665465E0,5.2780423E0,5.2513175E0,2.6221903E1,2.2401321E1],"tree_param":{"num_deleted":"0","num_feature":"20","num_nodes":"17","size_leaf_vector":"1"}},{"base_weights":[8.536802E-3,-2.8919065E-1,4.5772535E-1,-4.8970655E-1,4.0338743E-2,5.615906E-1,-2.2540892E-2,-5.3130287E-1,-5.5856104E-3,1.7481491E-1,-2.895966E-2,-1.4176217E-2,6.904866E-1,-2.8498042E-2,-5.028029E-3,1.6810117E-2,-9.3407985E-3,2.478569E-2,5.4522514E-2],"categories":[],"categories_nodes":[],"categories_segments":[],"categories_sizes":[],"default_left":[0,0,0,0,0,0,0,0,0,0,0,0,0,0,0,0,0,0,0],"id":6,"left_children":[1,3,5,7,9,11,-1,13,-1,15,-1,-1,17,-1,-1,-1,-1,-1,-1],"loss_changes":[2.2538815E1,6.7595034E0,6.737068E0,8.403845E-1,3.3997726E0,6.992098E0,0E0,7.8442E-1,0E0,2.0768728E0,0E0,0E0,3.2037392E0,0E0,0E0,0E0,0E0,0E0,0E0],"parents":[2147483647,0,0,1,1,2,2,3,3,4,4,5,5,7,7,9,9,12,12],"right_children":[2,4,6,8,10,12,-1,14,-1,16,-1,-1,18,-1,-1,-1,-1,-1,-1],"split_conditions":[3.2861105E-1,1.17800295E-1,2.3202317E0,3.7234697E-1,6.3910626E-2,-1.4023508E0,-2.2540892E-2,6.9626816E-2,-5.5856104E-3,7.080223E-1,-2.895966E-2,-1.4176217E-2,1.4482899E0,-2.8498042E-2,-5.028029E-3,1.6810117E-2,-9.3407985E-3,2.478569E-2,5.4522514E-2],"split_indices":[2,17,9,18,2,9,0,9,0,18,0,0,6,0,0,0,0,0,0],"split_type":[0,0,0,0,0,0,0,0,0,0,0,0,0,0,0,0,0,0,0],"sum_hessian":[1.6542174E2,9.967058E1,6.575116E1,6.170061E1,3.7969967E1,5.9618427E1,6.1327367E0,5.4797497E1,6.9031143E0,3.2215412E1,5.7545533E0,7.5488186E0,5.2069607E1,4.962667E1,5.170827E0,2.2538849E1,9.676564E0,3.744426E1,1.4625347E1],"tree_param":{"num_deleted":"0","num_feature":"20","num_nodes":"19","size_leaf_vector":"1"}},{"base_weights":[2.8882291E-2,8.109857E-1,-1.5166597E-1,4.6264678E-1,1.0101528E0,-5.413448E-2,-4.3115836E-1,-1.1950618E-3,4.359337E-2,2.2548836E-2,6.5932676E-2,-2.5598723E-2,1.3713128E-2,-3.0824615E-2,-1.9172975E-1,2.5445506E-2,-1.3058991E-3,1.1202977E-2,-2.0518996E-2],"categories":[],"categories_nodes":[],"categories_segments":[],"categories_sizes":[],"default_left":[0,0,0,0,0,0,0,0,0,0,0,0,0,0,0,0,0,0,0],"id":7,"left_children":[1,3,5,7,9,11,13,-1,-1,-1,-1,-1,15,-1,17,-1,-1,-1,-1],"loss_changes":[2.2293352E1,1.2065239E0,3.4052525E0,2.848635E0,1.9315071E0,3.069082E0,1.189704E0,0E0,0E0,0E0,0E0,0E0,1.7571539E0,0E0,1.6701299E0,0E0,0E0,0E0,0E0],"parents":[2147483647,0,0,1,1,2,2,3,3,4,4,5,5,6,6,12,12,14,14],"right_children":[2,4,6,8,10,12,14,-1,-1,-1,-1,-1,16,-1,18,-1,-1,-1,-1],"split_conditions":[-1.318532E0,-1.9575207E-1,4.951698E-1,-1.3759485E0,-1.3035086E0,-1.414645E0,1.194306E0,-1.1950618E-3,4.359337E-2,2.2548836E-2,6.5932676E-2,-2.5598723E-2,-7.038175E-1,-3.0824615E-2,-2.8718743E-1,2.5445506E-2,-1.3058991E-3,1.1202977E-2,-2.0518996E-2],"split_indices":[5,18,18,12,6,14,18,0,0,0,0,0,15,0,15,0,0,0,0],"split_type":[0,0,0,0,0,0,0,0,0,0,0,0,0,0,0,0,0,0,0],"sum_hessian":[1.5460318E2,2.8117834E1,1.26485344E2,1.2224284E1,1.5893549E1,9.5357704E1,3.1127638E1,6.1181064E0,6.106178E0,7.0791183E0,8.814431E0,1.1230248E1,8.412746E1,1.5978932E1,1.5148705E1,5.1348166E0,7.899264E1,5.050368E0,1.0098337E1],"tree_param":{"num_deleted":"0","num_feature":"20","num_nodes":"19","size_leaf_vector":"1"}},{"base_weights":[-5.9734166E-2,1.9020717E-1,-1.8154164E-1,3.237215E-1,-2.8290808E-2,-2.4674515E-1,1.3973953E-1,-1.2411008E-2,4.320069E-1,-8.556643E-2,-3.8459998E-1,3.3470985E-1,-1.0076394E-2,5.0096203E-2,6.5936144E-3,-1.75888E-2,1.8224211E-2,-1.6586474E-4,-2.441204E-2,-1.9709803E-3,3.8963463E-2],"categories":[],"categories_nodes":[],"categories_segments":[],"categories_sizes":[],"default_left":[0,0,0,0,0,0,0,0,0,0,0,0,0,0,0,0,0,0,0,0,0],"id":8,"left_children":[1,3,5,7,-1,9,11,-1,13,15,17,19,-1,-1,-1,-1,-1,-1,-1,-1,-1],"loss_changes":[5.6335654E0,6.362104E0,2.6668224E0,3.4322786E0,0E0,2.21775E0,1.5565785E0,0E0,7.361515E0,6.2146025E0,2.1365566E0,2.5389552E0,0E0,0E0,0E0,0E0,0E0,0E0,0E0,0E0,0E0],"parents":[2147483647,0,0,1,1,2,2,3,3,5,5,6,6,8,8,9,9,10,10,11,11],"right_children":[2,4,6,8,-1,10,12,-1,14,16,18,20,-1,-1,-1,-1,-1,-1,-1,-1,-1],"split_conditions":[-3.9222077E-1,1.4995029E0,1.1902255E0,-6.930664E-1,-2.8290808E-2,-2.6495686E-1,-2.406761E-2,-1.2411008E-2,4.7218554E-2,-1.2866445E0,-4.5287404E-2,-5.998429E-1,-1.0076394E-2,5.0096203E-2,6.5936144E-3,-1.75888E-2,1.8224211E-2,-1.6586474E-4,-2.441204E-2,-1.9709803E-3,3.8963463E-2],"split_indices":[17,6,17,0,0,19,6,0,1,3,1,13,0,0,0,0,0,0,0,0,0],"split_type":[0,0,0,0,0,0,0,0,0,0,0,0,0,0,0,0,0,0,0,0,0],"sum_hessian":[1.8186958E2,5.9046524E1,1.2282307E2,5.1025387E1,8.021137E0,1.0264971E2,2.0173353E1,7.6671495E0,4.335824E1,4.8776764E1,5.3872944E1,1.3043364E1,7.129988E0,1.36320915E1,2.9726147E1,3.0993523E1,1.7783241E1,1.2051125E1,4.182182E1,7.702877E0,5.340487E0],"tree_param":{"num_deleted":"0","num_feature":"20","num_nodes":"21","size_leaf_vector":"1"}},{"base_weights":[9.268306E-3,-2.857886E-1,4.3270397E-1,-5.3000015E-1,1.0529481E-1,3.108257E-1,8.310282E-1,-1.309717E-4,-5.8022493E-1,3.439725E-2,-5.9407294E-2,6.0424006E-1,-6.203187E-2,1.43713E-2,5.233844E-2,-2.161511E-2,-3.4211647E-2,-2.3020295E-2,6.947995E-3,5.5041136E-3,4.747024E-2,-3.250647E-2,2.2759983E-2],"categories":[],"categories_nodes":[],"categories_segments":[],"categories_sizes":[],"default_left":[0,0,0,0,0,0,0,0,0,0,0,0,0,0,0,0,0,0,0,0,0,0,0],"id":9,"left_children":[1,3,5,7,9,11,13,-1,15,-1,17,19,21,-1,-1,-1,-1,-1,-1,-1,-1,-1,-1],"loss_changes":[2.1462736E1,9.778224E0,2.92696E0,1.5980492E0,3.9571877E0,6.3098297E0,1.2281542E0,0E0,3.2151031E-1,0E0,2.7043262E0,5.19559E0,8.422357E0,0E0,0E0,0E0,0E0,0E0,0E0,0E0,0E0,0E0,0E0],"parents":[2147483647,0,0,1,1,2,2,3,3,4,4,5,5,6,6,8,8,10,10,11,11,12,12],"right_children":[2,4,6,8,10,12,14,-1,16,-1,18,20,22,-1,-1,-1,-1,-1,-1,-1,-1,-1,-1],"split_conditions":[3.533269E-1,1.17800295E-1,1.4247462E0,-7.000919E-1,-1.2457046E-1,1.0125266E0,-6.645898E-1,-1.309717E-4,-6.512639E-1,3.439725E-2,-6.531353E-1,-2.343003E-2,1.2714772E0,1.43713E-2,5.233844E-2,-2.161511E-2,-3.4211647E-2,-2.3020295E-2,6.947995E-3,5.5041136E-3,4.747024E-2,-3.250647E-2,2.2759983E-2],"split_indices":[4,17,7,15,9,12,16,0,2,0,0,19,0,0,0,0,0,0,0,0,0,0,0],"split_type":[0,0,0,0,0,0,0,0,0,0,0,0,0,0,0,0,0,0,0,0,0,0,0],"sum_hessian":[1.6868533E2,9.956103E1,6.912431E1,6.1118526E1,3.84425E1,5.5166237E1,1.3958075E1,5.624826E0,5.5493702E1,7.5556026E0,3.0886898E1,3.0501175E1,2.4665062E1,5.091341E0,8.8667345E0,2.6500362E1,2.8993338E1,9.733437E0,2.1153461E1,1.3476109E1,1.7025066E1,1.1451976E1,1.3213087E1],"tree_param":{"num_deleted":"0","num_feature":"20","num_nodes":"23","size_leaf_vector":"1"}},{"base_weights":[4.5461167E-2,7.8240085E-1,-1.2093682E-1,2.857349E-1,5.4425634E-2,3.912151E-2,-3.0455574E-1,4.2017173E-2,-1.9425157E-2,-1.8782647E-1,4.8649272E-1,-5.513329E-1,-1.1383531E-1,1.9507542E-2,-1.7799834E-2,-6.981562E-4,3.3266466E-2,-3.0959541E-2,-9.884774E-3,1.5381952E-2,-1.2303468E-2],"categories":[],"categories_nodes":[],"categories_segments":[],"categories_sizes":[],"default_left":[0,0,0,0,0,0,0,0,0,0,0,0,0,0,0,0,0,0,0,0,0],"id":10,"left_children":[1,3,5,7,-1,9,11,-1,-1,13,15,17,19,-1,-1,-1,-1,-1,-1,-1,-1],"loss_changes":[1.9042246E1,3.7447853E0,3.7618546E0,5.42057E0,0E0,7.1336913E0,2.6336136E0,0E0,0E0,4.720549E0,2.1966386E0,3.4092188E-1,2.0919087E0,0E0,0E0,0E0,0E0,0E0,0E0,0E0,0E0],"parents":[2147483647,0,0,1,1,2,2,3,3,5,5,6,6,9,9,10,10,11,11,12,12],"right_children":[2,4,6,8,-1,10,12,-1,-1,14,16,18,20,-1,-1,-1,-1,-1,-1,-1,-1],"split_conditions":[-1.335176E0,-2.274113E-1,2.0769978E-1,-1.3849798E0,5.4425634E-2,8.315752E-3,8.946446E-1,4.2017173E-2,-1.9425157E-2,-6.249762E-1,-1.0277444E-1,7.946024E-1,8.792286E-1,1.9507542E-2,-1.7799834E-2,-6.981562E-4,3.3266466E-2,-3.0959541E-2,-9.884774E-3,1.5381952E-2,-1.2303468E-2],"split_indices":[12,18,12,2,0,1,6,0,0,16,10,8,1,0,0,0,0,0,0,0,0],"split_type":[0,0,0,0,0,0,0,0,0,0,0,0,0,0,0,0,0,0,0,0,0],"sum_hessian":[1.5209123E2,2.7103565E1,1.2498767E2,1.15654545E1,1.5538111E1,6.711776E1,5.7869915E1,6.2243013E0,5.341153E0,4.4957745E1,2.2160013E1,2.3762545E1,3.410737E1,9.552511E0,3.5405235E1,6.0509014E0,1.6109112E1,1.8754644E1,5.0079E0,7.4895887E0,2.661778E1],"tree_param":{"num_deleted":"0","num_feature":"20","num_nodes":"21","size_leaf_vector":"1"}},{"base_weights":[-5.5985674E-2,3.879889E-2,-4.314632E-1,-8.046702E-2,7.5431204E-1,1.203187E-2,-5.5200523E-1,2.0048769E-1,-2.4459495E-1,5.270345E-2,7.916627E-3,-1.1474901E-3,-6.4640445E-1,-1.2283261E-2,2.1879476E-2,-9.495439E-4,-2.6767662E-2,-1.7712018E-2,-3.6643695E-2],"categories":[],"categories_nodes":[],"categories_segments":[],"categories_sizes":[],"default_left":[0,0,0,0,0,0,0,0,0,0,0,0,0,0,0,0,0,0,0],"id":11,"left_children":[1,3,5,7,9,-1,11,13,15,-1,-1,-1,17,-1,-1,-1,-1,-1,-1],"loss_changes":[6.7483597E0,1.3054241E1,3.3244328E0,6.107767E0,3.5327454E0,0E0,1.5571165E0,5.344748E0,5.402881E0,0E0,0E0,0E0,2.0310783E-1,0E0,0E0,0E0,0E0,0E0,0E0],"parents":[2147483647,0,0,1,1,2,2,3,3,4,4,6,6,7,7,8,8,12,12],"right_children":[2,4,6,8,10,-1,12,14,16,-1,-1,-1,18,-1,-1,-1,-1,-1,-1],"split_conditions":[1.1033493E0,4.140445E-1,-1.2689321E0,-1.9819215E-1,2.6099467E0,1.203187E-2,-5.003474E-2,-6.930664E-1,-2.2188069E-1,5.270345E-2,7.916627E-3,-1.1474901E-3,1.220982E0,-1.2283261E-2,2.1879476E-2,-9.495439E-4,-2.6767662E-2,-1.7712018E-2,-3.6643695E-2],"split_indices":[6,19,16,17,10,0,19,0,19,0,0,0,0,0,0,0,0,0,0],"split_type":[0,0,0,0,0,0,0,0,0,0,0,0,0,0,0,0,0,0,0],"sum_hessian":[1.8630786E2,1.4961748E2,3.669037E1,1.2926276E2,2.0354725E1,5.2263007E0,3.146407E1,4.73195E1,8.194326E1,1.2664287E1,7.6904373E0,5.206804E0,2.6257265E1,1.625557E1,3.1063932E1,4.7234863E1,3.4708393E1,8.006467E0,1.82508E1],"tree_param":{"num_deleted":"0","num_feature":"20","num_nodes":"19","size_leaf_vector":"1"}},{"base_weights":[-4.8109863E-2,-3.1034666E-1,4.1194522E-1,-5.084112E-1,1.2634914E-1,-2.1460889E-2,5.081574E-1,-4.1861925E-3,-5.446505E-1,2.790146E-1,-1.850892E-2,7.48021E-1,7.957159E-2,-9.593907E-3,-2.8698102E-2,-9.261526E-3,3.0936047E-2,5.9183147E-2,2.3316534E-2,-1.3312054E-2,3.2293223E-2],"categories":[],"categories_nodes":[],"categories_segments":[],"categories_sizes":[],"default_left":[0,0,0,0,0,0,0,0,0,0,0,0,0,0,0,0,0,0,0,0,0],"id":12,"left_children":[1,3,5,7,9,-1,11,-1,13,15,-1,17,19,-1,-1,-1,-1,-1,-1,-1,-1],"loss_changes":[2.092057E1,9.69089E0,5.426979E0,1.0456142E0,2.838223E0,0E0,5.7137117E0,0E0,4.8167992E-1,4.658722E0,0E0,3.47151E0,4.677163E0,0E0,0E0,0E0,0E0,0E0,0E0,0E0,0E0],"parents":[2147483647,0,0,1,1,2,2,3,3,4,4,6,6,8,8,9,9,11,11,12,12],"right_children":[2,4,6,8,10,-1,12,-1,14,16,-1,18,20,-1,-1,-1,-1,-1,-1,-1,-1],"split_conditions":[3.5585502E-1,2.0512334E-1,-1.471257E0,-7.000919E-1,7.629396E-1,-2.1460889E-2,2.0788327E-1,-4.1861925E-3,-1.0944175E0,-6.727736E-1,-1.850892E-2,8.946446E-1,1.5727094E0,-9.593907E-3,-2.8698102E-2,-9.261526E-3,3.0936047E-2,5.9183147E-2,2.3316534E-2,-1.3312054E-2,3.2293223E-2],"split_indices":[4,17,10,15,10,0,10,0,8,0,0,6,3,0,0,0,0,0,0,0,0],"split_type":[0,0,0,0,0,0,0,0,0,0,0,0,0,0,0,0,0,0,0,0,0],"sum_hessian":[1.7040303E2,1.08985504E2,6.1417534E1,7.496678E1,3.4018726E1,5.66433E0,5.57532E1,6.50144E0,6.846534E1,2.6675432E1,7.343293E0,3.4880535E1,2.0872665E1,6.382389E0,6.208295E1,1.1435427E1,1.5240006E1,1.1671793E1,2.3208744E1,1.3342884E1,7.5297804E0],"tree_param":{"num_deleted":"0","num_feature":"20","num_nodes":"21","size_leaf_vector":"1"}},{"base_weights":[-3.970822E-2,7.835687E-1,-2.3393588E-1,4.3451476E-1,5.3882092E-2,-7.8290306E-2,-4.0692243E-1,3.881002E-2,-0E0,-2.7645418E-1,4.616329E-1,-7.65274E-2,-4.9230084E-1,-2.6856303E-2,-4.049121E-3,3.6748867E-2,3.1793583E-3,-1.4827444E-2,9.662637E-3,-4.726763E-3,-2.711161E-2],"categories":[],"categories_nodes":[],"categories_segments":[],"categories_sizes":[],"default_left":[0,0,0,0,0,0,0,0,0,0,0,0,0,0,0,0,0,0,0,0,0],"id":13,"left_children":[1,3,5,7,-1,9,11,-1,-1,13,15,17,19,-1,-1,-1,-1,-1,-1,-1,-1],"loss_changes":[2.3851324E1,2.067421E0,3.156949E0,2.2716112E0,0E0,7.2091937E0,1.4822178E0,0E0,0E0,2.3789089E0,1.8175151E0,9.054582E-1,7.41909E-1,0E0,0E0,0E0,0E0,0E0,0E0,0E0,0E0],"parents":[2147483647,0,0,1,1,2,2,3,3,5,5,6,6,9,9,10,10,11,11,12,12],"right_children":[2,4,6,8,-1,10,12,-1,-1,14,16,18,20,-1,-1,-1,-1,-1,-1,-1,-1],"split_conditions":[-1.318532E0,-2.274113E-1,2.0769978E-1,-3.1683522E-1,5.3882092E-2,-5.408434E-2,-5.614074E-1,3.881002E-2,-0E0,1.1602345E-2,-3.2288358E-2,1.2234688E0,-1.521716E0,-2.6856303E-2,-4.049121E-3,3.6748867E-2,3.1793583E-3,-1.4827444E-2,9.662637E-3,-4.726763E-3,-2.711161E-2],"split_indices":[5,18,12,9,0,12,15,0,0,9,10,1,10,0,0,0,0,0,0,0,0],"split_type":[0,0,0,0,0,0,0,0,0,0,0,0,0,0,0,0,0,0,0,0,0],"sum_hessian":[1.4628526E2,2.6956766E1,1.1932849E2,1.4180934E1,1.2775832E1,6.426377E1,5.5064724E1,7.184369E0,6.9965644E0,4.7680965E1,1.6582804E1,1.2132084E1,4.293264E1,1.909004E1,2.8590925E1,8.929706E0,7.6530976E0,6.804474E0,5.3276105E0,5.495651E0,3.743699E1],"tree_param":{"num_deleted":"0","num_feature":"20","num_nodes":"21","size_leaf_vector":"1"}},{"base_weights":[2.4781551E-2,8.1342176E-2,-5.0107497E-1,-2.203137E-2,6.0980296E-1,-9.696709E-4,-3.4167524E-2,1.982693E-1,-1.9714905E-1,7.923502E-1,6.2364647E-3,2.0039616E-2,-1.0715785E-2,6.6190254E-4,-2.3282956E-2,4.7461793E-2,1.2651903E-2],"categories":[],"categories_nodes":[],"categories_segments":[],"categories_sizes":[],"default_left":[0,0,0,0,0,0,0,0,0,0,0,0,0,0,0,0,0],"id":14,"left_children":[1,3,5,7,9,-1,-1,11,13,15,-1,-1,-1,-1,-1,-1,-1],"loss_changes":[5.584126E0,9.387413E0,1.5084906E0,5.6063585E0,2.2472668E0,0E0,0E0,5.51041E0,4.637285E0,1.2098608E0,0E0,0E0,0E0,0E0,0E0,0E0,0E0],"parents":[2147483647,0,0,1,1,2,2,3,3,4,4,7,7,8,8,9,9],"right_children":[2,4,6,8,10,-1,-1,12,14,16,-1,-1,-1,-1,-1,-1,-1],"split_conditions":[1.3954215E0,4.140445E-1,-7.421263E-1,-1.9819215E-1,1.2714772E0,-9.696709E-4,-3.4167524E-2,3.4436804E-1,-2.748986E-1,1.2787755E0,6.2364647E-3,2.0039616E-2,-1.0715785E-2,6.6190254E-4,-2.3282956E-2,4.7461793E-2,1.2651903E-2],"split_indices":[5,19,16,17,0,0,0,5,19,6,0,0,0,0,0,0,0],"split_type":[0,0,0,0,0,0,0,0,0,0,0,0,0,0,0,0,0],"sum_hessian":[1.8560301E2,1.6889497E2,1.6708044E1,1.423063E2,2.658866E1,5.1930623E0,1.1514981E1,6.2682026E1,7.962428E1,1.8478367E1,8.1102915E0,4.2235435E1,2.0446592E1,4.523482E1,3.4389458E1,1.3287491E1,5.190876E0],"tree_param":{"num_deleted":"0","num_feature":"20","num_nodes":"17","size_leaf_vector":"1"}},{"base_weights":[1.4400081E-2,-2.3930094E-1,3.687802E-1,-4.3498397E-1,7.040004E-2,-2.771685E-2,4.555751E-1,1.57566E-2,-5.14754E-1,3.100337E-1,-2.9415196E-1,-2.1521939E-2,5.513375E-1,-2.9550618E-2,-1.1627077E-2,2.794378E-2,-1.7385585E-3,-3.0743554E-2,8.804592E-3,3.841656E-2,1.4909391E-2],"categories":[],"categories_nodes":[],"categories_segments":[],"categories_sizes":[],"default_left":[0,0,0,0,0,0,0,0,0,0,0,0,0,0,0,0,0,0,0,0,0],"id":15,"left_children":[1,3,5,7,9,-1,11,-1,13,15,17,-1,19,-1,-1,-1,-1,-1,-1,-1,-1],"loss_changes":[1.5312245E1,6.08568E0,6.068613E0,3.919938E0,3.5845587E0,0E0,5.9633837E0,0E0,9.1509056E-1,2.2007039E0,2.657104E0,0E0,2.8606148E0,0E0,0E0,0E0,0E0,0E0,0E0,0E0,0E0],"parents":[2147483647,0,0,1,1,2,2,3,3,4,4,6,6,8,8,9,9,10,10,12,12],"right_children":[2,4,6,8,10,-1,12,-1,14,16,18,-1,20,-1,-1,-1,-1,-1,-1,-1,-1],"split_conditions":[3.2861105E-1,1.4226691E-1,-2.0830588E0,-6.9035375E-1,-9.8142125E-2,-2.771685E-2,-1.471257E0,1.57566E-2,6.2314346E-3,5.555877E-1,-6.14653E-2,-2.1521939E-2,5.733877E-1,-2.9550618E-2,-1.1627077E-2,2.794378E-2,-1.7385585E-3,-3.0743554E-2,8.804592E-3,3.841656E-2,1.4909391E-2],"split_indices":[2,11,11,15,12,0,10,0,18,18,19,0,19,0,0,0,0,0,0,0,0],"split_type":[0,0,0,0,0,0,0,0,0,0,0,0,0,0,0,0,0,0,0,0,0],"sum_hessian":[1.6719646E2,9.755888E1,6.9637566E1,5.9610428E1,3.7948452E1,5.191415E0,6.444615E1,5.1839466E0,5.4426483E1,2.3198103E1,1.4750349E1,5.6728854E0,5.877327E1,4.1277092E1,1.314939E1,1.31015835E1,1.009652E1,8.621541E0,6.128807E0,2.9790192E1,2.8983076E1],"tree_param":{"num_deleted":"0","num_feature":"20","num_nodes":"21","size_leaf_vector":"1"}},{"base_weights":[-7.7473824E-3,6.918969E-1,-1.5044677E-1,7.751346E-4,9.062444E-1,3.457096E-2,-2.0154352E-1,5.2603997E-2,1.9709235E-2,-4.1808158E-1,-8.540847E-2,-2.4245001E-2,4.8824569E-4,3.0412814E-3,-1.8211756E-2],"categories":[],"categories_nodes":[],"categories_segments":[],"categories_sizes":[],"default_left":[0,0,0,0,0,0,0,0,0,0,0,0,0,0,0],"id":16,"left_children":[1,3,5,-1,7,-1,9,-1,-1,11,13,-1,-1,-1,-1],"loss_changes":[1.6064074E1,3.8352022E0,5.9304876E0,0E0,7.6730156E-1,0E0,3.1085048E0,0E0,0E0,1.3098788E0,3.5429573E0,0E0,0E0,0E0,0E0],"parents":[2147483647,0,0,1,1,2,2,4,4,6,6,9,9,10,10],"right_children":[2,4,6,-1,8,-1,10,-1,-1,12,14,-1,-1,-1,-1],"split_conditions":[-1.3372927E0,-1.6769116E-1,-7.115838E-1,7.751346E-4,-1.244442E0,3.457096E-2,-4.1429958E-1,5.2603997E-2,1.9709235E-2,-1.6737846E-1,2.8510374E-1,-2.4245001E-2,4.8824569E-4,3.0412814E-3,-1.8211756E-2],"split_indices":[12,8,15,0,19,0,17,0,0,15,19,0,0,0,0],"split_type":[0,0,0,0,0,0,0,0,0,0,0,0,0,0,0],"sum_hessian":[1.5837848E2,2.5733814E1,1.3264467E2,6.6918983E0,1.9041916E1,6.4025397E0,1.26242134E2,1.3437653E1,5.604263E0,4.2408646E1,8.383349E1,3.6709312E1,5.6993318E0,5.5526207E1,2.830728E1],"tree_param":{"num_deleted":"0","num_feature":"20","num_nodes":"15","size_leaf_vector":"1"}},{"base_weights":[-1.847311E-2,4.33407E-2,-5.2116536E-2,7.9151755E-3,-5.285927E-1,-8.7584384E-2,4.0916926E-1,-7.4498677E-3,-3.160959E-2,5.039393E-4,-1.61958E-2,-6.284896E-3,3.0969147E-2],"categories":[],"categories_nodes":[],"categories_segments":[],"categories_sizes":[],"default_left":[0,0,0,0,0,0,0,0,0,0,0,0,0],"id":17,"left_children":[1,-1,3,5,7,9,11,-1,-1,-1,-1,-1,-1],"loss_changes":[5.6353674E0,0E0,5.328493E0,6.405681E0,5.9952974E-1,3.1349123E0,3.783423E0,0E0,0E0,0E0,0E0,0E0,0E0],"parents":[2147483647,0,0,2,2,3,3,4,4,5,5,6,6],"right_children":[2,-1,4,6,8,10,12,-1,-1,-1,-1,-1,-1],"split_conditions":[-2.1192093E0,4.33407E-2,1.3605064E0,4.9465126E-1,-8.04832E-1,-7.269028E-2,-6.234731E-1,-7.4498677E-3,-3.160959E-2,5.039393E-4,-1.61958E-2,-6.284896E-3,3.0969147E-2],"split_indices":[11,0,4,10,16,19,13,0,0,0,0,0,0],"split_type":[0,0,0,0,0,0,0,0,0,0,0,0,0],"sum_hessian":[1.881675E2,5.420261E0,1.8274724E2,1.6342265E2,1.9324575E1,1.3275095E2,3.0671717E1,5.134378E0,1.4190198E1,9.465005E1,3.810089E1,8.68951E0,2.1982206E1],"tree_param":{"num_deleted":"0","num_feature":"20","num_nodes":"13","size_leaf_vector":"1"}},{"base_weights":[-1.6400533E-2,-2.2574997E-1,3.6002228E-1,-4.7044665E-1,1.5783893E-1,4.938407E-2,2.2863713E-1,-3.0691294E-2,-3.6753157E-1,2.6821867E-1,-2.136076E-2,-0E0,6.646595E-1,1.5654175E-2,-2.3698786E-2,3.909017E-3,3.7004944E-2,-1.254107E-2,2.0347321E-2,6.0030413E-3,4.2839974E-2],"categories":[],"categories_nodes":[],"categories_segments":[],"categories_sizes":[],"default_left":[0,0,0,0,0,0,0,0,0,0,0,0,0,0,0,0,0,0,0,0,0],"id":18,"left_children":[1,3,5,7,9,-1,11,-1,13,15,-1,17,19,-1,-1,-1,-1,-1,-1,-1,-1],"loss_changes":[1.3536644E1,1.0523235E1,4.59529E0,5.6769943E-1,2.9997683E0,0E0,5.2703342E0,0E0,3.4092216E0,3.249102E0,0E0,3.8361201E0,1.6498566E0,0E0,0E0,0E0,0E0,0E0,0E0,0E0,0E0],"parents":[2147483647,0,0,1,1,2,2,3,3,4,4,6,6,8,8,9,9,11,11,12,12],"right_children":[2,4,6,8,10,-1,12,-1,14,16,-1,18,20,-1,-1,-1,-1,-1,-1,-1,-1],"split_conditions":[3.5585502E-1,1.2976381E-1,5.5290186E-1,-1.3091263E0,3.4548554E-1,4.938407E-2,1.451744E0,-3.0691294E-2,-1.0452926E0,-3.8412847E-3,-2.136076E-2,1.2592803E-1,-1.398817E0,1.5654175E-2,-2.3698786E-2,3.909017E-3,3.7004944E-2,-1.254107E-2,2.0347321E-2,6.0030413E-3,4.2839974E-2],"split_indices":[4,17,1,12,19,0,6,0,19,19,0,18,14,0,0,0,0,0,0,0,0],"split_type":[0,0,0,0,0,0,0,0,0,0,0,0,0,0,0,0,0,0,0,0,0],"sum_hessian":[1.6889967E2,1.0909308E2,5.980659E1,6.655669E1,4.2536392E1,8.528165E0,5.1278427E1,2.4293385E1,4.22633E1,3.6612175E1,5.9242187E0,3.4603172E1,1.6675255E1,5.1949363E0,3.7068367E1,2.7498325E1,9.113849E0,2.1784393E1,1.2818779E1,5.1202474E0,1.1555007E1],"tree_param":{"num_deleted":"0","num_feature":"20","num_nodes":"21","size_leaf_vector":"1"}},{"base_weights":[-3.2598514E-2,5.844797E-1,-1.7898719E-1,8.975352E-1,3.1313583E-1,-9.574701E-3,-3.458854E-1,2.2573566E-2,5.5255275E-2,3.8466852E-2,-2.8707262E-2,-3.5534504E-1,1.6285281E-1,1.0717868E-2,-4.0318617E-1,9.157395E-3,-1.2392246E-2,-5.424206E-3,-2.5568385E-2,-1.2547702E-2,1.7770296E-2,-2.5121583E-2,-3.9867125E-3],"categories":[],"categories_nodes":[],"categories_segments":[],"categories_sizes":[],"default_left":[0,0,0,0,0,0,0,0,0,0,0,0,0,0,0,0,0,0,0,0,0,0,0],"id":19,"left_children":[1,3,5,7,9,11,13,-1,-1,-1,15,17,19,-1,21,-1,-1,-1,-1,-1,-1,-1,-1],"loss_changes":[1.387276E1,1.9564676E0,3.4758558E0,2.7048016E-1,2.9508991E0,3.895374E0,2.1487288E0,0E0,0E0,0E0,6.1980903E-1,6.949415E-1,3.5899634E0,0E0,1.7181482E0,0E0,0E0,0E0,0E0,0E0,0E0,0E0,0E0],"parents":[2147483647,0,0,1,1,2,2,3,3,4,4,5,5,6,6,10,10,11,11,12,12,14,14],"right_children":[2,4,6,8,10,12,14,-1,-1,-1,16,18,20,-1,22,-1,-1,-1,-1,-1,-1,-1,-1],"split_conditions":[-1.318532E0,-1.2607656E0,4.171936E-2,-1.6574097E-1,-3.4001386E-1,-4.9319756E-1,-6.234731E-1,2.2573566E-2,5.5255275E-2,3.8466852E-2,3.6774987E-1,6.85803E-2,-5.610646E-1,1.0717868E-2,1.363045E0,9.157395E-3,-1.2392246E-2,-5.424206E-3,-2.5568385E-2,-1.2547702E-2,1.7770296E-2,-2.5121583E-2,-3.9867125E-3],"split_indices":[5,19,19,9,9,2,13,0,0,0,8,18,17,0,13,0,0,0,0,0,0,0,0],"split_type":[0,0,0,0,0,0,0,0,0,0,0,0,0,0,0,0,0,0,0,0,0,0,0],"sum_hessian":[1.5078485E2,2.7920084E1,1.2286477E2,1.1185255E1,1.6734829E1,6.2057552E1,6.0807217E1,5.2174273E0,5.9678273E0,6.4901714E0,1.02446575E1,2.0312807E1,4.1744747E1,5.0987754E0,5.5708443E1,5.102115E0,5.142543E0,9.099449E0,1.1213359E1,1.2946897E1,2.879785E1,4.17569E1,1.3951539E1],"tree_param":{"num_deleted":"0","num_feature":"20","num_nodes":"23","size_leaf_vector":"1"}},{"base_weights":[5.0515137E-3,-4.5260587E-1,7.376603E-2,2.694319E-3,-3.5438858E-2,1.4914888E-1,-3.0830345E-1,3.6224818E-1,-1.3870475E-2,-2.9274939E-2,6.798471E-2,4.8801824E-3,4.2456247E-2,3.615285E-2,-4.317635E-3,2.9313246E-2,-2.2318693E-2],"categories":[],"categories_nodes":[],"categories_segments":[],"categories_sizes":[],"default_left":[0,0,0,0,0,0,0,0,0,0,0,0,0,0,0,0,0],"id":20,"left_children":[1,3,5,-1,-1,7,9,11,13,-1,15,-1,-1,-1,-1,-1,-1],"loss_changes":[5.683981E0,3.1802535E0,4.61209E0,0E0,0E0,4.677865E0,2.8604329E0,7.274357E0,4.1311517E0,0E0,3.7042124E0,0E0,0E0,0E0,0E0,0E0,0E0],"parents":[2147483647,0,0,1,1,2,2,5,5,6,6,7,7,8,8,10,10],"right_children":[2,4,6,-1,-1,8,10,12,14,-1,16,-1,-1,-1,-1,-1,-1],"split_conditions":[-1.3392797E0,-6.383416E-2,9.7784853E-1,2.694319E-3,-3.5438858E-2,7.4955844E-4,4.140445E-1,-6.1373943E-1,-1.9981344E0,-2.9274939E-2,1.1033493E0,4.8801824E-3,4.2456247E-2,3.615285E-2,-4.317635E-3,2.9313246E-2,-2.2318693E-2],"split_indices":[4,8,11,0,0,1,19,7,11,0,6,0,0,0,0,0,0],"split_type":[0,0,0,0,0,0,0,0,0,0,0,0,0,0,0,0,0],"sum_hessian":[1.7885608E2,2.2064575E1,1.567915E2,7.6780086E0,1.4386566E1,1.3193643E2,2.4855072E1,5.6655922E1,7.528051E1,1.3984826E1,1.0870246E1,3.8004475E1,1.865145E1,5.412138E0,6.986838E1,5.406871E0,5.463375E0],"tree_param":{"num_deleted":"0","num_feature":"20","num_nodes":"17","size_leaf_vector":"1"}},{"base_weights":[-0E0,-2.6628667E-1,3.701414E-1,-4.7436792E-1,2.0825759E-2,5.5448675E-1,-0E0,-6.466643E-3,-5.0926465E-1,1.8163116E-1,-2.99523E-2,4.734536E-2,3.2878432E-1,-3.0629966E-2,4.926248E-1,-1.6683664E-2,-2.9578784E-2,3.614153E-2,-2.4096607E-3,-8.658878E-3,2.7235141E-2,1.3039641E-3,4.019334E-2],"categories":[],"categories_nodes":[],"categories_segments":[],"categories_sizes":[],"default_left":[0,0,0,0,0,0,0,0,0,0,0,0,0,0,0,0,0,0,0,0,0,0,0],"id":21,"left_children":[1,3,5,7,9,11,13,-1,15,17,-1,-1,19,-1,21,-1,-1,-1,-1,-1,-1,-1,-1],"loss_changes":[1.5666225E1,5.5867543E0,4.565261E0,4.863329E-1,4.1192136E0,3.343998E0,7.5515914E0,0E0,3.0767155E-1,4.2397385E0,0E0,0E0,3.504986E0,0E0,1.8908172E0,0E0,0E0,0E0,0E0,0E0,0E0,0E0,0E0],"parents":[2147483647,0,0,1,1,2,2,3,3,4,4,5,5,6,6,8,8,9,9,12,12,14,14],"right_children":[2,4,6,8,10,12,14,-1,16,18,-1,-1,20,-1,22,-1,-1,-1,-1,-1,-1,-1,-1],"split_conditions":[3.2861105E-1,1.17800295E-1,4.9465126E-1,-4.1056916E-1,-2.0421932E-2,8.946446E-1,1.3408463E0,-6.466643E-3,-3.2356396E-1,-1.8482189E-1,-2.99523E-2,4.734536E-2,9.030922E-1,-3.0629966E-2,4.6453622E-1,-1.6683664E-2,-2.9578784E-2,3.614153E-2,-2.4096607E-3,-8.658878E-3,2.7235141E-2,1.3039641E-3,4.019334E-2],"split_indices":[2,17,10,10,12,6,1,0,16,10,0,0,1,0,18,0,0,0,0,0,0,0,0],"split_type":[0,0,0,0,0,0,0,0,0,0,0,0,0,0,0,0,0,0,0,0,0,0,0],"sum_hessian":[1.5597661E2,9.100638E1,6.497022E1,5.2400063E1,3.860632E1,4.296818E1,2.200204E1,5.7245417E0,4.667552E1,3.1624249E1,6.982071E0,1.3777546E1,2.9190636E1,9.692538E0,1.2309503E1,1.7703934E1,2.8971586E1,8.597028E0,2.302722E1,8.729741E0,2.0460894E1,5.7049212E0,6.6045814E0],"tree_param":{"num_deleted":"0","num_feature":"20","num_nodes":"23","size_leaf_vector":"1"}},{"base_weights":[1.2588736E-2,5.908762E-1,-1.3870028E-1,7.9644537E-1,2.0958465E-3,9.779212E-4,-3.704249E-1,9.3527037E-1,1.3082516E-2,-3.3328187E-1,1.24478504E-1,-5.1075286E-1,-1.3321039E-1,2.8774261E-2,5.840032E-2,-3.6734298E-3,-2.2555893E-2,-1.6918411E-2,1.4375907E-2,-3.010874E-2,-1.2945558E-2,1.8477384E-2,-2.106315E-2],"categories":[],"categories_nodes":[],"categories_segments":[],"categories_sizes":[],"default_left":[0,0,0,0,0,0,0,0,0,0,0,0,0,0,0,0,0,0,0,0,0,0,0],"id":22,"left_children":[1,3,5,7,-1,9,11,13,-1,15,17,19,21,-1,-1,-1,-1,-1,-1,-1,-1,-1,-1],"loss_changes":[1.3156645E1,3.3878374E0,3.8811133E0,1.182908E0,0E0,3.1505768E0,1.3292928E0,2.5122643E-1,0E0,5.2574015E-1,4.3900075E0,3.1176186E-1,2.9896204E0,0E0,0E0,0E0,0E0,0E0,0E0,0E0,0E0,0E0,0E0],"parents":[2147483647,0,0,1,1,2,2,3,3,5,5,6,6,7,7,9,9,10,10,11,11,12,12],"right_children":[2,4,6,8,-1,10,12,14,-1,16,18,20,22,-1,-1,-1,-1,-1,-1,-1,-1,-1,-1],"split_conditions":[-1.318532E0,4.4761322E-2,2.6380926E-1,-1.2457433E0,2.0958465E-3,-3.1466168E-1,1.3509095E0,-1.3830028E0,1.3082516E-2,-1.6686323E-1,-7.531216E-1,1.0136629E0,1.3536024E0,2.8774261E-2,5.840032E-2,-3.6734298E-3,-2.2555893E-2,-1.6918411E-2,1.4375907E-2,-3.010874E-2,-1.2945558E-2,1.8477384E-2,-2.106315E-2],"split_indices":[5,17,19,13,0,19,5,3,0,11,14,9,1,0,0,0,0,0,0,0,0,0,0],"split_type":[0,0,0,0,0,0,0,0,0,0,0,0,0,0,0,0,0,0,0,0,0,0,0],"sum_hessian":[1.469594E2,2.9707594E1,1.1725181E2,2.0989307E1,8.7182865E0,7.38181E1,4.3433704E1,1.5623444E1,5.3658633E0,1.9009743E1,5.480836E1,2.5938269E1,1.7495436E1,8.351551E0,7.271893E0,6.9561605E0,1.2053582E1,1.3697283E1,4.1111076E1,1.7207872E1,8.730395E0,6.091677E0,1.1403758E1],"tree_param":{"num_deleted":"0","num_feature":"20","num_nodes":"23","size_leaf_vector":"1"}},{"base_weights":[3.7548676E-2,1.8354416E-1,-1.9793327E-1,4.5596462E-1,3.9617624E-3,-3.722346E-1,1.4952081E-1,-3.0107154E-3,5.7107717E-1,-8.3367296E-2,3.057093E-2,1.8248687E-2,-4.949674E-1,4.0200606E-2,-2.8631726E-1,7.0567983E-3,3.1637006E-2,3.3190052E-3,-1.7000195E-2,-2.8666807E-2,-6.6456185E-3,7.110707E-3,-2.5631556E-2],"categories":[],"categories_nodes":[],"categories_segments":[],"categories_sizes":[],"default_left":[0,0,0,0,0,0,0,0,0,0,0,0,0,0,0,0,0,0,0,0,0,0,0],"id":23,"left_children":[1,3,5,7,9,11,13,-1,15,17,-1,-1,19,-1,21,-1,-1,-1,-1,-1,-1,-1,-1],"loss_changes":[6.485956E0,5.652896E0,4.4704804E0,2.840045E0,3.947468E0,4.68271E0,7.515521E0,0E0,7.953043E-1,2.5248091E0,0E0,0E0,1.0189724E0,0E0,1.6975427E0,0E0,0E0,0E0,0E0,0E0,0E0,0E0,0E0],"parents":[2147483647,0,0,1,1,2,2,3,3,4,4,5,5,6,6,8,8,9,9,12,12,14,14],"right_children":[2,4,6,8,10,12,14,-1,16,18,-1,-1,20,-1,22,-1,-1,-1,-1,-1,-1,-1,-1],"split_conditions":[3.2624987E-1,-1.9819215E-1,1.365345E0,-1.3568356E0,2.9835802E-1,-2.0199902E-1,1.2714772E0,-3.0107154E-3,-1.2474109E0,-2.748986E-1,3.057093E-2,1.8248687E-2,4.7996718E-1,4.0200606E-2,1.0832163E0,7.0567983E-3,3.1637006E-2,3.3190052E-3,-1.7000195E-2,-2.8666807E-2,-6.6456185E-3,7.110707E-3,-2.5631556E-2],"split_indices":[2,17,19,2,19,19,0,0,8,19,0,0,16,0,10,0,0,0,0,0,0,0,0],"split_type":[0,0,0,0,0,0,0,0,0,0,0,0,0,0,0,0,0,0,0,0,0,0,0],"sum_hessian":[1.8561552E2,1.15044846E2,7.057068E1,4.4569313E1,7.047553E1,4.7115757E1,2.3454926E1,8.099008E0,3.6470303E1,6.260487E1,7.870666E0,6.185642E0,4.0930115E1,8.960859E0,1.4494066E1,5.3967485E0,3.1073555E1,3.999194E1,2.261293E1,3.27004E1,8.2297125E0,5.0490675E0,9.444999E0],"tree_param":{"num_deleted":"0","num_feature":"20","num_nodes":"23","size_leaf_vector":"1"}},{"base_weights":[7.179806E-3,-1.9276445E-1,3.0444375E-1,-4.2408362E-1,2.1799737E-1,-2.2764003E-2,3.901649E-1,-0E0,-4.6281376E-1,3.4326974E-1,-1.6597576E-2,-1.6367845E-2,4.725698E-1,-2.5244152E-2,-5.769451E-3,-6.0046706E-3,3.43762E-2,1.5390505E-2,4.4079795E-2],"categories":[],"categories_nodes":[],"categories_segments":[],"categories_sizes":[],"default_left":[0,0,0,0,0,0,0,0,0,0,0,0,0,0,0,0,0,0,0],"id":24,"left_children":[1,3,5,7,9,-1,11,-1,13,15,-1,-1,17,-1,-1,-1,-1,-1,-1],"loss_changes":[1.0285623E1,9.963344E0,4.799243E0,1.1118879E0,2.7905464E0,0E0,4.0047503E0,0E0,7.446852E-1,5.259842E0,0E0,0E0,3.3659792E0,0E0,0E0,0E0,0E0,0E0,0E0],"parents":[2147483647,0,0,1,1,2,2,3,3,4,4,6,6,8,8,9,9,12,12],"right_children":[2,4,6,8,10,-1,12,-1,14,16,-1,-1,18,-1,-1,-1,-1,-1,-1],"split_conditions":[3.461217E-1,1.17800295E-1,-1.4034187E0,-7.000919E-1,6.725466E-2,-2.2764003E-2,-1.3523387E0,-0E0,1.6732092E-1,-6.826629E-1,-1.6597576E-2,-1.6367845E-2,1.3655467E0,-2.5244152E-2,-5.769451E-3,-6.0046706E-3,3.43762E-2,1.5390505E-2,4.4079795E-2],"split_indices":[3,17,10,15,12,0,16,0,11,12,0,0,3,0,0,0,0,0,0],"split_type":[0,0,0,0,0,0,0,0,0,0,0,0,0,0,0,0,0,0,0],"sum_hessian":[1.6988414E2,1.0168211E2,6.8202034E1,6.5174255E1,3.6507862E1,6.1411676E0,6.2060863E1,5.5012665E0,5.9672985E1,3.0341871E1,6.1659904E0,5.8088927E0,5.6251972E1,5.2364567E1,7.308418E0,1.3226015E1,1.7115856E1,4.214775E1,1.4104221E1],"tree_param":{"num_deleted":"0","num_feature":"20","num_nodes":"19","size_leaf_vector":"1"}},{"base_weights":[3.845698E-2,7.154787E-1,-1.396537E-1,8.57555E-1,2.9977595E-3,-3.721989E-1,-5.1286905E-3,5.1732183E-2,5.0791895E-1,-1.5132064E-1,-5.1451135E-1,2.8373185E-1,-2.4431299E-1,4.3093417E-2,8.122584E-4,-1.7497273E-2,1.0262458E-2,-3.0561347E-2,-9.3405945E-3,-1.235188E-2,4.5033615E-2,6.2840404E-3,-1.9487506E-2],"categories":[],"categories_nodes":[],"categories_segments":[],"categories_sizes":[],"default_left":[0,0,0,0,0,0,0,0,0,0,0,0,0,0,0,0,0,0,0,0,0,0,0],"id":25,"left_children":[1,3,5,7,-1,9,11,-1,13,15,17,19,21,-1,-1,-1,-1,-1,-1,-1,-1,-1,-1],"loss_changes":[1.8759113E1,2.8492298E0,3.8053992E0,6.917801E-1,0E0,1.2236862E0,5.605124E0,0E0,1.9813635E0,1.534434E0,5.8317614E-1,1.2382636E1,2.4989161E0,0E0,0E0,0E0,0E0,0E0,0E0,0E0,0E0,0E0,0E0],"parents":[2147483647,0,0,1,1,2,2,3,3,5,5,6,6,8,8,9,9,10,10,11,11,12,12],"right_children":[2,4,6,8,-1,10,12,-1,14,16,18,20,22,-1,-1,-1,-1,-1,-1,-1,-1,-1,-1],"split_conditions":[-1.1726176E0,-1.2415665E0,-3.9222077E-1,-1.244442E0,2.9977595E-3,-8.203051E-1,-1.3241225E-1,5.1732183E-2,-3.4001386E-1,1.3045213E0,-5.578533E-1,-2.9478002E-1,-4.1302115E-1,4.3093417E-2,8.122584E-4,-1.7497273E-2,1.0262458E-2,-3.0561347E-2,-9.3405945E-3,-1.235188E-2,4.5033615E-2,6.2840404E-3,-1.9487506E-2],"split_indices":[19,13,17,19,0,11,19,0,9,7,17,19,16,0,0,0,0,0,0,0,0,0,0],"split_type":[0,0,0,0,0,0,0,0,0,0,0,0,0,0,0,0,0,0,0,0,0,0,0],"sum_hessian":[1.5234735E2,3.0905901E1,1.2144145E2,2.4895317E1,6.0105853E0,4.326257E1,7.817888E1,1.4384718E1,1.0510598E1,1.8440037E1,2.4822533E1,3.509615E1,4.3082733E1,5.336294E0,5.174304E0,1.2040996E1,6.39904E0,1.7928299E1,6.8942347E0,1.9261911E1,1.5834235E1,1.2019969E1,3.1062765E1],"tree_param":{"num_deleted":"0","num_feature":"20","num_nodes":"23","size_leaf_vector":"1"}},{"base_weights":[-1.3319951E-3,4.25239E-2,-2.9504675E-2,3.4784538E-1,-1.05918154E-1,-4.568159E-2,5.011448E-1,-3.0827278E-1,1.3528983E-1,-2.4305252E-2,9.464904E-3,3.3980194E-2,1.1216564E-2,8.071337E-3,-2.1835687E-2,-1.2499399E-3,3.0462349E-2],"categories":[],"categories_nodes":[],"categories_segments":[],"categories_sizes":[],"default_left":[0,0,0,0,0,0,0,0,0,0,0,0,0,0,0,0,0],"id":26,"left_children":[1,3,-1,5,7,9,11,13,15,-1,-1,-1,-1,-1,-1,-1,-1],"loss_changes":[5.038281E0,8.215295E0,0E0,3.656972E0,6.0207243E0,2.0113583E0,1.8041201E0,4.1675324E0,4.3617134E0,0E0,0E0,0E0,0E0,0E0,0E0,0E0,0E0],"parents":[2147483647,0,0,1,1,3,3,4,4,5,5,6,6,7,7,8,8],"right_children":[2,4,-1,6,8,10,12,14,16,-1,-1,-1,-1,-1,-1,-1,-1],"split_conditions":[1.4995029E0,-3.3767018E-1,-2.9504675E-2,-6.103198E-1,6.85803E-2,-6.930664E-1,5.482219E-1,-2.4205804E-1,6.58681E-1,-2.4305252E-2,9.464904E-3,3.3980194E-2,1.1216564E-2,8.071337E-3,-2.1835687E-2,-1.2499399E-3,3.0462349E-2],"split_indices":[6,17,0,15,18,0,12,8,15,0,0,0,0,0,0,0,0],"split_type":[0,0,0,0,0,0,0,0,0,0,0,0,0,0,0,0,0],"sum_hessian":[1.9004756E2,1.7800972E2,1.2037844E1,5.779447E1,1.2021525E2,1.6314663E1,4.147981E1,6.537134E1,5.484391E1,5.2663746E0,1.1048288E1,2.36737E1,1.7806108E1,1.3787528E1,5.158381E1,4.1887703E1,1.2956204E1],"tree_param":{"num_deleted":"0","num_feature":"20","num_nodes":"17","size_leaf_vector":"1"}},{"base_weights":[-1.1861654E-2,-2.5743636E-1,3.5072172E-1,-4.592841E-1,1.0402009E-1,6.8534976E-1,6.988807E-2,-9.7704165E-2,-5.355553E-1,-2.1403633E-2,2.1682547E-1,3.9288583E-3,8.820436E-1,-3.0912355E-2,6.0148466E-1,1.4302245E-2,-2.1359658E-2,-2.9582513E-2,-1.063845E-2,4.142062E-2,1.1580812E-3,2.2556057E-2,4.989935E-2,-1.0315969E-3,3.9636068E-2],"categories":[],"categories_nodes":[],"categories_segments":[],"categories_sizes":[],"default_left":[0,0,0,0,0,0,0,0,0,0,0,0,0,0,0,0,0,0,0,0,0,0,0,0,0],"id":27,"left_children":[1,3,5,7,9,11,13,15,17,-1,19,-1,21,-1,23,-1,-1,-1,-1,-1,-1,-1,-1,-1,-1],"loss_changes":[1.5026889E1,7.4615846E0,6.247177E0,1.6545172E0,2.3488839E0,3.4658937E0,1.4760254E1,1.8929126E0,6.944876E-1,0E0,3.654335E0,0E0,3.2518387E-1,0E0,2.8081713E0,0E0,0E0,0E0,0E0,0E0,0E0,0E0,0E0,0E0,0E0],"parents":[2147483647,0,0,1,1,2,2,3,3,4,4,5,5,6,6,7,7,8,8,10,10,12,12,14,14],"right_children":[2,4,6,8,10,12,14,16,18,-1,20,-1,22,-1,24,-1,-1,-1,-1,-1,-1,-1,-1,-1,-1],"split_conditions":[3.4869015E-1,1.2976381E-1,5.733877E-1,-5.8303016E-1,-7.797602E-2,-1.1253057E-1,1.3272876E0,-3.6544505E-1,6.9626816E-2,-2.1403633E-2,-1.1264111E-1,3.9288583E-3,-6.16987E-1,-3.0912355E-2,-8.0718094E-1,1.4302245E-2,-2.1359658E-2,-2.9582513E-2,-1.063845E-2,4.142062E-2,1.1580812E-3,2.2556057E-2,4.989935E-2,-1.0315969E-3,3.9636068E-2],"split_indices":[3,17,19,15,8,19,0,19,9,0,9,0,18,0,16,0,0,0,0,0,0,0,0,0,0],"split_type":[0,0,0,0,0,0,0,0,0,0,0,0,0,0,0,0,0,0,0,0,0,0,0,0,0],"sum_hessian":[1.6584688E2,9.9301544E1,6.654533E1,6.3636032E1,3.5665516E1,2.9216103E1,3.7329224E1,1.1909433E1,5.1726597E1,5.3502426E0,3.0315273E1,7.790659E0,2.1425442E1,1.6080677E1,2.1248547E1,5.4528685E0,6.456565E0,4.2739883E1,8.986715E0,5.9842844E0,2.4330988E1,6.2807646E0,1.5144678E1,5.1876698E0,1.6060877E1],"tree_param":{"num_deleted":"0","num_feature":"20","num_nodes":"25","size_leaf_vector":"1"}},{"base_weights":[1.3997765E-3,6.026025E-1,-1.6833642E-1,3.1473726E-1,7.813419E-1,4.873654E-3,-3.6298242E-1,-7.3499093E-3,3.7168626E-2,4.6504945E-2,1.3590874E-2,-1.6556357E-1,3.9474177E-1,5.563079E-4,-4.0588942E-1,1.1872713E-2,-1.2447559E-2,3.268548E-2,-1.3706789E-3,-2.3059098E-2,-8.38753E-3],"categories":[],"categories_nodes":[],"categories_segments":[],"categories_sizes":[],"default_left":[0,0,0,0,0,0,0,0,0,0,0,0,0,0,0,0,0,0,0,0,0],"id":28,"left_children":[1,3,5,7,9,11,13,-1,-1,-1,-1,15,17,-1,19,-1,-1,-1,-1,-1,-1],"loss_changes":[1.6080004E1,1.3083963E0,4.1661844E0,3.3960156E0,1.0315876E0,4.505923E0,9.762974E-1,0E0,0E0,0E0,0E0,1.6624715E0,2.3520129E0,0E0,5.091629E-1,0E0,0E0,0E0,0E0,0E0,0E0],"parents":[2147483647,0,0,1,1,2,2,3,3,4,4,5,5,6,6,11,11,12,12,14,14],"right_children":[2,4,6,8,10,12,14,-1,-1,-1,-1,16,18,-1,20,-1,-1,-1,-1,-1,-1],"split_conditions":[-1.3195778E0,-1.9575207E-1,2.0769978E-1,-1.3797491E0,-1.2672952E0,5.1455174E-2,-6.8468803E-1,-7.3499093E-3,3.7168626E-2,4.6504945E-2,1.3590874E-2,-5.324362E-1,-5.003474E-2,5.563079E-4,6.5857047E-1,1.1872713E-2,-1.2447559E-2,3.268548E-2,-1.3706789E-3,-2.3059098E-2,-8.38753E-3],"split_indices":[5,18,12,12,19,0,15,0,0,0,0,11,19,0,8,0,0,0,0,0,0],"split_type":[0,0,0,0,0,0,0,0,0,0,0,0,0,0,0,0,0,0,0,0,0],"sum_hessian":[1.5415959E2,3.3228527E1,1.2093107E2,1.4529352E1,1.8699175E1,6.4491005E1,5.6440063E1,7.356765E0,7.1725874E0,1.3363318E1,5.3358555E0,4.529574E1,1.9195267E1,5.681673E0,5.0758392E1,7.084632E0,3.8211105E1,1.1533968E1,7.6612983E0,3.9712795E1,1.1045598E1],"tree_param":{"num_deleted":"0","num_feature":"20","num_nodes":"21","size_leaf_vector":"1"}},{"base_weights":[2.3828667E-2,7.562232E-2,-3.9902592E-1,-9.485526E-3,4.3685675E-1,7.331867E-3,-3.0040646E-2,1.9770351E-1,-1.2712328E-1,6.6881084E-1,-6.1335824E-3,-1.2852147E-2,1.8549206E-2,4.9667046E-3,-1.704101E-2,4.224957E-3,4.4383626E-2],"categories":[],"categories_nodes":[],"categories_segments":[],"categories_sizes":[],"default_left":[0,0,0,0,0,0,0,0,0,0,0,0,0,0,0,0,0],"id":29,"left_children":[1,3,5,7,9,-1,-1,11,13,15,-1,-1,-1,-1,-1,-1,-1],"loss_changes":[4.060668E0,5.1562138E0,2.4012752E0,3.3378685E0,4.3219666E0,0E0,0E0,4.0486937E0,4.322431E0,2.7229872E0,0E0,0E0,0E0,0E0,0E0,0E0,0E0],"parents":[2147483647,0,0,1,1,2,2,3,3,4,4,7,7,8,8,9,9],"right_children":[2,4,6,8,10,-1,-1,12,14,16,-1,-1,-1,-1,-1,-1,-1],"split_conditions":[1.4470942E0,4.140445E-1,1.3426818E0,-3.1776464E-1,1.3272876E0,7.331867E-3,-3.0040646E-2,-6.145089E-1,-2.9478002E-1,-2.3689389E-1,-6.1335824E-3,-1.2852147E-2,1.8549206E-2,4.9667046E-3,-1.704101E-2,4.224957E-3,4.4383626E-2],"split_indices":[6,19,13,14,0,0,0,15,19,10,0,0,0,0,0,0,0],"split_type":[0,0,0,0,0,0,0,0,0,0,0,0,0,0,0,0,0],"sum_hessian":[1.8331854E2,1.6462282E2,1.8695717E1,1.3419086E2,3.0431961E1,5.0241165E0,1.36716E1,4.7920345E1,8.6270515E1,2.143272E1,8.999241E0,1.2862539E1,3.5057804E1,4.2047276E1,4.422324E1,6.531395E0,1.4901325E1],"tree_param":{"num_deleted":"0","num_feature":"20","num_nodes":"17","size_leaf_vector":"1"}},{"base_weights":[1.8570488E-2,-4.689312E-1,1.2022716E-1,-3.1362247E-2,5.9271217E-3,4.7424812E-2,7.341945E-2,-1.9601183E-1,2.246982E-1,-2.3409093E-2,1.2594434E-2,-1.7628273E-2,1.5217184E-2],"categories":[],"categories_nodes":[],"categories_segments":[],"categories_sizes":[],"default_left":[0,0,0,0,0,0,0,0,0,0,0,0,0],"id":30,"left_children":[1,3,5,-1,-1,-1,7,9,11,-1,-1,-1,-1],"loss_changes":[8.219304E0,2.8205385E0,5.13459E0,0E0,0E0,0E0,5.454875E0,6.0595307E0,4.089963E0,0E0,0E0,0E0,0E0],"parents":[2147483647,0,0,1,1,2,2,6,6,7,7,8,8],"right_children":[2,4,6,-1,-1,-1,8,10,12,-1,-1,-1,-1],"split_conditions":[-1.3091263E0,1.3708025E-1,-1.280783E0,-3.1362247E-2,5.9271217E-3,4.7424812E-2,1.6819128E-1,7.7810556E-1,-1.5192589E0,-2.3409093E-2,1.2594434E-2,-1.7628273E-2,1.5217184E-2],"split_indices":[12,11,12,0,0,0,7,14,9,0,0,0,0],"split_type":[0,0,0,0,0,0,0,0,0,0,0,0,0],"sum_hessian":[1.6335007E2,2.7080517E1,1.3626956E2,2.138603E1,5.694485E0,5.6291428E0,1.3064041E2,4.6578445E1,8.4061966E1,2.9069496E1,1.750895E1,9.416485E0,7.4645485E1],"tree_param":{"num_deleted":"0","num_feature":"20","num_nodes":"13","size_leaf_vector":"1"}},{"base_weights":[1.7993437E-2,6.0919434E-1,-1.302787E-1,1.1972963E-2,7.458555E-1,-6.8521485E-2,-3.9830282E-1,1.3396502E-2,8.6882025E-1,-2.8706715E-1,6.842348E-2,-1.3758077E-1,-2.888747E-2,2.0991953E-2,5.2380092E-2,-0E0,-2.0409757E-2,1.4849869E-2,-6.6069043E-3,-1.0053365E-2,-1.3498883E-3],"categories":[],"categories_nodes":[],"categories_segments":[],"categories_sizes":[],"default_left":[0,0,0,0,0,0,0,0,0,0,0,0,0,0,0,0,0,0,0,0,0],"id":31,"left_children":[1,3,5,-1,7,9,11,-1,13,15,17,19,-1,-1,-1,-1,-1,-1,-1,-1,-1],"loss_changes":[1.3784499E1,1.2276535E0,1.9863863E0,0E0,8.375454E-1,3.1624115E0,8.7826777E-1,0E0,5.39176E-1,1.4020789E0,3.0476098E0,4.9866125E-2,0E0,0E0,0E0,0E0,0E0,0E0,0E0,0E0,0E0],"parents":[2147483647,0,0,1,1,2,2,4,4,5,5,6,6,8,8,9,9,10,10,11,11],"right_children":[2,4,6,-1,8,10,12,-1,14,16,18,20,-1,-1,-1,-1,-1,-1,-1,-1,-1],"split_conditions":[-1.318532E0,-1.3639714E0,9.4793516E-1,1.1972963E-2,-1.3047587E0,-5.08074E-1,6.2030447E-1,1.3396502E-2,-1.3021997E0,-1.4237562E0,9.836085E-2,1.1638392E0,-2.888747E-2,2.0991953E-2,5.2380092E-2,-0E0,-2.0409757E-2,1.4849869E-2,-6.6069043E-3,-1.0053365E-2,-1.3498883E-3],"split_indices":[5,4,14,0,13,17,15,0,6,8,6,11,0,0,0,0,0,0,0,0,0],"split_type":[0,0,0,0,0,0,0,0,0,0,0,0,0,0,0,0,0,0,0,0,0],"sum_hessian":[1.5384764E2,3.0048338E1,1.237993E2,9.420731E0,2.0627607E1,1.0244975E2,2.1349546E1,5.363393E0,1.52642145E1,3.911438E1,6.3335377E1,1.0011263E1,1.1338284E1,5.9367833E0,9.327431E0,1.2112899E1,2.700148E1,2.9496489E1,3.3838886E1,5.005753E0,5.0055094E0],"tree_param":{"num_deleted":"0","num_feature":"20","num_nodes":"21","size_leaf_vector":"1"}},{"base_weights":[1.8261378E-3,3.635937E-2,-3.3411533E-2,2.8033016E-2,-5.018902E-1,-5.083906E-2,5.2633816E-1,-7.535454E-3,-3.0048782E-2,1.14768E-2,-1.0328226E-2,4.234845E-2,1.1685103E-2],"categories":[],"categories_nodes":[],"categories_segments":[],"categories_sizes":[],"default_left":[0,0,0,0,0,0,0,0,0,0,0,0,0],"id":32,"left_children":[1,-1,3,5,7,9,11,-1,-1,-1,-1,-1,-1],"loss_changes":[4.9353776E0,0E0,5.293E0,6.442309E0,5.305915E-1,6.215737E0,1.6967683E0,0E0,0E0,0E0,0E0,0E0,0E0],"parents":[2147483647,0,0,2,2,3,3,4,4,5,5,6,6],"right_children":[2,-1,4,6,8,10,12,-1,-1,-1,-1,-1,-1],"split_conditions":[-2.0830588E0,3.635937E-2,1.3420838E0,4.140445E-1,-8.016623E-1,-2.613704E-1,8.741599E-1,-7.535454E-3,-3.0048782E-2,1.14768E-2,-1.0328226E-2,4.234845E-2,1.1685103E-2],"split_indices":[11,0,4,19,16,14,0,0,0,0,0,0,0],"split_type":[0,0,0,0,0,0,0,0,0,0,0,0,0],"sum_hessian":[1.8744942E2,7.4511757E0,1.7999825E2,1.6018549E2,1.9812763E1,1.3928555E2,2.089993E1,5.414234E0,1.4398529E1,4.925376E1,9.003179E1,8.454025E0,1.2445904E1],"tree_param":{"num_deleted":"0","num_feature":"20","num_nodes":"13","size_leaf_vector":"1"}},{"base_weights":[3.0939495E-3,-2.5074434E-1,3.507635E-1,-4.1048276E-1,2.4212604E-2,-2.041895E-2,4.2616263E-1,-3.1119153E-2,-2.6220232E-1,1.7072995E-1,-2.3215672E-2,7.354177E-1,1.15323566E-1,2.6686216E-2,-2.161855E-2,-1.7009791E-2,1.7622685E-2,9.044447E-3,4.222326E-2,-2.1971347E-2,3.0169994E-2],"categories":[],"categories_nodes":[],"categories_segments":[],"categories_sizes":[],"default_left":[0,0,0,0,0,0,0,0,0,0,0,0,0,0,0,0,0,0,0,0,0],"id":33,"left_children":[1,3,5,7,9,-1,11,-1,13,15,-1,17,19,-1,-1,-1,-1,-1,-1,-1,-1],"loss_changes":[1.4003203E1,4.0719495E0,4.102028E0,1.4949532E0,2.5809476E0,0E0,5.734928E0,0E0,5.360975E0,2.7836382E0,0E0,1.5170517E0,9.293687E0,0E0,0E0,0E0,0E0,0E0,0E0,0E0,0E0],"parents":[2147483647,0,0,1,1,2,2,3,3,4,4,6,6,8,8,9,9,11,11,12,12],"right_children":[2,4,6,8,10,-1,12,-1,14,16,-1,18,20,-1,-1,-1,-1,-1,-1,-1,-1],"split_conditions":[3.2861105E-1,1.6732092E-1,-1.4359335E0,-1.3091263E0,-2.0421932E-2,-2.041895E-2,5.6422263E-1,-3.1119153E-2,-6.46995E-1,-2.4558952E-1,-2.3215672E-2,2.160824E-1,1.3721116E0,2.6686216E-2,-2.161855E-2,-1.7009791E-2,1.7622685E-2,9.044447E-3,4.222326E-2,-2.1971347E-2,3.0169994E-2],"split_indices":[2,11,10,12,12,0,19,0,19,16,0,12,1,0,0,0,0,0,0,0,0],"split_type":[0,0,0,0,0,0,0,0,0,0,0,0,0,0,0,0,0,0,0,0,0],"sum_hessian":[1.5556496E2,8.9991486E1,6.557346E1,5.6684517E1,3.3306973E1,5.206105E0,6.036736E1,2.1084002E1,3.5600513E1,2.6530499E1,6.776474E0,2.9072466E1,3.1294895E1,5.602717E0,2.9997799E1,6.47299E0,2.0057508E1,5.583659E0,2.3488806E1,1.4621096E1,1.6673798E1],"tree_param":{"num_deleted":"0","num_feature":"20","num_nodes":"21","size_leaf_vector":"1"}},{"base_weights":[-3.379001E-3,5.1030505E-1,-1.4423023E-1,1.5521836E-1,6.6548604E-1,3.2430004E-2,-3.398269E-1,-5.960993E-3,2.0237546E-2,5.1131245E-2,4.4541022E-1,-3.642124E-1,1.734184E-1,-4.1348073E-1,-3.0538285E-2,4.3157946E-2,-3.1756589E-3,1.4436448E-3,-2.8212005E-2,-1.0025089E-2,2.1192556E-2,-2.3330724E-2,-6.5484806E-3,1.889809E-2,-1.9169262E-2],"categories":[],"categories_nodes":[],"categories_segments":[],"categories_sizes":[],"default_left":[0,0,0,0,0,0,0,0,0,0,0,0,0,0,0,0,0,0,0,0,0,0,0,0,0],"id":34,"left_children":[1,3,5,7,9,11,13,-1,-1,-1,15,17,19,21,23,-1,-1,-1,-1,-1,-1,-1,-1,-1,-1],"loss_changes":[1.1065164E1,1.5741205E0,4.212591E0,9.328503E-1,9.164238E-1,3.6792216E0,1.2489309E0,0E0,0E0,0E0,3.6869316E0,1.4300873E0,4.714165E0,5.4125357E-1,2.0859897E0,0E0,0E0,0E0,0E0,0E0,0E0,0E0,0E0,0E0,0E0],"parents":[2147483647,0,0,1,1,2,2,3,3,4,4,5,5,6,6,10,10,11,11,12,12,13,13,14,14],"right_children":[2,4,6,8,10,12,14,-1,-1,-1,16,18,20,22,24,-1,-1,-1,-1,-1,-1,-1,-1,-1,-1],"split_conditions":[-1.3198552E0,-2.0857543E-1,4.171936E-2,-1.2477065E0,2.4608314E-1,-5.08074E-1,1.4228572E0,-5.960993E-3,2.0237546E-2,5.1131245E-2,-1.3456489E0,-1.3487278E0,-3.1466168E-1,8.4564304E-1,1.6269293E0,4.3157946E-2,-3.1756589E-3,1.4436448E-3,-2.8212005E-2,-1.0025089E-2,2.1192556E-2,-2.3330724E-2,-6.5484806E-3,1.889809E-2,-1.9169262E-2],"split_indices":[2,8,19,19,14,17,12,0,0,0,19,10,19,8,12,0,0,0,0,0,0,0,0,0,0],"split_type":[0,0,0,0,0,0,0,0,0,0,0,0,0,0,0,0,0,0,0,0,0,0,0,0,0],"sum_hessian":[1.5041306E2,3.1368338E1,1.1904471E2,1.0648076E1,2.072026E1,6.2939056E1,5.6105656E1,5.2531757E0,5.3949003E0,5.6412373E0,1.5079024E1,1.569635E1,4.7242706E1,4.464523E1,1.1460426E1,7.815834E0,7.26319E0,5.5578566E0,1.0138494E1,1.8909203E1,2.8333506E1,3.645704E1,8.1881895E0,5.1305175E0,6.329909E0],"tree_param":{"num_deleted":"0","num_feature":"20","num_nodes":"25","size_leaf_vector":"1"}},{"base_weights":[-3.7472693E-3,5.2465767E-2,-4.4728E-1,-6.1371263E-2,5.317105E-1,4.736562E-3,-3.2743327E-2,-4.022219E-3,-2.9449437E-2,7.5885344E-1,-5.835661E-3,1.3572802E-2,-8.363505E-3,1.92228E-2,4.1443147E-2],"categories":[],"categories_nodes":[],"categories_segments":[],"categories_sizes":[],"default_left":[0,0,0,0,0,0,0,0,0,0,0,0,0,0,0],"id":35,"left_children":[1,3,5,7,9,-1,-1,11,-1,13,-1,-1,-1,-1,-1],"loss_changes":[4.5930862E0,8.933161E0,2.4829016E0,3.9333339E0,4.824071E0,0E0,0E0,5.4903235E0,0E0,1.872921E-2,0E0,0E0,0E0,0E0,0E0],"parents":[2147483647,0,0,1,1,2,2,3,3,4,4,7,7,9,9],"right_children":[2,4,6,8,10,-1,-1,12,-1,14,-1,-1,-1,-1,-1],"split_conditions":[1.4470942E0,4.9717507E-1,1.363045E0,6.3723373E-1,1.3791956E0,4.736562E-3,-3.2743327E-2,-1.9819215E-1,-2.9449437E-2,-1.4985937E-1,-5.835661E-3,1.3572802E-2,-8.363505E-3,1.92228E-2,4.1443147E-2],"split_indices":[6,19,13,2,1,0,0,17,0,10,0,0,0,0,0],"split_type":[0,0,0,0,0,0,0,0,0,0,0,0,0,0,0],"sum_hessian":[1.797268E2,1.6048424E2,1.9242561E1,1.3056891E2,2.9915333E1,5.4212804E0,1.3821281E1,1.19302376E2,1.1266529E1,2.2079605E1,7.8357277E0,4.3793945E1,7.550843E1,5.2372713E0,1.6842335E1],"tree_param":{"num_deleted":"0","num_feature":"20","num_nodes":"15","size_leaf_vector":"1"}},{"base_weights":[1.3976316E-3,-1.8711843E-1,2.5585693E-1,-3.6661476E-1,8.350915E-2,5.024605E-1,-5.1338947E-3,1.9032307E-2,-4.8724633E-1,2.5624026E-2,-8.926283E-2,-1.8106086E-2,7.256017E-1,-3.2285433E-2,4.153781E-1,1.8266564E-2,-1.9954616E-2,-2.6518283E-2,-1.0094531E-2,-1.8348556E-2,7.14004E-3,1.3801271E-2,4.367772E-2,3.4342747E-2,3.6275373E-3],"categories":[],"categories_nodes":[],"categories_segments":[],"categories_sizes":[],"default_left":[0,0,0,0,0,0,0,0,0,0,0,0,0,0,0,0,0,0,0,0,0,0,0,0,0],"id":36,"left_children":[1,3,5,7,9,11,13,15,17,-1,19,-1,21,-1,23,-1,-1,-1,-1,-1,-1,-1,-1,-1,-1],"loss_changes":[7.988152E0,4.706297E0,4.625118E0,2.7511024E0,3.0032215E0,7.517214E0,1.0067616E1,2.390969E0,3.1131172E-1,0E0,1.9655247E0,0E0,1.5047989E0,0E0,1.9367065E0,0E0,0E0,0E0,0E0,0E0,0E0,0E0,0E0,0E0,0E0],"parents":[2147483647,0,0,1,1,2,2,3,3,4,4,5,5,6,6,7,7,8,8,10,10,12,12,14,14],"right_children":[2,4,6,8,10,12,14,16,18,-1,20,-1,22,-1,24,-1,-1,-1,-1,-1,-1,-1,-1,-1,-1],"split_conditions":[3.2861105E-1,1.17800295E-1,6.230928E-1,-5.8303016E-1,-1.8482189E-1,-1.4359335E0,1.3073553E0,-6.836626E-1,3.5190195E-2,2.5624026E-2,7.4179727E-1,-1.8106086E-2,-1.0460045E0,-3.2285433E-2,-2.3528194E-1,1.8266564E-2,-1.9954616E-2,-2.6518283E-2,-1.0094531E-2,-1.8348556E-2,7.14004E-3,1.3801271E-2,4.367772E-2,3.4342747E-2,3.6275373E-3],"split_indices":[2,17,19,15,10,10,0,2,10,0,14,0,10,0,17,0,0,0,0,0,0,0,0,0,0],"split_type":[0,0,0,0,0,0,0,0,0,0,0,0,0,0,0,0,0,0,0,0,0,0,0,0,0],"sum_hessian":[1.6338474E2,9.385573E1,6.9529E1,5.633108E1,3.752465E1,3.5233303E1,3.4295696E1,1.3525568E1,4.2805515E1,1.0093415E1,2.7431234E1,6.9443483E0,2.8288954E1,1.3367386E1,2.092831E1,7.6326313E0,5.892937E0,3.5763096E1,7.0424175E0,1.2286732E1,1.5144503E1,8.236245E0,2.005271E1,1.0676724E1,1.0251586E1],"tree_param":{"num_deleted":"0","num_feature":"20","num_nodes":"25","size_leaf_vector":"1"}},{"base_weights":[2.9500239E-2,5.5899787E-1,-1.1153371E-1,3.2170984E-1,7.343961E-1,8.560234E-2,-2.578497E-1,3.7268054E-2,-2.126972E-3,4.9399775E-2,1.40515445E-2,-8.073051E-2,4.892445E-1,9.896438E-3,-3.2969135E-1,-1.0531091E-2,2.1183146E-2,4.266233E-2,3.0811697E-3,-1.179711E-2,-2.3522472E-2],"categories":[],"categories_nodes":[],"categories_segments":[],"categories_sizes":[],"default_left":[0,0,0,0,0,0,0,0,0,0,0,0,0,0,0,0,0,0,0,0,0],"id":37,"left_children":[1,3,5,7,9,11,13,-1,-1,-1,-1,15,17,-1,19,-1,-1,-1,-1,-1,-1],"loss_changes":[1.1487373E1,8.869791E-1,3.5436988E0,2.6897774E0,1.433814E0,3.6202242E0,2.4090652E0,0E0,0E0,0E0,0E0,2.6180239E0,2.2716234E0,0E0,5.727968E-1,0E0,0E0,0E0,0E0,0E0,0E0],"parents":[2147483647,0,0,1,1,2,2,3,3,4,4,5,5,6,6,11,11,12,12,14,14],"right_children":[2,4,6,8,10,12,14,-1,-1,-1,-1,16,18,-1,20,-1,-1,-1,-1,-1,-1],"split_conditions":[-1.3195778E0,-1.9374377E-1,-1.3873118E-1,-1.3849798E0,-1.3522574E0,-1.9819215E-1,-8.0718094E-1,3.7268054E-2,-2.126972E-3,4.9399775E-2,1.40515445E-2,1.3509095E0,-2.1714109E-1,9.896438E-3,4.951698E-1,-1.0531091E-2,2.1183146E-2,4.266233E-2,3.0811697E-3,-1.179711E-2,-2.3522472E-2],"split_indices":[5,18,8,2,0,17,16,0,0,0,0,5,18,0,18,0,0,0,0,0,0],"split_type":[0,0,0,0,0,0,0,0,0,0,0,0,0,0,0,0,0,0,0,0,0],"sum_hessian":[1.5047563E2,3.086391E1,1.19611725E2,1.5166818E1,1.5697093E1,5.093048E1,6.8681244E1,6.4130363E0,8.753781E0,8.790498E0,6.906596E0,3.674206E1,1.418842E1,8.803764E0,5.987748E1,3.0070267E1,6.671794E0,6.7315235E0,7.4568973E0,3.8776154E1,2.1101324E1],"tree_param":{"num_deleted":"0","num_feature":"20","num_nodes":"21","size_leaf_vector":"1"}},{"base_weights":[-1.2362008E-2,1.5782869E-1,-1.5171862E-1,3.9050895E-1,-1.2337346E-1,-4.7536448E-1,7.243059E-2,-5.635273E-2,6.311616E-1,-4.6977028E-1,5.5521905E-2,-7.94822E-3,-5.458213E-1,-6.477335E-2,3.754177E-1,1.00774905E-2,-1.4569241E-2,3.771518E-2,1.2000705E-2,-3.2077592E-2,-6.775697E-3,1.9098235E-2,-2.6212288E-2,-1.46450875E-2,-3.00574E-2,1.3514194E-2,-2.0214196E-2,3.1202687E-2,-1.0999077E-2],"categories":[],"categories_nodes":[],"categories_segments":[],"categories_sizes":[],"default_left":[0,0,0,0,0,0,0,0,0,0,0,0,0,0,0,0,0,0,0,0,0,0,0,0,0,0,0,0,0],"id":38,"left_children":[1,3,5,7,9,11,13,15,17,19,21,-1,23,25,27,-1,-1,-1,-1,-1,-1,-1,-1,-1,-1,-1,-1,-1,-1],"loss_changes":[4.2597227E0,5.3725967E0,7.2751265E0,4.9134398E0,2.40064E0,7.110729E-1,2.5460012E0,1.1192864E0,1.0400743E0,5.440459E-1,5.1766725E0,0E0,1.0229111E-1,4.9651594E0,3.0636237E0,0E0,0E0,0E0,0E0,0E0,0E0,0E0,0E0,0E0,0E0,0E0,0E0,0E0,0E0],"parents":[2147483647,0,0,1,1,2,2,3,3,4,4,5,5,6,6,7,7,8,8,9,9,10,10,12,12,13,13,14,14],"right_children":[2,4,6,8,10,12,14,16,18,20,22,-1,24,26,28,-1,-1,-1,-1,-1,-1,-1,-1,-1,-1,-1,-1,-1,-1],"split_conditions":[-1.9819215E-1,3.6782154E-1,2.3617957E-2,-6.930664E-1,9.568872E-1,-3.3760646E-1,3.646302E-1,-1.3250045E0,1.7271155E-1,-9.0924114E-1,1.2714772E0,-7.94822E-3,-1.2930375E0,-2.0199825E-1,1.7128396E0,1.00774905E-2,-1.4569241E-2,3.771518E-2,1.2000705E-2,-3.2077592E-2,-6.775697E-3,1.9098235E-2,-2.6212288E-2,-1.46450875E-2,-3.00574E-2,1.3514194E-2,-2.0214196E-2,3.1202687E-2,-1.0999077E-2],"split_indices":[17,4,18,0,12,16,19,7,16,17,0,0,6,19,11,0,0,0,0,0,0,0,0,0,0,0,0,0,0],"split_type":[0,0,0,0,0,0,0,0,0,0,0,0,0,0,0,0,0,0,0,0,0,0,0,0,0,0,0,0,0],"sum_hessian":[1.7661613E2,7.909911E1,9.751702E1,4.3159447E1,3.593967E1,3.9397106E1,5.811992E1,1.5363876E1,2.779557E1,1.1599502E1,2.4340168E1,8.323303E0,3.1073801E1,4.058898E1,1.7530935E1,7.2245426E0,8.139334E0,1.9886528E1,7.9090424E0,6.55339E0,5.046112E0,1.6009909E1,8.330258E0,7.596371E0,2.347743E1,2.0434164E1,2.015482E1,1.2434224E1,5.0967107E0],"tree_param":{"num_deleted":"0","num_feature":"20","num_nodes":"29","size_leaf_vector":"1"}},{"base_weights":[-1.4910508E-2,-2.319557E-1,3.333976E-1,-3.2493094E-1,3.4194216E-1,-1.1009399E-2,4.1232842E-1,-4.0828454E-1,-8.405345E-2,-1.421316E-2,3.8939536E-2,-1.7219556E-2,1.697752E-2,-1.0201637E-2,4.9943098E-1,7.7562868E-3,-2.3331186E-2,7.303351E-3,-2.1379447E-2,3.4437224E-2,6.2245904E-3],"categories":[],"categories_nodes":[],"categories_segments":[],"categories_sizes":[],"default_left":[0,0,0,0,0,0,0,0,0,0,0,0,0,0,0,0,0,0,0,0,0],"id":39,"left_children":[1,3,5,7,9,11,13,15,17,-1,-1,-1,-1,-1,19,-1,-1,-1,-1,-1,-1],"loss_changes":[1.1991521E1,5.3899884E0,1.6996741E0,1.6097364E0,4.2751617E0,1.6438217E0,2.8525982E0,2.1970587E0,2.0268953E0,0E0,0E0,0E0,0E0,0E0,2.924282E0,0E0,0E0,0E0,0E0,0E0,0E0],"parents":[2147483647,0,0,1,1,2,2,3,3,4,4,5,5,6,6,7,7,8,8,14,14],"right_children":[2,4,6,8,10,12,14,16,18,-1,-1,-1,-1,-1,20,-1,-1,-1,-1,-1,-1],"split_conditions":[3.4869015E-1,8.264939E-1,-1.2269837E0,2.0512334E-1,-1.2120516E-2,1.2661619E0,-1.7217587E-1,-1.2474109E0,2.3978369E-1,-1.421316E-2,3.8939536E-2,-1.7219556E-2,1.697752E-2,-1.0201637E-2,4.9465126E-1,7.7562868E-3,-2.3331186E-2,7.303351E-3,-2.1379447E-2,3.4437224E-2,6.2245904E-3],"split_indices":[3,11,11,17,19,0,19,8,9,0,0,0,0,0,10,0,0,0,0,0,0],"split_type":[0,0,0,0,0,0,0,0,0,0,0,0,0,0,0,0,0,0,0,0,0],"sum_hessian":[1.557207E2,9.642345E1,5.929726E1,8.369007E1,1.2733371E1,1.1060345E1,4.823691E1,6.1092056E1,2.259802E1,5.3538513E0,7.3795195E0,5.82881E0,5.231535E0,5.58119E0,4.2655724E1,5.337968E0,5.5754086E1,1.3874908E1,8.723111E0,2.7332779E1,1.5322945E1],"tree_param":{"num_deleted":"0","num_feature":"20","num_nodes":"21","size_leaf_vector":"1"}},{"base_weights":[1.3577526E-2,5.29595E-1,-1.3452297E-1,2.935988E-1,7.7548474E-1,1.0470618E-2,-3.2916155E-1,-1.1620887E-2,5.719837E-1,4.621414E-2,1.8141748E-2,-1.6118793E-1,3.163249E-1,1.0913168E-2,-4.0017134E-1,3.9346468E-2,1.1036458E-2,-1.6419815E-2,1.0092436E-2,-8.479874E-3,2.5338722E-2,-2.4056956E-2,-9.045756E-3],"categories":[],"categories_nodes":[],"categories_segments":[],"categories_sizes":[],"default_left":[0,0,0,0,0,0,0,0,0,0,0,0,0,0,0,0,0,0,0,0,0,0,0],"id":40,"left_children":[1,3,5,7,9,11,13,-1,15,-1,-1,17,19,-1,21,-1,-1,-1,-1,-1,-1,-1,-1],"loss_changes":[1.1499587E1,1.5003862E0,3.3241243E0,3.126616E0,3.092575E-1,3.6574218E0,2.095378E0,0E0,6.5627384E-1,0E0,0E0,2.8000884E0,2.4880986E0,0E0,6.0223913E-1,0E0,0E0,0E0,0E0,0E0,0E0,0E0,0E0],"parents":[2147483647,0,0,1,1,2,2,3,3,4,4,5,5,6,6,8,8,11,11,12,12,14,14],"right_children":[2,4,6,8,10,12,14,-1,16,-1,-1,18,20,-1,22,-1,-1,-1,-1,-1,-1,-1,-1],"split_conditions":[-1.282501E0,4.3088055E-1,3.132659E-1,-1.292514E0,9.6326226E-1,-4.8549413E-3,-1.4023508E0,-1.1620887E-2,-1.3735543E0,4.621414E-2,1.8141748E-2,4.2787814E-1,-4.359847E-1,1.0913168E-2,1.4437065E0,3.9346468E-2,1.1036458E-2,-1.6419815E-2,1.0092436E-2,-8.479874E-3,2.5338722E-2,-2.4056956E-2,-9.045756E-3],"split_indices":[6,14,1,6,14,0,9,0,5,0,0,10,16,0,6,0,0,0,0,0,0,0,0],"split_type":[0,0,0,0,0,0,0,0,0,0,0,0,0,0,0,0,0,0,0,0,0,0,0],"sum_hessian":[1.4705864E2,3.208348E1,1.1497515E2,1.8257912E1,1.3825568E1,6.6409645E1,4.856551E1,6.2800455E0,1.1977866E1,8.616417E0,5.209151E0,4.278141E1,2.3628231E1,5.0575204E0,4.350799E1,6.099906E0,5.87796E0,2.9577234E1,1.3204178E1,6.551519E0,1.7076712E1,3.0132744E1,1.3375246E1],"tree_param":{"num_deleted":"0","num_feature":"20","num_nodes":"23","size_leaf_vector":"1"}},{"base_weights":[3.957698E-2,2.1082947E-1,-9.2115276E-2,2.8486308E-1,-2.2107465E-2,-2.4038255E-1,1.0022715E-1,-1.52413E-2,3.7762672E-1,3.191255E-2,-3.5376862E-1,2.2046326E-1,-1.8329803E-2,3.4777573E-4,2.2704849E-2,2.09946E-2,-1.0119965E-2,-2.0429406E-2,-0E0,2.8001436E-3,3.5049006E-2],"categories":[],"categories_nodes":[],"categories_segments":[],"categories_sizes":[],"default_left":[0,0,0,0,0,0,0,0,0,0,0,0,0,0,0,0,0,0,0,0,0],"id":41,"left_children":[1,3,5,7,-1,9,11,-1,13,15,17,19,-1,-1,-1,-1,-1,-1,-1,-1,-1],"loss_changes":[3.904119E0,3.8109004E0,2.8319447E0,3.9344363E0,0E0,1.7724881E0,2.5328627E0,0E0,1.6533566E0,1.7425439E0,7.808161E-1,2.6692626E0,0E0,0E0,0E0,0E0,0E0,0E0,0E0,0E0,0E0],"parents":[2147483647,0,0,1,1,2,2,3,3,5,5,6,6,8,8,9,9,10,10,11,11],"right_children":[2,4,6,8,-1,10,12,-1,14,16,18,20,-1,-1,-1,-1,-1,-1,-1,-1,-1],"split_conditions":[-1.9819215E-1,1.4995029E0,1.0900256E-2,-7.115838E-1,-2.2107465E-2,-4.4747522E-1,1.7128396E0,-1.52413E-2,-1.2415665E0,-2.5522511E-2,8.057466E-1,3.215525E-1,-1.8329803E-2,3.4777573E-4,2.2704849E-2,2.09946E-2,-1.0119965E-2,-2.0429406E-2,-0E0,2.8001436E-3,3.5049006E-2],"split_indices":[17,6,15,15,0,15,11,0,13,17,13,19,0,0,0,0,0,0,0,0,0],"split_type":[0,0,0,0,0,0,0,0,0,0,0,0,0,0,0,0,0,0,0,0,0],"sum_hessian":[1.6979344E2,7.374868E1,9.604476E1,6.713571E1,6.6129675E0,5.4318542E1,4.172622E1,8.512911E0,5.8622803E1,1.602665E1,3.8291893E1,3.3980053E1,7.7461653E0,1.0529191E1,4.8093613E1,5.7478924E0,1.0278756E1,3.300769E1,5.2842026E0,2.671841E1,7.261641E0],"tree_param":{"num_deleted":"0","num_feature":"20","num_nodes":"21","size_leaf_vector":"1"}},{"base_weights":[-2.335077E-2,-2.130478E-1,2.5638592E-1,-4.3408617E-1,6.454113E-2,4.369361E-2,1.4425683E-1,-2.4617983E-1,-5.245974E-1,2.1174344E-1,-2.7927962E-1,-2.7849102E-2,2.3703349E-1,-2.4471633E-2,3.2776755E-3,-3.1008597E-3,-2.980954E-2,3.6948943E-3,3.5415247E-2,6.7468113E-3,-2.7918024E-2,-1.8074354E-2,1.7274393E-2],"categories":[],"categories_nodes":[],"categories_segments":[],"categories_sizes":[],"default_left":[0,0,0,0,0,0,0,0,0,0,0,0,0,0,0,0,0,0,0,0,0,0,0],"id":42,"left_children":[1,3,5,7,9,-1,11,13,15,17,19,-1,21,-1,-1,-1,-1,-1,-1,-1,-1,-1,-1],"loss_changes":[8.65625E0,6.053224E0,4.2646284E0,6.57814E-1,2.3223872E0,0E0,3.9145355E0,1.6780449E0,1.0432787E0,2.0372944E0,1.7406956E0,0E0,3.5652606E0,0E0,0E0,0E0,0E0,0E0,0E0,0E0,0E0,0E0,0E0],"parents":[2147483647,0,0,1,1,2,2,3,3,4,4,6,6,7,7,8,8,9,9,10,10,12,12],"right_children":[2,4,6,8,10,-1,12,14,16,18,20,-1,22,-1,-1,-1,-1,-1,-1,-1,-1,-1,-1],"split_conditions":[3.6782154E-1,1.17800295E-1,5.540926E-1,-3.122597E-1,5.774381E-1,4.369361E-2,-1.4359335E0,-1.7059979E-1,-3.118085E-1,3.2926252E-1,-6.48229E-1,-2.7849102E-2,8.857623E-1,-2.4471633E-2,3.2776755E-3,-3.1008597E-3,-2.980954E-2,3.6948943E-3,3.5415247E-2,6.7468113E-3,-2.7918024E-2,-1.8074354E-2,1.7274393E-2],"split_indices":[4,17,0,8,10,0,10,10,10,10,13,0,7,0,0,0,0,0,0,0,0,0,0],"split_type":[0,0,0,0,0,0,0,0,0,0,0,0,0,0,0,0,0,0,0,0,0,0,0],"sum_hessian":[1.6016241E2,9.586729E1,6.429512E1,5.3099678E1,4.2767605E1,8.177925E0,5.61172E1,1.9435389E1,3.366429E1,3.0553568E1,1.2214038E1,5.554121E0,5.0563076E1,1.0616678E1,8.81871E0,5.0742974E0,2.8589993E1,2.542124E1,5.132327E0,5.0842886E0,7.1297493E0,7.078379E0,4.34847E1],"tree_param":{"num_deleted":"0","num_feature":"20","num_nodes":"23","size_leaf_vector":"1"}},{"base_weights":[-2.5254862E-2,4.8335874E-1,-1.4887235E-1,6.574469E-1,1.1422462E-3,2.8273815E-2,-1.986912E-1,1.4096908E-2,4.7571473E-2,-5.1373746E-2,-3.5750395E-1,-1.6609013E-2,9.730046E-3,3.5734815E-3,-2.0371664E-2],"categories":[],"categories_nodes":[],"categories_segments":[],"categories_sizes":[],"default_left":[0,0,0,0,0,0,0,0,0,0,0,0,0,0,0],"id":43,"left_children":[1,3,5,7,-1,-1,9,-1,-1,11,13,-1,-1,-1,-1],"loss_changes":[9.080742E0,2.1704707E0,4.279319E0,1.7102547E0,0E0,0E0,2.5094185E0,0E0,0E0,4.2024474E0,1.2005596E0,0E0,0E0,0E0,0E0],"parents":[2147483647,0,0,1,1,2,2,3,3,6,6,9,9,10,10],"right_children":[2,4,6,8,-1,-1,10,-1,-1,12,14,-1,-1,-1,-1],"split_conditions":[-1.3372927E0,-7.85018E-2,-7.115838E-1,-1.3628267E0,1.1422462E-3,2.8273815E-2,4.171936E-2,1.4096908E-2,4.7571473E-2,-1.0836216E-1,-6.00961E-1,-1.6609013E-2,9.730046E-3,3.5734815E-3,-2.0371664E-2],"split_indices":[12,15,15,4,0,0,19,0,0,12,13,0,0,0,0],"split_type":[0,0,0,0,0,0,0,0,0,0,0,0,0,0,0],"sum_hessian":[1.4174391E2,2.6702919E1,1.15041E2,1.8754532E1,7.948386E0,6.3568845E0,1.0868411E2,9.675086E0,9.079447E0,5.7739162E1,5.094495E1,2.690503E1,3.0834135E1,5.035126E0,4.5909824E1],"tree_param":{"num_deleted":"0","num_feature":"20","num_nodes":"15","size_leaf_vector":"1"}},{"base_weights":[-2.2459654E-2,-1.1290983E-1,2.7915674E-1,4.2449836E-2,-2.6709926E-1,5.1225156E-1,-2.60236E-2,-4.1918334E-1,1.5926738E-1,-4.6680623E-1,2.4895886E-2,-3.0301216E-3,7.4408215E-1,-2.5978079E-2,-8.418128E-3,-1.6153052E-2,1.3211868E-2,-2.9825195E-4,-2.6650805E-2,1.5513468E-2,-1.3729538E-2,4.3325763E-2,1.2669498E-2],"categories":[],"categories_nodes":[],"categories_segments":[],"categories_sizes":[],"default_left":[0,0,0,0,0,0,0,0,0,0,0,0,0,0,0,0,0,0,0,0,0,0,0],"id":44,"left_children":[1,3,5,7,9,11,-1,13,15,17,19,-1,21,-1,-1,-1,-1,-1,-1,-1,-1,-1,-1],"loss_changes":[4.810152E0,3.299704E0,7.9654274E0,3.7823555E0,4.075668E0,4.42354E0,0E0,1.5566707E-1,2.964367E0,1.1971254E0,2.6251252E0,0E0,9.536829E-1,0E0,0E0,0E0,0E0,0E0,0E0,0E0,0E0,0E0,0E0],"parents":[2147483647,0,0,1,1,2,2,3,3,4,4,5,5,7,7,8,8,9,9,10,10,12,12],"right_children":[2,4,6,8,10,12,-1,14,16,18,20,-1,22,-1,-1,-1,-1,-1,-1,-1,-1,-1,-1],"split_conditions":[4.9465126E-1,-1.13229215E-1,1.4442238E0,-6.314609E-1,8.7786786E-2,-1.8154004E-1,-2.60236E-2,-1.0197363E0,-1.2415665E0,-1.3866622E0,4.1493025E-2,-3.0301216E-3,2.4453259E0,-2.5978079E-2,-8.418128E-3,-1.6153052E-2,1.3211868E-2,-2.9825195E-4,-2.6650805E-2,1.5513468E-2,-1.3729538E-2,4.3325763E-2,1.2669498E-2],"split_indices":[10,17,0,15,18,2,0,14,13,12,6,0,10,0,0,0,0,0,0,0,0,0,0],"split_type":[0,0,0,0,0,0,0,0,0,0,0,0,0,0,0,0,0,0,0,0,0,0,0],"sum_hessian":[1.7369344E2,1.3459921E2,3.9094234E1,6.7263596E1,6.733562E1,3.078456E1,8.309674E0,1.26268635E1,5.463673E1,3.965705E1,2.7678562E1,9.06398E0,2.172058E1,7.5853534E0,5.0415106E0,9.03813E0,4.55986E1,5.376991E0,3.428006E1,1.4316562E1,1.3362E1,1.630072E1,5.4198594E0],"tree_param":{"num_deleted":"0","num_feature":"20","num_nodes":"23","size_leaf_vector":"1"}},{"base_weights":[-6.454722E-3,-2.7338533E-2,6.9463536E-2,-7.2327085E-2,2.3127367E-1,3.9232275E-1,-2.0020215E-1,-1.8822286E-2,3.1708187E-1,-0E0,3.4638286E-2,-3.0220283E-2,-2.606904E-4,3.3891056E-2,5.222378E-4],"categories":[],"categories_nodes":[],"categories_segments":[],"categories_sizes":[],"default_left":[0,0,0,0,0,0,0,0,0,0,0,0,0,0,0],"id":45,"left_children":[1,-1,3,5,7,9,11,-1,13,-1,-1,-1,-1,-1,-1],"loss_changes":[6.6743717E0,0E0,3.289644E0,4.6309233E0,3.657397E0,2.0326426E0,4.740403E0,0E0,6.5030575E0,0E0,0E0,0E0,0E0,0E0,0E0],"parents":[2147483647,0,0,2,2,3,3,4,4,5,5,6,6,8,8],"right_children":[2,-1,4,6,8,10,12,-1,14,-1,-1,-1,-1,-1,-1],"split_conditions":[-1.2379124E0,-2.7338533E-2,3.5585502E-1,-1.280783E0,-1.3487278E0,-1.2975811E0,-2.2093101E-1,-1.8822286E-2,5.733877E-1,-0E0,3.4638286E-2,-3.0220283E-2,-2.606904E-4,3.3891056E-2,5.222378E-4],"split_indices":[19,0,4,12,10,13,17,0,19,0,0,0,0,0,0],"split_type":[0,0,0,0,0,0,0,0,0,0,0,0,0,0,0],"sum_hessian":[1.5865836E2,1.8562403E1,1.4009595E2,7.4779686E1,6.531626E1,1.5300261E1,5.947942E1,7.3085985E0,5.8007668E1,7.176887E0,8.123374E0,1.8163912E1,4.131551E1,2.5668465E1,3.2339203E1],"tree_param":{"num_deleted":"0","num_feature":"20","num_nodes":"15","size_leaf_vector":"1"}},{"base_weights":[-2.5116771E-2,4.6151572E-1,-1.4570351E-1,6.017838E-1,-7.2274962E-3,-4.4582385E-1,-9.464551E-2,3.042323E-1,4.1399356E-2,-5.745006E-3,-2.8839558E-2,2.3442535E-2,-1.3211001E-1,3.1173164E-2,-7.611288E-4,-7.4910384E-4,-1.4345716E-2],"categories":[],"categories_nodes":[],"categories_segments":[],"categories_sizes":[],"default_left":[0,0,0,0,0,0,0,0,0,0,0,0,0,0,0,0,0],"id":46,"left_children":[1,3,5,7,-1,9,11,13,-1,-1,-1,-1,15,-1,-1,-1,-1],"loss_changes":[8.890762E0,2.7306962E0,1.748755E0,1.1798773E0,0E0,5.6892276E-1,2.3025656E0,1.4297792E0,0E0,0E0,0E0,0E0,1.7942338E0,0E0,0E0,0E0,0E0],"parents":[2147483647,0,0,1,1,2,2,3,3,5,5,6,6,7,7,12,12],"right_children":[2,4,6,8,-1,10,12,14,-1,-1,-1,-1,16,-1,-1,-1,-1],"split_conditions":[-1.1726176E0,-1.2410513E0,-6.7122674E-1,-1.3628267E0,-7.2274962E-3,-1.2907469E0,-7.675204E-1,-1.300909E0,4.1399356E-2,-5.745006E-3,-2.8839558E-2,2.3442535E-2,1.856951E-1,3.1173164E-2,-7.611288E-4,-7.4910384E-4,-1.4345716E-2],"split_indices":[19,13,2,4,0,6,6,13,0,0,0,0,19,0,0,0,0],"split_type":[0,0,0,0,0,0,0,0,0,0,0,0,0,0,0,0,0],"sum_hessian":[1.4882828E2,2.8548704E1,1.20279564E2,2.3325773E1,5.2229304E0,1.5516578E1,1.0476299E2,1.1784179E1,1.1541595E1,5.4146233E0,1.0101954E1,5.287892E0,9.94751E1,5.336741E0,6.4474373E0,5.7933006E1,4.154209E1],"tree_param":{"num_deleted":"0","num_feature":"20","num_nodes":"17","size_leaf_vector":"1"}},{"base_weights":[-4.466926E-2,-0E0,-4.2450404E-1,-8.1561185E-2,4.176594E-1,-5.9941434E-4,-2.843116E-2,1.1394796E-1,-2.3103525E-1,3.934476E-2,1.7398809E-1,1.539282E-2,-1.6552497E-2,-3.6202117E-3,-2.2846146E-2,-6.130222E-3,3.3393033E-2],"categories":[],"categories_nodes":[],"categories_segments":[],"categories_sizes":[],"default_left":[0,0,0,0,0,0,0,0,0,0,0,0,0,0,0,0,0],"id":47,"left_children":[1,3,5,7,9,-1,-1,11,13,-1,15,-1,-1,-1,-1,-1,-1],"loss_changes":[3.1232483E0,5.7350764E0,1.0840073E0,4.1804805E0,2.1717677E0,0E0,0E0,5.4950247E0,2.7949858E0,0E0,2.9090505E0,0E0,0E0,0E0,0E0,0E0,0E0],"parents":[2147483647,0,0,1,1,2,2,3,3,4,4,7,7,8,8,10,10],"right_children":[2,4,6,8,10,-1,-1,12,14,-1,16,-1,-1,-1,-1,-1,-1],"split_conditions":[1.3833866E0,4.140445E-1,-8.411599E-1,-1.9819215E-1,9.5411414E-1,-5.9941434E-4,-2.843116E-2,6.1065024E-1,-2.0199825E-1,3.934476E-2,1.2906436E0,1.539282E-2,-1.6552497E-2,-3.6202117E-3,-2.2846146E-2,-6.130222E-3,3.3393033E-2],"split_indices":[5,19,17,17,2,0,0,12,19,0,12,0,0,0,0,0,0],"split_type":[0,0,0,0,0,0,0,0,0,0,0,0,0,0,0,0,0],"sum_hessian":[1.8367072E2,1.657886E2,1.788211E1,1.3979987E2,2.5988737E1,5.230206E0,1.2651903E1,6.0436977E1,7.9362885E1,8.839632E0,1.7149105E1,4.257281E1,1.7864166E1,4.8045868E1,3.1317015E1,1.1292561E1,5.856545E0],"tree_param":{"num_deleted":"0","num_feature":"20","num_nodes":"17","size_leaf_vector":"1"}},{"base_weights":[-1.7578145E-2,-2.0622256E-1,2.4833448E-1,-4.0679994E-1,1.0000449E-1,3.9100703E-2,1.3524877E-1,-4.7273028E-1,-1.4499384E-4,3.4545863E-1,-1.187301E-1,2.6663968E-2,3.5492714E-2,2.1495193E-3,-2.6759041E-2,3.957358E-4,3.4084868E-2,-2.8363982E-2,4.6052914E-3,-3.0508656E-2,7.752377E-3],"categories":[],"categories_nodes":[],"categories_segments":[],"categories_sizes":[],"default_left":[0,0,0,0,0,0,0,0,0,0,0,0,0,0,0,0,0,0,0,0,0],"id":48,"left_children":[1,3,5,7,9,-1,11,13,-1,15,17,19,-1,-1,-1,-1,-1,-1,-1,-1,-1],"loss_changes":[8.441555E0,6.150202E0,3.956028E0,1.5506086E0,2.2341387E0,0E0,3.6091187E0,1.7403975E0,0E0,2.1325467E0,2.2135773E0,4.3259172E0,0E0,0E0,0E0,0E0,0E0,0E0,0E0,0E0,0E0],"parents":[2147483647,0,0,1,1,2,2,3,3,4,4,6,6,7,7,9,9,10,10,11,11],"right_children":[2,4,6,8,10,-1,12,14,-1,16,18,20,-1,-1,-1,-1,-1,-1,-1,-1,-1],"split_conditions":[3.5585502E-1,1.6732092E-1,5.540926E-1,2.2513334E-1,2.9389244E-1,3.9100703E-2,1.4272861E0,-1.0944175E0,-1.4499384E-4,5.409776E-1,7.7810556E-1,8.0021375E-1,3.5492714E-2,2.1495193E-3,-2.6759041E-2,3.957358E-4,3.4084868E-2,-2.8363982E-2,4.6052914E-3,-3.0508656E-2,7.752377E-3],"split_indices":[4,11,0,18,18,0,11,8,0,8,14,13,0,0,0,0,0,0,0,0,0],"split_type":[0,0,0,0,0,0,0,0,0,0,0,0,0,0,0,0,0,0,0,0,0],"sum_hessian":[1.653353E2,9.713693E1,6.8198364E1,5.8592815E1,3.854412E1,1.0218342E1,5.798002E1,4.9938015E1,8.654799E0,1.7968653E1,2.0575468E1,5.0231308E1,7.7487116E0,5.271529E0,4.4666485E1,9.881506E0,8.087148E0,5.919728E0,1.4655741E1,7.3523765E0,4.2878933E1],"tree_param":{"num_deleted":"0","num_feature":"20","num_nodes":"21","size_leaf_vector":"1"}},{"base_weights":[-4.8042465E-2,4.843819E-1,-1.79959E-1,2.179817E-3,5.9990466E-1,-4.3599512E-2,-4.2264456E-1,9.627535E-3,3.780673E-2,-3.4399295E-1,1.1027242E-1,-2.1939084E-1,-4.749331E-1,3.6777407E-3,-2.4007523E-2,-1.547455E-2,1.3064687E-2,-1.1399939E-3,-1.7383164E-2,-2.8893737E-2,-1.2983575E-2],"categories":[],"categories_nodes":[],"categories_segments":[],"categories_sizes":[],"default_left":[0,0,0,0,0,0,0,0,0,0,0,0,0,0,0,0,0,0,0,0,0],"id":49,"left_children":[1,3,5,-1,7,9,11,-1,-1,13,15,17,19,-1,-1,-1,-1,-1,-1,-1,-1],"loss_changes":[1.0583894E1,1.4186764E0,3.9255738E0,0E0,1.1752625E0,3.7467515E0,2.317543E-1,0E0,0E0,1.6544073E0,3.4997756E0,2.5334227E-1,4.1263485E-1,0E0,0E0,0E0,0E0,0E0,0E0,0E0,0E0],"parents":[2147483647,0,0,1,1,2,2,4,4,5,5,6,6,9,9,10,10,11,11,12,12],"right_children":[2,4,6,-1,8,10,12,-1,-1,14,16,18,20,-1,-1,-1,-1,-1,-1,-1,-1],"split_conditions":[-1.3156192E0,-1.3055257E0,2.8510374E-1,2.179817E-3,-1.3361351E0,-2.9478002E-1,-5.766499E-1,9.627535E-3,3.780673E-2,-6.9529635E-1,-7.531216E-1,1.3230212E0,7.757676E-1,3.6777407E-3,-2.4007523E-2,-1.547455E-2,1.3064687E-2,-1.1399939E-3,-1.7383164E-2,-2.8893737E-2,-1.2983575E-2],"split_indices":[7,6,19,0,7,19,18,0,0,16,14,7,11,0,0,0,0,0,0,0,0],"split_type":[0,0,0,0,0,0,0,0,0,0,0,0,0,0,0,0,0,0,0,0,0],"sum_hessian":[1.4776315E2,2.8394615E1,1.1936854E2,6.5052104E0,2.1889404E1,7.782307E1,4.154547E1,7.173647E0,1.4715757E1,2.5953121E1,5.1869946E1,1.04869995E1,3.105847E1,6.370929E0,1.9582193E1,1.3132381E1,3.8737564E1,5.146168E0,5.3408318E0,1.8987162E1,1.2071308E1],"tree_param":{"num_deleted":"0","num_feature":"20","num_nodes":"21","size_leaf_vector":"1"}},{"base_weights":[1.1258363E-2,6.2731616E-2,-4.4971254E-1,-1.1359821E-2,6.039646E-1,-7.778363E-3,-2.7391894E-2,3.3769637E-2,-4.9117234E-2,3.77985E-2,1.2308918E-2,1.4498436E-3,-2.6180226E-2],"categories":[],"categories_nodes":[],"categories_segments":[],"categories_sizes":[],"default_left":[0,0,0,0,0,0,0,0,0,0,0,0,0],"id":50,"left_children":[1,3,5,7,9,-1,-1,-1,11,-1,-1,-1,-1],"loss_changes":[4.1921387E0,6.497896E0,3.132689E-1,3.6772919E0,6.8074274E-1,0E0,0E0,0E0,5.1289763E0,0E0,0E0,0E0,0E0],"parents":[2147483647,0,0,1,1,2,2,3,3,4,4,8,8],"right_children":[2,4,6,8,10,-1,-1,-1,12,-1,-1,-1,-1],"split_conditions":[1.3610913E0,7.357559E-1,-5.369103E-1,-1.7033168E0,1.24891E0,-7.778363E-3,-2.7391894E-2,3.3769637E-2,6.3723373E-1,3.77985E-2,1.2308918E-2,1.4498436E-3,-2.6180226E-2],"split_indices":[3,19,15,9,1,0,0,0,2,0,0,0,0],"split_type":[0,0,0,0,0,0,0,0,0,0,0,0,0],"sum_hessian":[1.750247E2,1.5880492E2,1.621978E1,1.4081233E2,1.799258E1,5.2823477E0,1.0937431E1,5.8801904E0,1.3493214E2,1.1259938E1,6.7326417E0,1.16886826E2,1.804532E1],"tree_param":{"num_deleted":"0","num_feature":"20","num_nodes":"13","size_leaf_vector":"1"}},{"base_weights":[-9.8319985E-3,-1.8970044E-1,2.518676E-1,-3.753499E-1,6.764855E-2,5.3380656E-1,1.0049097E-1,-1.1548035E-1,-4.845375E-1,-1.9039435E-2,2.1794349E-1,4.428538E-2,7.330556E-2,-2.8369976E-2,3.466158E-2,3.0711148E-2,-2.5449261E-2,-2.9102271E-2,-7.193657E-3,1.8384285E-2,-1.277508E-2,-6.6721775E-3,1.3580306E-2,-1.6938861E-2,1.8959671E-2],"categories":[],"categories_nodes":[],"categories_segments":[],"categories_sizes":[],"default_left":[0,0,0,0,0,0,0,0,0,0,0,0,0,0,0,0,0,0,0,0,0,0,0,0,0],"id":51,"left_children":[1,3,5,7,9,11,13,15,17,-1,19,-1,21,23,-1,-1,-1,-1,-1,-1,-1,-1,-1,-1,-1],"loss_changes":[7.882345E0,4.822719E0,2.7609477E0,1.5091047E0,2.9890435E0,3.566071E0,3.6373148E0,6.0508575E0,1.1398506E0,0E0,2.5012455E0,0E0,5.522598E-1,5.1715083E0,0E0,0E0,0E0,0E0,0E0,0E0,0E0,0E0,0E0,0E0,0E0],"parents":[2147483647,0,0,1,1,2,2,3,3,4,4,5,5,6,6,7,7,8,8,10,10,12,12,13,13],"right_children":[2,4,6,8,10,12,14,16,18,-1,20,-1,22,24,-1,-1,-1,-1,-1,-1,-1,-1,-1,-1,-1],"split_conditions":[3.5585502E-1,1.17800295E-1,8.946446E-1,-2.38717E-1,-2.6223436E-1,1.1864773E-1,1.4272861E0,-6.829221E-1,1.4226691E-1,-1.9039435E-2,9.586981E-1,4.428538E-2,5.555877E-1,1.4470942E0,3.466158E-2,3.0711148E-2,-2.5449261E-2,-2.9102271E-2,-7.193657E-3,1.8384285E-2,-1.277508E-2,-6.6721775E-3,1.3580306E-2,-1.6938861E-2,1.8959671E-2],"split_indices":[4,17,6,11,15,10,11,12,11,0,18,0,18,6,0,0,0,0,0,0,0,0,0,0,0],"split_type":[0,0,0,0,0,0,0,0,0,0,0,0,0,0,0,0,0,0,0,0,0,0,0,0,0],"sum_hessian":[1.6456425E2,9.8001656E1,6.65626E1,5.6757816E1,4.124384E1,2.169868E1,4.486392E1,1.7976217E1,3.87816E1,9.608636E0,3.1635202E1,1.1391472E1,1.030721E1,3.7886868E1,6.9770513E0,5.913999E0,1.2062218E1,2.9096857E1,9.684741E0,2.444878E1,7.1864214E0,5.0394087E0,5.267801E0,2.178986E1,1.6097008E1],"tree_param":{"num_deleted":"0","num_feature":"20","num_nodes":"25","size_leaf_vector":"1"}},{"base_weights":[4.300642E-2,4.9706104E-1,-8.0992535E-2,3.617112E-3,6.1360824E-1,2.9092005E-2,-1.23077065E-1,3.8655873E-2,1.0776224E-2,-3.2067803E-1,-1.8769147E-2,1.9690224E-3,-2.4370832E-2,8.885751E-3,-1.1349037E-2],"categories":[],"categories_nodes":[],"categories_segments":[],"categories_sizes":[],"default_left":[0,0,0,0,0,0,0,0,0,0,0,0,0,0,0],"id":52,"left_children":[1,3,5,-1,7,-1,9,-1,-1,11,13,-1,-1,-1,-1],"loss_changes":[8.29137E0,1.4282513E0,3.2797606E0,0E0,1.2004519E0,0E0,2.221417E0,0E0,0E0,2.326856E0,3.0858111E0,0E0,0E0,0E0,0E0],"parents":[2147483647,0,0,1,1,2,2,4,4,6,6,9,9,10,10],"right_children":[2,4,6,-1,8,-1,10,-1,-1,12,14,-1,-1,-1,-1],"split_conditions":[-1.3195778E0,-1.3867621E0,-7.115838E-1,3.617112E-3,-7.85018E-2,2.9092005E-2,-4.1429958E-1,3.8655873E-2,1.0776224E-2,-1.0206379E0,8.7786786E-2,1.9690224E-3,-2.4370832E-2,8.885751E-3,-1.1349037E-2],"split_indices":[5,12,15,0,15,0,17,0,0,11,18,0,0,0,0],"split_type":[0,0,0,0,0,0,0,0,0,0,0,0,0,0,0],"sum_hessian":[1.4395367E2,3.0084604E1,1.1386907E2,7.186134E0,2.289847E1,5.507729E0,1.0836134E2,1.5159729E1,7.73874E0,3.6032032E1,7.232931E1,1.1577453E1,2.445458E1,3.7078587E1,3.5250725E1],"tree_param":{"num_deleted":"0","num_feature":"20","num_nodes":"15","size_leaf_vector":"1"}},{"base_weights":[1.3390233E-2,3.2492917E-2,-1.41049875E-2,4.0049087E-2,-2.8796414E-2,7.437387E-3,2.3769831E-2,3.5818852E-3,-1.2653819E-2],"categories":[],"categories_nodes":[],"categories_segments":[],"categories_sizes":[],"default_left":[0,0,0,0,0,0,0,0,0],"id":53,"left_children":[1,-1,3,5,-1,7,-1,-1,-1],"loss_changes":[3.3028736E0,0E0,5.5039496E0,2.2690325E0,0E0,2.5835607E0,0E0,0E0,0E0],"parents":[2147483647,0,0,2,2,3,3,5,5],"right_children":[2,-1,4,6,-1,8,-1,-1,-1],"split_conditions":[-1.9981344E0,3.2492917E-2,1.3605064E0,1.2462184E0,-2.8796414E-2,6.1065024E-1,2.3769831E-2,3.5818852E-3,-1.2653819E-2],"split_indices":[11,0,4,3,0,12,0,0,0],"split_type":[0,0,0,0,0,0,0,0,0],"sum_hessian":[1.8281888E2,6.31526E0,1.7650362E2,1.6209444E2,1.4409181E1,1.524312E2,9.66323E0,1.2347398E2,2.895722E1],"tree_param":{"num_deleted":"0","num_feature":"20","num_nodes":"9","size_leaf_vector":"1"}},{"base_weights":[2.4093412E-2,-2.0334348E-1,2.4288248E-1,-2.8212493E-2,-1.0771527E-1,4.4383442E-1,-5.3001344E-2,-2.5758567E-1,3.149745E-1,2.543892E-1,4.3944683E-2,-3.2024273E-1,3.5233265E-1,-3.318327E-3,-2.878114E-2,4.3384653E-2,-6.119711E-4,-1.0740002E-2,2.2401476E-2,-2.4279905E-2,5.9417714E-3,-6.2905247E-3,3.878892E-2],"categories":[],"categories_nodes":[],"categories_segments":[],"categories_sizes":[],"default_left":[0,0,0,0,0,0,0,0,0,0,0,0,0,0,0,0,0,0,0,0,0,0,0],"id":54,"left_children":[1,3,5,-1,7,9,11,13,15,17,-1,19,21,-1,-1,-1,-1,-1,-1,-1,-1,-1,-1],"loss_changes":[8.030194E0,2.5663483E0,4.9713755E0,0E0,4.2009325E0,3.6236486E0,3.8977757E0,2.834387E0,3.2446206E0,3.5013208E0,0E0,1.6984744E0,3.0973864E0,0E0,0E0,0E0,0E0,0E0,0E0,0E0,0E0,0E0,0E0],"parents":[2147483647,0,0,1,1,2,2,4,4,5,5,6,6,7,7,8,8,9,9,11,11,12,12],"right_children":[2,4,6,-1,8,10,12,14,16,18,-1,20,22,-1,-1,-1,-1,-1,-1,-1,-1,-1,-1],"split_conditions":[-6.14653E-2,-1.244442E0,6.19192E-1,-2.8212493E-2,4.9593842E-1,2.7111948E-1,1.3408463E0,-2.218802E-1,-1.8482189E-1,3.7416366E-1,4.3944683E-2,1.246041E0,1.2664809E0,-3.318327E-3,-2.878114E-2,4.3384653E-2,-6.119711E-4,-1.0740002E-2,2.2401476E-2,-2.4279905E-2,5.9417714E-3,-6.2905247E-3,3.878892E-2],"split_indices":[19,19,10,0,8,14,1,19,10,1,0,8,10,0,0,0,0,0,0,0,0,0,0],"split_type":[0,0,0,0,0,0,0,0,0,0,0,0,0,0,0,0,0,0,0,0,0,0,0],"sum_hessian":[1.5830798E2,7.744781E1,8.086017E1,1.44638815E1,6.298393E1,4.7909775E1,3.2950394E1,4.7104774E1,1.5879154E1,3.5192326E1,1.2717451E1,2.0196327E1,1.2754068E1,3.0746157E1,1.6358618E1,5.097165E0,1.0781989E1,1.0082401E1,2.5109922E1,1.4721199E1,5.4751277E0,6.3744226E0,6.379646E0],"tree_param":{"num_deleted":"0","num_feature":"20","num_nodes":"23","size_leaf_vector":"1"}},{"base_weights":[-2.4339609E-2,4.216045E-1,-1.4685006E-1,1.3287236E-2,6.473998E-1,-5.3247456E-2,-3.2071498E-1,-1.6669631E-2,1.604783E-2,1.167051E-2,3.8219947E-2,-2.6529184E-1,1.4234824E-1,-5.0473416E-1,1.762066E-2,-2.3244124E-2,8.0230925E-3,2.007524E-2,-9.556008E-3,-2.8540168E-2,-1.1322228E-2,1.5820561E-2,-1.3267899E-2],"categories":[],"categories_nodes":[],"categories_segments":[],"categories_sizes":[],"default_left":[0,0,0,0,0,0,0,0,0,0,0,0,0,0,0,0,0,0,0,0,0,0,0],"id":55,"left_children":[1,3,5,7,9,11,13,-1,-1,-1,-1,15,17,19,21,-1,-1,-1,-1,-1,-1,-1,-1],"loss_changes":[7.8765163E0,2.781396E0,1.7832992E0,1.5177705E0,5.9106827E-1,3.2177098E0,2.4920921E0,0E0,0E0,0E0,0E0,3.303228E0,3.6121888E0,1.956582E-1,1.399985E0,0E0,0E0,0E0,0E0,0E0,0E0,0E0,0E0],"parents":[2147483647,0,0,1,1,2,2,3,3,4,4,5,5,6,6,11,11,12,12,13,13,14,14],"right_children":[2,4,6,8,10,12,14,-1,-1,-1,-1,16,18,20,22,-1,-1,-1,-1,-1,-1,-1,-1],"split_conditions":[-1.318532E0,-1.2974877E0,2.8510374E-1,-1.3569643E0,-1.4017555E0,-7.574681E-2,1.3471842E0,-1.6669631E-2,1.604783E-2,1.167051E-2,3.8219947E-2,-1.6430107E-1,1.6052145E-1,9.409627E-1,1.5727094E0,-2.3244124E-2,8.0230925E-3,2.007524E-2,-9.556008E-3,-2.8540168E-2,-1.1322228E-2,1.5820561E-2,-1.3267899E-2],"split_indices":[5,6,19,3,1,9,5,0,0,0,0,15,17,17,3,0,0,0,0,0,0,0,0],"split_type":[0,0,0,0,0,0,0,0,0,0,0,0,0,0,0,0,0,0,0,0,0,0,0],"sum_hessian":[1.4147493E2,2.9524818E1,1.1195012E2,1.1236472E1,1.8288345E1,7.4419754E1,3.7530365E1,5.0715017E0,6.1649704E0,5.2078986E0,1.3080447E1,3.5697273E1,3.872248E1,2.4022488E1,1.3507878E1,2.4369858E1,1.13274145E1,2.1785564E1,1.6936914E1,1.7848938E1,6.173551E0,6.6560626E0,6.8518157E0],"tree_param":{"num_deleted":"0","num_feature":"20","num_nodes":"23","size_leaf_vector":"1"}},{"base_weights":[8.283262E-3,3.0909002E-2,-2.5455805E-2,8.14387E-2,-2.6341167E-1,-2.6178843E-1,2.0127128E-1,-1.7900482E-1,-2.96119E-2,-2.9822441E-3,-3.1005932E-2,2.8149147E-2,3.9544846E-3,-1.40404375E-2,2.0418422E-2],"categories":[],"categories_nodes":[],"categories_segments":[],"categories_sizes":[],"default_left":[0,0,0,0,0,0,0,0,0,0,0,0,0,0,0],"id":56,"left_children":[1,-1,3,5,7,9,11,13,-1,-1,-1,-1,-1,-1,-1],"loss_changes":[3.7817457E0,0E0,4.4156566E0,4.9787846E0,1.2582221E0,2.1439352E0,3.8232303E0,2.8641796E0,0E0,0E0,0E0,0E0,0E0,0E0,0E0],"parents":[2147483647,0,0,2,2,3,3,4,4,5,5,6,6,7,7],"right_children":[2,-1,4,6,8,10,12,14,-1,-1,-1,-1,-1,-1,-1],"split_conditions":[-1.9981344E0,3.0909002E-2,3.7879723E-1,-1.3237823E0,1.3909833E0,1.2797853E-1,-3.9222077E-1,4.7996718E-1,-2.96119E-2,-2.9822441E-3,-3.1005932E-2,2.8149147E-2,3.9544846E-3,-1.40404375E-2,2.0418422E-2],"split_indices":[11,0,6,2,11,11,17,16,0,0,0,0,0,0,0],"split_type":[0,0,0,0,0,0,0,0,0,0,0,0,0,0,0],"sum_hessian":[1.782544E2,8.137327E0,1.7011707E2,1.1777609E2,5.2340973E1,2.9802807E1,8.797328E1,4.3735203E1,8.605769E0,2.0351013E1,9.451794E0,2.0639912E1,6.733337E1,3.8087063E1,5.6481395E0],"tree_param":{"num_deleted":"0","num_feature":"20","num_nodes":"15","size_leaf_vector":"1"}},{"base_weights":[-1.3118033E-2,-1.7781915E-1,2.3180284E-1,-3.7974483E-1,7.056586E-2,4.8324072E-1,-1.7158125E-2,-1.9889866E-1,-4.8936346E-1,1.8505558E-1,-1.9797517E-2,2.105698E-1,3.59321E-2,-3.3291128E-2,3.7477037E-1,1.7101778E-2,-2.6090799E-2,-2.9639063E-2,-5.6554074E-3,-3.8986744E-3,1.8671373E-2,3.5035796E-2,-9.125174E-3,-1.1360187E-3,2.8872842E-2],"categories":[],"categories_nodes":[],"categories_segments":[],"categories_sizes":[],"default_left":[0,0,0,0,0,0,0,0,0,0,0,0,0,0,0,0,0,0,0,0,0,0,0,0,0],"id":57,"left_children":[1,3,5,7,9,11,13,15,17,19,-1,21,-1,-1,23,-1,-1,-1,-1,-1,-1,-1,-1,-1,-1],"loss_changes":[6.556586E0,4.9583097E0,4.140326E0,8.5972595E-1,2.4782767E0,1.7782998E0,9.049539E0,4.3604956E0,1.0886655E0,1.9122016E0,0E0,3.6083205E0,0E0,0E0,1.8527296E0,0E0,0E0,0E0,0E0,0E0,0E0,0E0,0E0,0E0,0E0],"parents":[2147483647,0,0,1,1,2,2,3,3,4,4,5,5,6,6,7,7,8,8,9,9,11,11,14,14],"right_children":[2,4,6,8,10,12,14,16,18,20,-1,22,-1,-1,24,-1,-1,-1,-1,-1,-1,-1,-1,-1,-1],"split_conditions":[3.5956296E-1,1.17800295E-1,6.230928E-1,-1.9857185E-1,6.725466E-2,1.3599016E-1,1.3326029E0,-5.7486254E-1,1.4226691E-1,-6.341517E-1,-1.9797517E-2,-1.3416035E0,3.59321E-2,-3.3291128E-2,1.3837421E0,1.7101778E-2,-2.6090799E-2,-2.9639063E-2,-5.6554074E-3,-3.8986744E-3,1.8671373E-2,3.5035796E-2,-9.125174E-3,-1.1360187E-3,2.8872842E-2],"split_indices":[4,17,19,11,12,19,0,12,11,0,0,14,0,0,4,0,0,0,0,0,0,0,0,0,0],"split_type":[0,0,0,0,0,0,0,0,0,0,0,0,0,0,0,0,0,0,0,0,0,0,0,0,0],"sum_hessian":[1.5963928E2,9.594125E1,6.3698036E1,5.270434E1,4.3236908E1,3.118893E1,3.2509106E1,2.1827614E1,3.087673E1,3.5615658E1,7.6212497E0,1.5964013E1,1.5224917E1,1.19455E1,2.0563604E1,8.010447E0,1.3817166E1,2.3334108E1,7.5426207E0,1.5007913E1,2.0607746E1,6.6954637E0,9.268549E0,7.2277203E0,1.3335884E1],"tree_param":{"num_deleted":"0","num_feature":"20","num_nodes":"25","size_leaf_vector":"1"}},{"base_weights":[5.360835E-2,2.1468692E-1,-2.381913E-1,3.2331103E-1,-1.5192023E-1,-8.249101E-2,-4.1636786E-1,-6.7707724E-3,3.9149752E-1,-3.399794E-1,1.6071904E-2,1.265106E-1,-3.6397976E-1,-2.5988543E-2,-1.0995296E-3,2.6765434E-2,3.8127342E-4,-2.2918383E-2,-1.6921436E-3,-1.0702118E-2,1.4459885E-2,-2.6079372E-2,-5.7526487E-3],"categories":[],"categories_nodes":[],"categories_segments":[],"categories_sizes":[],"default_left":[0,0,0,0,0,0,0,0,0,0,0,0,0,0,0,0,0,0,0,0,0,0,0],"id":58,"left_children":[1,3,5,7,9,11,13,-1,15,17,-1,19,21,-1,-1,-1,-1,-1,-1,-1,-1,-1,-1],"loss_changes":[6.9927187E0,3.9077153E0,1.3645647E0,2.4394774E0,2.188135E0,1.8795424E0,9.062762E-1,0E0,3.5581427E0,5.4867613E-1,0E0,1.116381E0,3.7720752E-1,0E0,0E0,0E0,0E0,0E0,0E0,0E0,0E0,0E0,0E0],"parents":[2147483647,0,0,1,1,2,2,3,3,4,4,5,5,6,6,8,8,9,9,11,11,12,12],"right_children":[2,4,6,8,10,12,14,-1,16,18,-1,20,22,-1,-1,-1,-1,-1,-1,-1,-1,-1,-1],"split_conditions":[-2.8282974E-2,8.0021375E-1,3.070008E-1,-1.0508802E0,1.2289549E0,7.4179727E-1,9.5033985E-1,-6.7707724E-3,1.8930824E-1,-1.7138624E-1,1.6071904E-2,-6.3195556E-1,8.7312096E-1,-2.5988543E-2,-1.0995296E-3,2.6765434E-2,3.8127342E-4,-2.2918383E-2,-1.6921436E-3,-1.0702118E-2,1.4459885E-2,-2.6079372E-2,-5.7526487E-3],"split_indices":[10,13,1,14,0,14,11,0,11,15,0,2,11,0,0,0,0,0,0,0,0,0,0],"split_type":[0,0,0,0,0,0,0,0,0,0,0,0,0,0,0,0,0,0,0,0,0,0,0],"sum_hessian":[1.4569087E2,9.434814E1,5.134274E1,7.312997E1,2.1218172E1,2.8870146E1,2.2472593E1,9.082398E0,6.404757E1,1.5638936E1,5.5792346E0,1.6838432E1,1.20317135E1,1.722565E1,5.2469425E0,4.59725E1,1.807507E1,1.0504224E1,5.1347127E0,5.09173E0,1.1746701E1,6.1151633E0,5.91655E0],"tree_param":{"num_deleted":"0","num_feature":"20","num_nodes":"23","size_leaf_vector":"1"}},{"base_weights":[-8.236718E-3,2.082185E-1,-1.10805824E-1,3.0159786E-1,-2.1049535E-2,-2.2770874E-1,2.360569E-2,-1.7123705E-2,4.2205554E-1,1.1950336E-2,-2.9433697E-1,2.3911178E-1,-1.9455312E-1,3.377561E-2,1.0281195E-2,-5.4011713E-3,-2.9209003E-2,-8.72202E-3,2.191652E-2,1.8137662E-2,-1.9963268E-2],"categories":[],"categories_nodes":[],"categories_segments":[],"categories_sizes":[],"default_left":[0,0,0,0,0,0,0,0,0,0,0,0,0,0,0,0,0,0,0,0,0],"id":59,"left_children":[1,3,5,7,-1,9,11,-1,13,-1,15,17,19,-1,-1,-1,-1,-1,-1,-1,-1],"loss_changes":[3.949192E0,3.5297306E0,1.93324E0,4.156579E0,0E0,2.143899E0,2.7704902E0,0E0,2.0895724E0,0E0,2.9717445E0,2.592402E0,3.540362E0,0E0,0E0,0E0,0E0,0E0,0E0,0E0,0E0],"parents":[2147483647,0,0,1,1,2,2,3,3,5,5,6,6,8,8,10,10,11,11,12,12],"right_children":[2,4,6,8,-1,10,12,-1,14,-1,16,18,20,-1,-1,-1,-1,-1,-1,-1,-1],"split_conditions":[-3.9222077E-1,1.3977659E0,6.85803E-2,-6.930664E-1,-2.1049535E-2,-7.4683195E-1,1.1582527E-1,-1.7123705E-2,4.494656E-1,1.1950336E-2,1.1108691E-1,-7.188108E-2,3.054306E-1,3.377561E-2,1.0281195E-2,-5.4011713E-3,-2.9209003E-2,-8.72202E-3,2.191652E-2,1.8137662E-2,-1.9963268E-2],"split_indices":[17,7,18,0,0,9,7,0,7,0,11,15,14,0,0,0,0,0,0,0,0],"split_type":[0,0,0,0,0,0,0,0,0,0,0,0,0,0,0,0,0,0,0,0,0],"sum_hessian":[1.7525854E2,5.5536953E1,1.19721596E2,4.917844E1,6.358514E0,6.387224E1,5.5849358E1,7.1820574E0,4.199638E1,7.306969E0,5.6565266E1,2.8253613E1,2.7595745E1,1.7665316E1,2.4331064E1,3.589544E1,2.0669827E1,9.083025E0,1.9170588E1,6.9711227E0,2.0624622E1],"tree_param":{"num_deleted":"0","num_feature":"20","num_nodes":"21","size_leaf_vector":"1"}},{"base_weights":[5.66195E-2,-4.178876E-1,1.1663554E-1,-2.7553504E-2,-2.489813E-3,2.318369E-2,3.7739176E-1,-1.01403676E-1,2.4589097E-1,-3.2651487E-3,4.9554634E-1,3.0075554E-2,-9.649673E-3,-1.4351319E-2,1.7211523E-2,3.219116E-2,1.0869905E-2],"categories":[],"categories_nodes":[],"categories_segments":[],"categories_sizes":[],"default_left":[0,0,0,0,0,0,0,0,0,0,0,0,0,0,0,0,0],"id":60,"left_children":[1,3,5,-1,-1,7,9,11,13,-1,15,-1,-1,-1,-1,-1,-1],"loss_changes":[4.5556345E0,7.778437E-1,3.4077914E0,0E0,0E0,3.0051115E0,2.031681E0,4.5773106E0,2.193014E0,0E0,9.2596674E-1,0E0,0E0,0E0,0E0,0E0,0E0],"parents":[2147483647,0,0,1,1,2,2,5,5,6,6,7,7,8,8,10,10],"right_children":[2,4,6,-1,-1,8,10,12,14,-1,16,-1,-1,-1,-1,-1,-1],"split_conditions":[-1.3203124E0,6.3639134E-1,7.4179727E-1,-2.7553504E-2,-2.489813E-3,8.985635E-1,-7.2317845E-1,-1.3321638E0,-1.7240933E0,-3.2651487E-3,7.2757703E-1,3.0075554E-2,-9.649673E-3,-1.4351319E-2,1.7211523E-2,3.219116E-2,1.0869905E-2],"split_indices":[7,14,14,0,0,13,0,1,11,0,10,0,0,0,0,0,0],"split_type":[0,0,0,0,0,0,0,0,0,0,0,0,0,0,0,0,0],"sum_hessian":[1.5696068E2,1.6432125E1,1.4052855E2,1.1319272E1,5.112852E0,1.049372E2,3.5591347E1,6.752835E1,3.740885E1,7.46111E0,2.8130238E1,6.6960273E0,6.083232E1,5.2209115E0,3.218794E1,1.682796E1,1.1302279E1],"tree_param":{"num_deleted":"0","num_feature":"20","num_nodes":"17","size_leaf_vector":"1"}},{"base_weights":[-2.9577797E-2,6.475808E-2,-3.1772193E-1,-1.0588608E-1,2.2255245E-1,-9.200968E-2,-4.8609155E-1,1.0613966E-1,-2.4051078E-1,4.5220506E-1,4.962557E-2,-4.0558666E-1,2.6092444E-2,-2.8272543E-2,-8.846955E-3,-1.558847E-2,1.8770648E-2,-1.9605635E-2,6.6717328E-3,3.7725154E-2,1.0385445E-2,-1.3968733E-2,1.5352363E-2,-9.47831E-3,-2.5120428E-2],"categories":[],"categories_nodes":[],"categories_segments":[],"categories_sizes":[],"default_left":[0,0,0,0,0,0,0,0,0,0,0,0,0,0,0,0,0,0,0,0,0,0,0,0,0],"id":61,"left_children":[1,3,5,7,9,11,13,15,17,19,21,23,-1,-1,-1,-1,-1,-1,-1,-1,-1,-1,-1,-1,-1],"loss_changes":[3.9980695E0,3.0152645E0,1.2539632E0,1.5837594E0,2.2219667E0,3.6948044E0,2.7071667E-1,2.612224E0,2.007816E0,1.4800286E0,3.1002905E0,5.1579475E-2,0E0,0E0,0E0,0E0,0E0,0E0,0E0,0E0,0E0,0E0,0E0,0E0,0E0],"parents":[2147483647,0,0,1,1,2,2,3,3,4,4,5,5,6,6,7,7,8,8,9,9,10,10,11,11],"right_children":[2,4,6,8,10,12,14,16,18,20,22,24,-1,-1,-1,-1,-1,-1,-1,-1,-1,-1,-1,-1,-1],"split_conditions":[2.9389244E-1,-2.503834E-1,5.968394E-1,-1.1013672E0,-2.688559E-3,3.3619142E-1,2.039841E0,-1.414645E0,-2.645236E-1,-1.84747E-1,-2.1635161E-1,-6.102089E-1,2.6092444E-2,-2.8272543E-2,-8.846955E-3,-1.558847E-2,1.8770648E-2,-1.9605635E-2,6.6717328E-3,3.7725154E-2,1.0385445E-2,-1.3968733E-2,1.5352363E-2,-9.47831E-3,-2.5120428E-2],"split_indices":[18,14,14,8,17,14,16,14,18,18,10,16,0,0,0,0,0,0,0,0,0,0,0,0,0],"split_type":[0,0,0,0,0,0,0,0,0,0,0,0,0,0,0,0,0,0,0,0,0,0,0,0,0],"sum_hessian":[1.435174E2,1.08734505E2,3.478289E1,5.2172794E1,5.6561714E1,1.6105667E1,1.8677225E1,2.0096539E1,3.2076256E1,2.3006943E1,3.355477E1,1.1104825E1,5.000842E0,1.3615191E1,5.0620327E0,7.636571E0,1.2459968E1,2.2961811E1,9.114445E0,8.705467E0,1.4301475E1,1.4502862E1,1.905191E1,5.129653E0,5.975172E0],"tree_param":{"num_deleted":"0","num_feature":"20","num_nodes":"25","size_leaf_vector":"1"}},{"base_weights":[-2.1345321E-2,6.592396E-2,-2.3006272E-1,2.6989117E-1,-1.02106586E-1,-5.565833E-1,-0E0,-4.8095468E-3,6.5395164E-1,2.5169635E-2,-1.6381288E-1,-1.3200538E-2,-3.0812984E-2,2.2436218E-2,-1.1026308E-1,8.011115E-3,-2.250064E-2,4.1023485E-2,1.4829022E-2,-1.2726234E-2,1.3852115E-2,-2.5917942E-2,1.00907665E-2],"categories":[],"categories_nodes":[],"categories_segments":[],"categories_sizes":[],"default_left":[0,0,0,0,0,0,0,0,0,0,0,0,0,0,0,0,0,0,0,0,0,0,0],"id":62,"left_children":[1,3,5,7,9,11,13,15,17,-1,19,-1,-1,-1,21,-1,-1,-1,-1,-1,-1,-1,-1],"loss_changes":[3.284959E0,4.3931117E0,4.0525603E0,6.1690717E0,2.7115664E0,5.5065155E-2,1.7177546E0,2.7118258E0,9.67618E-1,0E0,2.7014565E0,0E0,0E0,0E0,3.6459064E0,0E0,0E0,0E0,0E0,0E0,0E0,0E0,0E0],"parents":[2147483647,0,0,1,1,2,2,3,3,4,4,5,5,6,6,7,7,8,8,10,10,14,14],"right_children":[2,4,6,8,10,12,14,16,18,-1,20,-1,-1,-1,22,-1,-1,-1,-1,-1,-1,-1,-1],"split_conditions":[4.9593842E-1,4.563212E-3,3.333133E-1,-5.8599305E-1,-1.9981344E0,-2.1291564E-1,-7.802042E-1,-5.3880278E-2,1.7271155E-1,2.5169635E-2,4.7996718E-1,-1.3200538E-2,-3.0812984E-2,2.2436218E-2,4.0770715E-1,8.011115E-3,-2.250064E-2,4.1023485E-2,1.4829022E-2,-1.2726234E-2,1.3852115E-2,-2.5917942E-2,1.00907665E-2],"split_indices":[8,1,18,13,11,16,2,17,16,0,16,0,0,0,19,0,0,0,0,0,0,0,0],"split_type":[0,0,0,0,0,0,0,0,0,0,0,0,0,0,0,0,0,0,0,0,0,0,0],"sum_hessian":[1.766973E2,1.2498532E2,5.171197E1,5.631367E1,6.8671646E1,2.0673473E1,3.1038498E1,3.354286E1,2.2770817E1,5.208204E0,6.3463444E1,5.164669E0,1.5508804E1,5.3918962E0,2.56466E1,2.5008165E1,8.534691E0,1.40162945E1,8.754521E0,5.334734E1,1.0116105E1,1.0822841E1,1.4823761E1],"tree_param":{"num_deleted":"0","num_feature":"20","num_nodes":"23","size_leaf_vector":"1"}}]},"name":"gbtree"},"learner_model_param":{"base_score":"[-1.4278889E-3,-1.8599844E-1,1.8742615E-1]","boost_from_average":"1","num_class":"3","num_feature":"20","num_target":"1"},"objective":{"name":"multi:softmax","softmax_multiclass_param":{"num_class":"3"}}},"version":[3,2,0]}