{"learner":{"attributes":{"best_iteration":"3","best_score":"0.9660359202547276","scikit_learn":"{\"_estimator_type\": \"classifier\"}"},"feature_names":[],"feature_types":[],"gradient_booster":{"model":{"cats":{"enc":[],"feature_segments":[],"sorted_idx":[]},"gbtree_model_param":{"num_parallel_tree":"1","num_trees":"72"},"iteration_indptr":[0,3,6,9,12,15,18,21,24,27,30,33,36,39,42,45,48,51,54,57,60,63,66,69,72],"tree_info":[0,1,2,0,1,2,0,1,2,0,1,2,0,1,2,0,1,2,0,1,2,0,1,2,0,1,2,0,1,2,0,1,2,0,1,2,0,1,2,0,1,2,0,1,2,0,1,2,0,1,2,0,1,2,0,1,2,0,1,2,0,1,2,0,1,2,0,1,2,0,1,2],"trees":[{"base_weights":[4.5101743E-2,-2.0540275E-1,3.0959153E-1,-4.510036E-1,1.4489565E-2,4.014188E-1,-2.4143033E-2,-3.0439932E-2,-1.3135321E-1,3.0353057E-1,-1.6746452E-1,2.3770337E-1,5.2479178E-2,5.0065983E-3,-1.756556E-2,3.608242E-2,-1.284333E-2,-1.8643191E-2,1.2706305E-2,2.0062583E-2,-3.0657068E-2],"categories":[],"categories_nodes":[],"categories_segments":[],"categories_sizes":[],"default_left":[0,0,0,0,0,0,0,0,0,0,0,0,0,0,0,0,0,0,0,0,0],"id":0,"left_children":[1,3,5,7,9,11,-1,-1,13,15,17,19,-1,-1,-1,-1,-1,-1,-1,-1,-1],"loss_changes":[1.086117E1,4.5940976E0,6.086171E0,1.8225098E0,2.4879904E0,7.1801424E0,0E0,0E0,8.5869133E-1,4.6267996E0,2.6425085E0,8.67845E0,0E0,0E0,0E0,0E0,0E0,0E0,0E0,0E0,0E0],"parents":[2147483647,0,0,1,1,2,2,3,3,4,4,5,5,8,8,9,9,10,10,11,11],"right_children":[2,4,6,8,10,12,-1,-1,14,16,18,20,-1,-1,-1,-1,-1,-1,-1,-1,-1],"split_conditions":[-1.6411465E-1,-2.419223E-1,2.271116E0,-4.4978946E-1,-5.7984004E-3,1.165063E0,-2.4143033E-2,-3.0439932E-2,-1.9345778E-1,-2.336054E-1,4.8056066E-1,8.190491E-1,5.2479178E-2,5.0065983E-3,-1.756556E-2,3.608242E-2,-1.284333E-2,-1.8643191E-2,1.2706305E-2,2.0062583E-2,-3.0657068E-2],"split_indices":[13,9,2,2,9,7,0,0,5,16,16,7,0,0,0,0,0,0,0,0,0],"split_type":[0,0,0,0,0,0,0,0,0,0,0,0,0,0,0,0,0,0,0,0,0],"sum_hessian":[1.6083072E2,8.257706E1,7.8253654E1,3.8478317E1,4.4098743E1,7.090386E1,7.3497906E0,2.4643415E1,1.38349E1,1.6861284E1,2.723746E1,5.8365982E1,1.2537878E1,6.91745E0,6.91745E0,9.511494E0,7.3497906E0,1.8590647E1,8.646812E0,4.971917E1,8.646812E0],"tree_param":{"num_deleted":"0","num_feature":"20","num_nodes":"21","size_leaf_vector":"1"}},{"base_weights":[5.3740773E-2,5.5495393E-1,-6.128429E-2,1.2666596E-1,9.403497E-1,-1.2694123E-1,5.0195986E-1,-7.179513E-3,2.5185144E-2,2.6666624E-2,5.9333272E-2,-3.76471E-1,5.497597E-3,3.9999954E-2,5.999969E-3,-9.462393E-3,-3.0000014E-2,1.40951965E-2,-7.187529E-3],"categories":[],"categories_nodes":[],"categories_segments":[],"categories_sizes":[],"default_left":[0,0,0,0,0,0,0,0,0,0,0,0,0,0,0,0,0,0,0],"id":1,"left_children":[1,3,5,7,9,11,13,-1,-1,-1,-1,15,17,-1,-1,-1,-1,-1,-1],"loss_changes":[8.575244E0,4.295061E0,4.5235233E0,1.6729511E0,3.0730152E-1,3.658898E0,1.2154515E0,0E0,0E0,0E0,0E0,1.3515105E0,3.0757694E0,0E0,0E0,0E0,0E0,0E0,0E0],"parents":[2147483647,0,0,1,1,2,2,3,3,4,4,5,5,6,6,11,11,12,12],"right_children":[2,4,6,8,10,12,14,-1,-1,-1,-1,16,18,-1,-1,-1,-1,-1,-1],"split_conditions":[-1.1132058E0,-1.2527423E0,1.1910945E0,6.432436E-2,-7.115889E-2,2.1135598E-2,6.808936E-1,-7.179513E-3,2.5185144E-2,2.6666624E-2,5.9333272E-2,-3.381441E-1,-6.4043975E-1,3.9999954E-2,5.999969E-3,-9.462393E-3,-3.0000014E-2,1.40951965E-2,-7.187529E-3],"split_indices":[19,19,8,9,9,7,16,0,0,0,0,0,16,0,0,0,0,0,0],"split_type":[0,0,0,0,0,0,0,0,0,0,0,0,0,0,0,0,0,0,0],"sum_hessian":[1.455001E2,2.625002E1,1.19250084E2,1.350001E1,1.275001E1,1.0800008E2,1.1250008E1,8.250006E0,5.250004E0,6.750005E0,6.0000043E0,3.6750027E1,7.125005E1,5.250004E0,6.0000043E0,2.1750015E1,1.50000105E1,2.4750017E1,4.6500034E1],"tree_param":{"num_deleted":"0","num_feature":"20","num_nodes":"19","size_leaf_vector":"1"}},{"base_weights":[-2.0440733E-2,-6.26666E-2,3.5329904E-2,4.8000995E-2,-5.370745E-1,-4.1538155E-1,1.4379965E-1,-6.725226E-1,8.160455E-3,-3.7844405E-2,1.91175E-2,2.928486E-2,-0E0,-4.0141515E-2,-2.1656753E-2],"categories":[],"categories_nodes":[],"categories_segments":[],"categories_sizes":[],"default_left":[0,0,0,0,0,0,0,0,0,0,0,0,0,0,0],"id":2,"left_children":[1,3,-1,5,7,9,11,13,-1,-1,-1,-1,-1,-1,-1],"loss_changes":[6.065749E0,9.967444E0,0E0,6.889548E0,3.6197042E0,7.705866E0,8.132517E0,3.05748E-1,0E0,0E0,0E0,0E0,0E0,0E0,0E0],"parents":[2147483647,0,0,1,1,3,3,4,4,5,5,6,6,7,7],"right_children":[2,4,-1,6,8,10,12,14,-1,-1,-1,-1,-1,-1,-1],"split_conditions":[2.271116E0,7.3150676E-1,3.5329904E-2,-1.2052753E0,1.1167761E0,-8.226977E-1,-6.564147E-1,9.3713146E-1,8.160455E-3,-3.7844405E-2,1.91175E-2,2.928486E-2,-0E0,-4.0141515E-2,-2.1656753E-2],"split_indices":[2,2,0,19,14,13,0,0,0,0,0,0,0,0,0],"split_type":[0,0,0,0,0,0,0,0,0,0,0,0,0,0,0],"sum_hessian":[1.9601636E2,1.8668225E2,9.334112E0,1.5229341E2,3.4388836E1,2.5054724E1,1.2723869E2,2.8984877E1,5.4039598E0,1.7685686E1,7.369036E0,2.9967415E1,9.727128E1,1.621188E1,1.2772996E1],"tree_param":{"num_deleted":"0","num_feature":"20","num_nodes":"15","size_leaf_vector":"1"}},{"base_weights":[3.390268E-2,-2.5901446E-1,2.3279485E-1,8.227873E-2,-4.7198424E-1,5.053782E-1,-5.597496E-2,-2.7853966E-2,5.5682635E-1,-2.50989E-3,-5.564807E-1,-9.646116E-2,8.0565155E-1,3.313236E-1,-2.0770435E-1,4.6656072E-2,7.6639303E-3,-3.1684145E-2,-1.7555794E-2,-1.7959699E-2,2.2952018E-2,-4.4149157E-4,6.2088814E-2,-4.912399E-3,4.4675298E-2,-3.2293536E-2,1.4222789E-3],"categories":[],"categories_nodes":[],"categories_segments":[],"categories_sizes":[],"default_left":[0,0,0,0,0,0,0,0,0,0,0,0,0,0,0,0,0,0,0,0,0,0,0,0,0,0,0],"id":3,"left_children":[1,3,5,7,9,11,13,-1,15,-1,17,19,21,23,25,-1,-1,-1,-1,-1,-1,-1,-1,-1,-1,-1,-1],"loss_changes":[1.0206652E1,5.239504E0,8.308229E0,9.045844E0,1.4643736E0,9.955816E0,3.1399486E0,0E0,2.2693362E0,0E0,1.4301968E-1,3.0425775E0,1.3045654E1,3.8331447E0,4.0614824E0,0E0,0E0,0E0,0E0,0E0,0E0,0E0,0E0,0E0,0E0,0E0,0E0],"parents":[2147483647,0,0,1,1,2,2,3,3,4,4,5,5,6,6,8,8,10,10,11,11,12,12,13,13,14,14],"right_children":[2,4,6,8,10,12,14,-1,16,-1,18,20,22,24,26,-1,-1,-1,-1,-1,-1,-1,-1,-1,-1,-1,-1],"split_conditions":[-1.8313357E-1,-1.175062E0,-4.536409E-2,-2.4663925E-1,-4.2244336E-1,-2.3259975E-1,1.9395618E-1,-2.7853966E-2,1.065595E-1,-2.50989E-3,-2.2551349E-1,-5.930405E-1,-3.516874E-2,9.855164E-2,7.8388256E-1,4.6656072E-2,7.6639303E-3,-3.1684145E-2,-1.7555794E-2,-1.7959699E-2,2.2952018E-2,-4.4149157E-4,6.2088814E-2,-4.912399E-3,4.4675298E-2,-3.2293536E-2,1.4222789E-3],"split_indices":[6,19,10,11,11,0,6,0,11,0,0,10,19,6,5,0,0,0,0,0,0,0,0,0,0,0,0],"split_type":[0,0,0,0,0,0,0,0,0,0,0,0,0,0,0,0,0,0,0,0,0,0,0,0,0,0,0],"sum_hessian":[1.7218715E2,6.924736E1,1.029398E2,2.6780848E1,4.246651E1,5.255336E1,5.038644E1,1.1208302E1,1.5572547E1,7.6840663E0,3.4782444E1,1.7720724E1,3.4832634E1,1.3497839E1,3.68886E1,6.9115286E0,8.661018E0,2.2651665E1,1.2130779E1,1.2512736E1,5.207988E0,1.2579752E1,2.2252882E1,8.252196E0,5.2456427E0,1.2155512E1,2.473309E1],"tree_param":{"num_deleted":"0","num_feature":"20","num_nodes":"27","size_leaf_vector":"1"}},{"base_weights":[-5.0440174E-2,3.7233672E-1,-1.7744508E-1,5.174522E-1,-5.3872224E-3,-2.4631996E-1,2.6877803E-1,-7.296914E-3,7.39328E-1,-5.035003E-1,-1.2243865E-1,3.441195E-2,-6.108302E-3,1.1691769E-2,5.2474644E-2,-5.853243E-3,-3.0868677E-2,6.033961E-3,-1.4980602E-2],"categories":[],"categories_nodes":[],"categories_segments":[],"categories_sizes":[],"default_left":[0,0,0,0,0,0,0,0,0,0,0,0,0,0,0,0,0,0,0],"id":4,"left_children":[1,3,5,7,-1,9,11,-1,13,15,17,-1,-1,-1,-1,-1,-1,-1,-1],"loss_changes":[8.014902E0,2.5240808E0,3.6266015E0,4.175613E0,0E0,3.0457034E0,2.786672E0,0E0,2.716547E0,1.2225981E0,3.0893803E0,0E0,0E0,0E0,0E0,0E0,0E0,0E0,0E0],"parents":[2147483647,0,0,1,1,2,2,3,3,5,5,6,6,8,8,9,9,10,10],"right_children":[2,4,6,8,-1,10,12,-1,14,16,18,-1,-1,-1,-1,-1,-1,-1,-1],"split_conditions":[-7.4820787E-1,3.7272987E-1,1.1910945E0,-8.9024895E-1,-5.3872224E-3,6.799896E-3,1.074879E0,-7.296914E-3,-1.3179982E0,-5.8072805E-1,4.7691107E-1,3.441195E-2,-6.108302E-3,1.1691769E-2,5.2474644E-2,-5.853243E-3,-3.0868677E-2,6.033961E-3,-1.4980602E-2],"split_indices":[6,16,8,8,0,7,14,0,4,13,7,0,0,0,0,0,0,0,0],"split_type":[0,0,0,0,0,0,0,0,0,0,0,0,0,0,0,0,0,0,0],"sum_hessian":[1.462852E2,3.294205E1,1.1334315E2,2.5366102E1,7.575949E0,9.896405E1,1.4379092E1,6.3732595E0,1.8992844E1,3.0415993E1,6.854806E1,6.5096807E0,7.869411E0,8.345306E0,1.0647536E1,7.815124E0,2.260087E1,2.8860065E1,3.9687992E1],"tree_param":{"num_deleted":"0","num_feature":"20","num_nodes":"19","size_leaf_vector":"1"}},{"base_weights":[2.0934314E-2,3.6614642E-1,-6.505326E-2,5.8094895E-1,-3.3686075E-2,-1.8533622E-1,2.8807414E-1,4.6365457E-3,6.983906E-1,5.685597E-2,-3.5705107E-1,5.6048983E-1,-1.4036018E-1,4.2963292E-2,1.8008426E-2,-2.0768123E-2,1.798018E-2,-2.308618E-2,2.8199842E-3,7.6626884E-3,3.7206974E-2,1.0802458E-2,-1.873671E-2],"categories":[],"categories_nodes":[],"categories_segments":[],"categories_sizes":[],"default_left":[0,0,0,0,0,0,0,0,0,0,0,0,0,0,0,0,0,0,0,0,0,0,0],"id":5,"left_children":[1,3,5,7,-1,9,11,-1,13,15,17,19,21,-1,-1,-1,-1,-1,-1,-1,-1,-1,-1],"loss_changes":[5.8533607E0,9.364689E0,6.7440715E0,1.7438917E0,0E0,4.981705E0,4.863521E0,0E0,8.611965E-1,7.3872676E0,3.0955057E0,1.6148057E0,1.5340873E0,0E0,0E0,0E0,0E0,0E0,0E0,0E0,0E0,0E0,0E0],"parents":[2147483647,0,0,1,1,2,2,3,3,5,5,6,6,8,8,9,9,10,10,11,11,12,12],"right_children":[2,4,6,8,-1,10,12,-1,14,16,18,20,22,-1,-1,-1,-1,-1,-1,-1,-1,-1,-1],"split_conditions":[-7.431575E-1,1.457827E0,8.062857E-1,-1.4847422E0,-3.3686075E-2,-4.0268588E-1,1.5607555E0,4.6365457E-3,-6.7843664E-3,-1.459022E0,8.410996E-1,-2.660488E-1,1.0867096E0,4.2963292E-2,1.8008426E-2,-2.0768123E-2,1.798018E-2,-2.308618E-2,2.8199842E-3,7.6626884E-3,3.7206974E-2,1.0802458E-2,-1.873671E-2],"split_indices":[18,6,18,16,0,13,18,0,16,6,7,13,8,0,0,0,0,0,0,0,0,0,0],"split_type":[0,0,0,0,0,0,0,0,0,0,0,0,0,0,0,0,0,0,0,0,0,0,0],"sum_hessian":[1.9347145E2,3.783839E1,1.5563306E2,3.1988726E1,5.8496656E0,1.1683307E2,3.879999E1,6.8884687E0,2.5100256E1,4.8644405E1,6.818867E1,2.3578747E1,1.5221246E1,1.5243309E1,9.856948E0,1.8656374E1,2.998803E1,5.4466274E1,1.372239E1,8.352854E0,1.5225892E1,5.9157925E0,9.305453E0],"tree_param":{"num_deleted":"0","num_feature":"20","num_nodes":"23","size_leaf_vector":"1"}},{"base_weights":[-2.5997302E-2,-2.620828E-1,1.8412825E-1,7.117656E-2,-4.1352096E-1,4.4193313E-1,-1.06784485E-1,3.949374E-1,-2.509788E-2,-4.74323E-1,1.4539099E-3,-1.3451461E-1,7.210201E-1,2.5037283E-2,-3.085139E-1,2.9472336E-2,-1.2699905E-4,-1.29553275E-2,-2.825146E-2,1.5180642E-2,-2.194222E-2,5.2585836E-2,-1.0177005E-3,-2.8998813E-2,6.162635E-3],"categories":[],"categories_nodes":[],"categories_segments":[],"categories_sizes":[],"default_left":[0,0,0,0,0,0,0,0,0,0,0,0,0,0,0,0,0,0,0,0,0,0,0,0,0],"id":6,"left_children":[1,3,5,7,9,11,13,15,-1,17,-1,19,21,-1,23,-1,-1,-1,-1,-1,-1,-1,-1,-1,-1],"loss_changes":[8.443868E0,4.1278086E0,6.8436675E0,5.1376386E0,1.5613146E0,7.9448214E0,5.5124464E0,1.4260247E0,0E0,6.5775585E-1,0E0,2.459149E0,8.169935E0,0E0,4.0813246E0,0E0,0E0,0E0,0E0,0E0,0E0,0E0,0E0,0E0,0E0],"parents":[2147483647,0,0,1,1,2,2,3,3,4,4,5,5,6,6,7,7,9,9,11,11,12,12,14,14],"right_children":[2,4,6,8,10,12,14,16,-1,18,-1,20,22,-1,24,-1,-1,-1,-1,-1,-1,-1,-1,-1,-1],"split_conditions":[-2.3810679E-1,-1.1913891E0,7.10945E-1,-8.500053E-1,1.2266296E0,-5.0390565E-1,-2.419223E-1,1.0056713E0,-2.509788E-2,-5.210845E-1,1.4539099E-3,-7.188584E-1,6.471756E-1,2.5037283E-2,6.038092E-1,2.9472336E-2,-1.2699905E-4,-1.29553275E-2,-2.825146E-2,1.5180642E-2,-2.194222E-2,5.2585836E-2,-1.0177005E-3,-2.8998813E-2,6.162635E-3],"split_indices":[13,19,13,13,8,8,9,8,0,17,0,9,8,0,9,0,0,0,0,0,0,0,0,0,0],"split_type":[0,0,0,0,0,0,0,0,0,0,0,0,0,0,0,0,0,0,0,0,0,0,0,0,0],"sum_hessian":[1.6709691E2,7.8737175E1,8.835974E1,2.4642595E1,5.4094578E1,4.6614952E1,4.1744793E1,1.615664E1,8.485956E0,4.766502E1,6.429557E0,1.5343018E1,3.1271933E1,9.728187E0,3.2016605E1,1.0530548E1,5.626091E0,1.617478E1,3.149024E1,6.155793E0,9.187225E0,2.1284685E1,9.987247E0,1.9483536E1,1.253307E1],"tree_param":{"num_deleted":"0","num_feature":"20","num_nodes":"25","size_leaf_vector":"1"}},{"base_weights":[3.5328455E-2,4.738642E-1,-9.482076E-2,2.4498741E-1,5.543254E-2,-4.8670292E-2,-2.4424018E-2,4.4760104E-2,-7.4140236E-2,-1.5143849E-1,3.131602E-1,-2.6322832E-2,8.499852E-3,-1.0617892E-2,2.566785E-2,3.4552414E-2,-7.836597E-3],"categories":[],"categories_nodes":[],"categories_segments":[],"categories_sizes":[],"default_left":[0,0,0,0,0,0,0,0,0,0,0,0,0,0,0,0,0],"id":7,"left_children":[1,3,5,7,-1,9,-1,-1,11,13,15,-1,-1,-1,-1,-1,-1],"loss_changes":[8.88224E0,4.6323476E0,2.0845375E0,6.0376744E0,0E0,4.107953E0,0E0,0E0,2.401906E0,3.6208992E0,4.545577E0,0E0,0E0,0E0,0E0,0E0,0E0],"parents":[2147483647,0,0,1,1,2,2,3,3,5,5,8,8,9,9,10,10],"right_children":[2,4,6,8,-1,10,-1,-1,12,14,16,-1,-1,-1,-1,-1,-1],"split_conditions":[-6.957153E-1,-6.775055E-1,1.5481875E0,-1.2653939E0,5.543254E-2,6.262846E-1,-2.4424018E-2,4.4760104E-2,-4.26447E-1,1.5222564E0,-8.169287E-2,-2.6322832E-2,8.499852E-3,-1.0617892E-2,2.566785E-2,3.4552414E-2,-7.836597E-3],"split_indices":[6,2,6,13,0,12,0,0,17,18,15,0,0,0,0,0,0],"split_type":[0,0,0,0,0,0,0,0,0,0,0,0,0,0,0,0,0],"sum_hessian":[1.5227878E2,3.4119755E1,1.1815903E2,2.6721548E1,7.3982053E0,1.0749625E2,1.0662783E1,8.009011E0,1.8712538E1,8.461282E1,2.2883419E1,6.095091E0,1.2617447E1,7.8583046E1,6.0297823E0,1.2410062E1,1.0473358E1],"tree_param":{"num_deleted":"0","num_feature":"20","num_nodes":"17","size_leaf_vector":"1"}},{"base_weights":[3.856248E-2,2.92054E-1,-1.0137073E-1,4.442783E-1,-3.5328373E-2,-2.3251845E-1,3.6561364E-1,2.9204968E-1,7.3973894E-1,4.212772E-2,-5.4341197E-1,1.4711152E-1,3.990176E-2,-1.2026931E-2,1.8999875E-2,2.071572E-2,4.4750348E-2,-1.283996E-2,4.949831E-2,-1.1083138E-3,-3.261913E-2,2.4309454E-2,-2.7400658E-2],"categories":[],"categories_nodes":[],"categories_segments":[],"categories_sizes":[],"default_left":[0,0,0,0,0,0,0,0,0,0,0,0,0,0,0,0,0,0,0,0,0,0,0],"id":8,"left_children":[1,3,5,7,-1,9,11,13,15,17,19,21,-1,-1,-1,-1,-1,-1,-1,-1,-1,-1,-1],"loss_changes":[6.958675E0,1.1052122E1,7.837403E0,2.341464E0,0E0,8.583709E0,2.381209E0,2.1805265E0,3.0974388E-1,1.5775092E1,2.5786257E0,5.2577543E0,0E0,0E0,0E0,0E0,0E0,0E0,0E0,0E0,0E0,0E0,0E0],"parents":[2147483647,0,0,1,1,2,2,3,3,5,5,6,6,7,7,8,8,9,9,10,10,11,11],"right_children":[2,4,6,8,-1,10,12,14,16,18,20,22,-1,-1,-1,-1,-1,-1,-1,-1,-1,-1,-1],"split_conditions":[-5.0390565E-1,7.8388256E-1,8.065975E-1,-4.728779E-1,-3.5328373E-2,-2.6135513E-1,1.944804E0,-1.4577686E0,-2.858192E-1,-5.0963295E-1,-1.3379604E-1,7.9114306E-1,3.990176E-2,-1.2026931E-2,1.8999875E-2,2.071572E-2,4.4750348E-2,-1.283996E-2,4.949831E-2,-1.1083138E-3,-3.261913E-2,2.4309454E-2,-2.7400658E-2],"split_indices":[8,5,13,17,0,6,0,6,19,7,19,9,0,0,0,0,0,0,0,0,0,0,0],"split_type":[0,0,0,0,0,0,0,0,0,0,0,0,0,0,0,0,0,0,0,0,0,0,0],"sum_hessian":[1.928849E2,6.827945E1,1.2460546E2,6.0057426E1,8.222019E0,9.803938E1,2.6566076E1,4.182783E1,1.8229595E1,5.257194E1,4.546744E1,1.9137487E1,7.4285893E0,5.3982034E0,3.642963E1,7.8737364E0,1.0355859E1,4.071838E1,1.1853561E1,8.332569E0,3.7134872E1,1.3262728E1,5.8747587E0],"tree_param":{"num_deleted":"0","num_feature":"20","num_nodes":"23","size_leaf_vector":"1"}},{"base_weights":[-3.814029E-2,-3.359339E-1,1.2838861E-1,-3.8707662E-2,-5.459945E-1,-3.0556965E-1,2.3018281E-1,-2.8948182E-2,1.7291525E-1,-1.2889887E-2,-3.0251054E-2,8.640102E-3,-5.1795095E-1,5.6111682E-2,1.4772108E-1,2.1105874E-2,-8.9835115E-3,-1.246954E-2,-3.028774E-2,4.7252562E-2,1.690786E-3],"categories":[],"categories_nodes":[],"categories_segments":[],"categories_sizes":[],"default_left":[0,0,0,0,0,0,0,0,0,0,0,0,0,0,0,0,0,0,0,0,0],"id":9,"left_children":[1,3,5,7,9,11,13,-1,15,-1,-1,-1,17,-1,19,-1,-1,-1,-1,-1,-1],"loss_changes":[8.665456E0,3.8233905E0,5.0381203E0,3.3654122E0,2.9921532E-1,2.3740702E0,6.3643913E0,0E0,1.9808828E0,0E0,0E0,0E0,5.4616928E-2,0E0,7.637764E0,0E0,0E0,0E0,0E0,0E0,0E0],"parents":[2147483647,0,0,1,1,2,2,3,3,4,4,5,5,6,6,8,8,12,12,14,14],"right_children":[2,4,6,8,10,12,14,-1,16,-1,-1,-1,18,-1,20,-1,-1,-1,-1,-1,-1],"split_conditions":[-1.8313357E-1,-1.175062E0,-2.3553239E-1,-5.522453E-1,-4.815192E-1,-3.888666E-2,3.8590853E-3,-2.8948182E-2,-1.0363538E0,-1.2889887E-2,-3.0251054E-2,8.640102E-3,-6.230234E-1,5.6111682E-2,-6.719428E-1,2.1105874E-2,-8.9835115E-3,-1.246954E-2,-3.028774E-2,4.7252562E-2,1.690786E-3],"split_indices":[6,19,1,8,17,6,7,0,4,0,0,0,15,0,9,0,0,0,0,0,0],"split_type":[0,0,0,0,0,0,0,0,0,0,0,0,0,0,0,0,0,0,0,0,0],"sum_hessian":[1.7151454E2,6.1181656E1,1.1033288E2,2.6267206E1,3.491445E1,2.0206314E1,9.0126564E1,6.79329E0,1.9473917E1,7.5919905E0,2.732246E1,6.1538825E0,1.4052432E1,5.923304E0,8.420326E1,1.1402563E1,8.071353E0,5.1622753E0,8.890157E0,9.047588E0,7.515567E1],"tree_param":{"num_deleted":"0","num_feature":"20","num_nodes":"21","size_leaf_vector":"1"}},{"base_weights":[-1.3664536E-3,4.291238E-1,-1.24756575E-1,2.5543252E-1,5.044611E-2,-2.5106546E-1,1.7139977E-1,-1.8492723E-1,5.6844574E-1,-3.4799114E-1,6.986831E-2,3.6797503E-1,-1.790612E-2,9.508106E-3,-2.5861705E-2,1.6464632E-3,4.0569216E-2,-2.0028315E-2,4.9341754E-3,1.7387396E-2,-2.5404263E-2,2.8087271E-2,-1.215604E-2],"categories":[],"categories_nodes":[],"categories_segments":[],"categories_sizes":[],"default_left":[0,0,0,0,0,0,0,0,0,0,0,0,0,0,0,0,0,0,0,0,0,0,0],"id":10,"left_children":[1,3,5,7,-1,9,11,13,15,17,19,21,-1,-1,-1,-1,-1,-1,-1,-1,-1,-1,-1],"loss_changes":[7.953509E0,2.8409677E0,4.4487348E0,4.02361E0,0E0,2.6416821E0,3.9076333E0,1.742844E0,2.0523062E0,1.5954542E0,3.4978197E0,3.4176304E0,0E0,0E0,0E0,0E0,0E0,0E0,0E0,0E0,0E0,0E0,0E0],"parents":[2147483647,0,0,1,1,2,2,3,3,5,5,6,6,7,7,8,8,9,9,10,10,11,11],"right_children":[2,4,6,8,-1,10,12,14,16,18,20,22,-1,-1,-1,-1,-1,-1,-1,-1,-1,-1,-1],"split_conditions":[-1.1132058E0,1.8091531E-1,3.8957053E-1,-1.2653391E0,5.044611E-2,5.02642E-1,9.74122E-1,-1.3120097E0,-2.336054E-1,8.221851E-1,6.1169884E-4,1.4020509E0,-1.790612E-2,9.508106E-3,-2.5861705E-2,1.6464632E-3,4.0569216E-2,-2.0028315E-2,4.9341754E-3,1.7387396E-2,-2.5404263E-2,2.8087271E-2,-1.215604E-2],"split_indices":[19,9,10,19,0,8,14,19,16,15,19,1,0,0,0,0,0,0,0,0,0,0,0],"split_type":[0,0,0,0,0,0,0,0,0,0,0,0,0,0,0,0,0,0,0,0,0,0,0],"sum_hessian":[1.4729335E2,3.1804602E1,1.15488754E2,2.626858E1,5.536021E0,8.135667E1,3.4132088E1,1.1036421E1,1.5232159E1,6.2627556E1,1.8729109E1,2.536301E1,8.769075E0,5.344523E0,5.691898E0,5.413647E0,9.818511E0,5.6371185E1,6.256373E0,1.3168295E1,5.560814E0,1.947312E1,5.889891E0],"tree_param":{"num_deleted":"0","num_feature":"20","num_nodes":"23","size_leaf_vector":"1"}},{"base_weights":[3.0888923E-2,3.8946795E-1,-8.248116E-2,6.0416305E-1,-1.94654E-2,-6.477184E-1,6.699466E-3,-2.7906285E-3,7.6618826E-1,-3.7987653E-2,-1.2004137E-2,3.4920865E-1,-1.5580225E-1,2.3340447E-2,4.248486E-2,4.234994E-3,4.780861E-2,-1.921785E-2,9.218628E-3],"categories":[],"categories_nodes":[],"categories_segments":[],"categories_sizes":[],"default_left":[0,0,0,0,0,0,0,0,0,0,0,0,0,0,0,0,0,0,0],"id":11,"left_children":[1,3,5,7,-1,9,11,-1,13,-1,-1,15,17,-1,-1,-1,-1,-1,-1],"loss_changes":[8.173753E0,8.451239E0,7.748689E0,4.2581053E0,0E0,5.8205414E-1,7.4975405E0,0E0,5.290413E-2,0E0,0E0,6.7458434E0,7.1990767E0,0E0,0E0,0E0,0E0,0E0,0E0],"parents":[2147483647,0,0,1,1,2,2,3,3,5,5,6,6,8,8,11,11,12,12],"right_children":[2,4,6,8,-1,10,12,-1,14,-1,-1,16,18,-1,-1,-1,-1,-1,-1],"split_conditions":[-8.9024895E-1,8.979742E-1,-1.2052753E0,-1.5680013E0,-1.94654E-2,-8.762759E-1,-2.6135513E-1,-2.7906285E-3,-7.610864E-1,-3.7987653E-2,-1.2004137E-2,-5.2919537E-1,7.3182255E-1,2.3340447E-2,4.248486E-2,4.234994E-3,4.780861E-2,-1.921785E-2,9.218628E-3],"split_indices":[8,13,19,17,0,13,6,0,12,0,0,7,13,0,0,0,0,0,0],"split_type":[0,0,0,0,0,0,0,0,0,0,0,0,0,0,0,0,0,0,0],"sum_hessian":[1.9762527E2,4.6807266E1,1.5081801E2,3.705623E1,9.751037E0,1.942526E1,1.3139276E2,7.3763456E0,2.9679884E1,1.4028611E1,5.3966494E0,4.1922832E1,8.9469925E1,8.890349E0,2.0789534E1,3.0503695E1,1.1419138E1,5.357404E1,3.589588E1],"tree_param":{"num_deleted":"0","num_feature":"20","num_nodes":"19","size_leaf_vector":"1"}},{"base_weights":[-3.3136513E-2,-2.5143644E-1,1.1388373E-1,-3.279714E-2,-6.786021E-2,6.690811E-1,3.2212988E-2,3.0992894E-2,-2.66315E-1,3.930459E-5,5.474348E-2,-4.6261977E-2,5.722619E-1,-2.167604E-2,7.998283E-4,-2.7560174E-2,2.1076647E-3,4.2256217E-2,7.592243E-3],"categories":[],"categories_nodes":[],"categories_segments":[],"categories_sizes":[],"default_left":[0,0,0,0,0,0,0,0,0,0,0,0,0,0,0,0,0,0,0],"id":12,"left_children":[1,3,5,-1,7,9,11,-1,13,-1,-1,15,17,-1,-1,-1,-1,-1,-1],"loss_changes":[5.662724E0,5.13588E0,4.664734E0,0E0,7.13253E0,3.6593094E0,4.050035E0,0E0,1.9644837E0,0E0,0E0,3.7807066E0,1.0984173E0,0E0,0E0,0E0,0E0,0E0,0E0],"parents":[2147483647,0,0,1,1,2,2,4,4,5,5,6,6,8,8,11,11,12,12],"right_children":[2,4,6,-1,8,10,12,-1,14,-1,-1,16,18,-1,-1,-1,-1,-1,-1],"split_conditions":[-9.215543E-2,-2.730223E-1,3.8590853E-3,-3.279714E-2,-1.3136545E0,-4.6375373E-1,1.3260837E0,3.0992894E-2,2.7612367E-1,3.930459E-5,5.474348E-2,1.6281651E-1,1.2064266E0,-2.167604E-2,7.998283E-4,-2.7560174E-2,2.1076647E-3,4.2256217E-2,7.592243E-3],"split_indices":[6,10,7,0,4,10,11,0,15,0,0,7,0,0,0,0,0,0,0],"split_type":[0,0,0,0,0,0,0,0,0,0,0,0,0,0,0,0,0,0,0],"sum_hessian":[1.7317213E2,6.9536766E1,1.0363537E2,2.0331755E1,4.9205017E1,1.1749468E1,9.18859E1,1.0193121E1,3.9011894E1,5.248822E0,6.500645E0,8.126373E1,1.0622165E1,2.4218632E1,1.47932625E1,1.1107606E1,7.015613E1,5.3783193E0,5.2438455E0],"tree_param":{"num_deleted":"0","num_feature":"20","num_nodes":"19","size_leaf_vector":"1"}},{"base_weights":[3.5306428E-2,-2.5033203E-1,1.6975872E-1,-3.163217E-1,8.789492E-3,4.534245E-1,4.637927E-2,-4.326193E-1,1.9686033E-3,2.7472132E-1,4.676388E-2,-2.6080271E-2,1.12213105E-1,-1.991453E-3,-2.51434E-2,3.537815E-2,-1.309282E-3,2.9515315E-2,1.4447926E-3],"categories":[],"categories_nodes":[],"categories_segments":[],"categories_sizes":[],"default_left":[0,0,0,0,0,0,0,0,0,0,0,0,0,0,0,0,0,0,0],"id":13,"left_children":[1,3,5,7,-1,9,11,13,-1,15,-1,-1,17,-1,-1,-1,-1,-1,-1],"loss_changes":[5.6215944E0,1.4121389E0,3.406941E0,1.7701044E0,0E0,2.0592656E0,2.7158988E0,7.82176E-1,0E0,3.2231436E0,0E0,0E0,2.5158875E0,0E0,0E0,0E0,0E0,0E0,0E0],"parents":[2147483647,0,0,1,1,2,2,3,3,5,5,6,6,7,7,9,9,12,12],"right_children":[2,4,6,8,-1,10,12,14,-1,16,-1,-1,18,-1,-1,-1,-1,-1,-1],"split_conditions":[-4.792151E-1,-2.1060462E-1,-7.5555855E-1,1.1671313E-1,8.789492E-3,-6.775055E-1,-3.7002707E-1,-1.5592196E0,1.9686033E-3,-1.2355566E0,4.676388E-2,-2.6080271E-2,-7.4717057E-1,-1.991453E-3,-2.51434E-2,3.537815E-2,-1.309282E-3,2.9515315E-2,1.4447926E-3],"split_indices":[18,9,7,16,0,2,1,9,0,1,0,0,17,0,0,0,0,0,0],"split_type":[0,0,0,0,0,0,0,0,0,0,0,0,0,0,0,0,0,0,0],"sum_hessian":[1.4342761E2,4.5252964E1,9.8174644E1,3.9722656E1,5.5303073E0,2.829579E1,6.987885E1,2.9902481E1,9.820175E0,2.2510231E1,5.7855573E0,6.021811E0,6.385704E1,5.1091337E0,2.4793348E1,8.536304E0,1.3973927E1,7.9441156E0,5.5912926E1],"tree_param":{"num_deleted":"0","num_feature":"20","num_nodes":"19","size_leaf_vector":"1"}},{"base_weights":[-1.3233236E-3,3.2786942E-1,-1.020291E-1,5.8832437E-1,-4.2957643E-1,-2.8950852E-1,1.4067924E-1,6.0658287E-3,7.030888E-1,-5.0502582E-3,-3.2024547E-2,-5.9976155E-1,-1.5702222E-1,3.7987164E-1,-9.5863454E-2,1.3727935E-2,3.9228555E-2,-3.5409715E-2,-1.4483677E-2,8.418362E-3,-1.7716018E-2,-5.768074E-3,2.754244E-2,-1.2163821E-2,2.4269443E-2],"categories":[],"categories_nodes":[],"categories_segments":[],"categories_sizes":[],"default_left":[0,0,0,0,0,0,0,0,0,0,0,0,0,0,0,0,0,0,0,0,0,0,0,0,0],"id":14,"left_children":[1,3,5,7,9,11,13,-1,15,-1,-1,17,19,21,23,-1,-1,-1,-1,-1,-1,-1,-1,-1,-1],"loss_changes":[6.571765E0,9.541995E0,7.0167794E0,1.6779642E0,7.042489E-1,3.3501835E0,3.888166E0,0E0,5.4161453E-1,0E0,0E0,4.4018745E-1,4.157174E0,3.0136929E0,3.1348505E0,0E0,0E0,0E0,0E0,0E0,0E0,0E0,0E0,0E0,0E0],"parents":[2147483647,0,0,1,1,2,2,3,3,4,4,5,5,6,6,8,8,11,11,12,12,13,13,14,14],"right_children":[2,4,6,8,10,12,14,-1,16,-1,-1,18,20,22,24,-1,-1,-1,-1,-1,-1,-1,-1,-1,-1],"split_conditions":[-8.9024895E-1,6.3818234E-1,3.2404888E-1,-1.4509702E0,9.3066233E-1,-1.0780609E0,7.588377E-1,6.0658287E-3,-1.3747675E0,-5.0502582E-3,-3.2024547E-2,-9.2422694E-1,-4.2540133E-2,-1.1335571E0,2.0512402E0,1.3727935E-2,3.9228555E-2,-3.5409715E-2,-1.4483677E-2,8.418362E-3,-1.7716018E-2,-5.768074E-3,2.754244E-2,-1.2163821E-2,2.4269443E-2],"split_indices":[8,5,16,17,4,19,17,0,12,0,0,0,19,19,16,0,0,0,0,0,0,0,0,0,0],"split_type":[0,0,0,0,0,0,0,0,0,0,0,0,0,0,0,0,0,0,0,0,0,0,0,0,0],"sum_hessian":[1.9590129E2,4.4865578E1,1.510357E2,3.373308E1,1.1132499E1,8.528236E1,6.575335E1,7.435007E0,2.6298073E1,5.4049344E0,5.727565E0,2.3711088E1,6.1571266E1,3.2451847E1,3.3301506E1,5.4447474E0,2.0853325E1,1.5902111E1,7.808976E0,2.3132925E1,3.8438343E1,8.303607E0,2.414824E1,2.739741E1,5.9040956E0],"tree_param":{"num_deleted":"0","num_feature":"20","num_nodes":"25","size_leaf_vector":"1"}},{"base_weights":[2.4816433E-2,-2.7470827E-1,2.4277659E-1,5.1399425E-2,-4.1368812E-1,5.580168E-1,-0E0,-2.4450852E-2,4.000709E-1,-7.537036E-2,-6.0588247E-1,-4.6333924E-2,9.188152E-1,1.937095E-1,-2.3750122E-1,4.582996E-2,-0E0,-1.6913397E-2,1.0393385E-2,-1.1694497E-2,-3.292535E-2,-2.0016959E-2,1.5661677E-2,5.183318E-2,1.4579238E-2,-2.5377604E-3,3.8357165E-2,-2.5692144E-2,4.9528284E-3],"categories":[],"categories_nodes":[],"categories_segments":[],"categories_sizes":[],"default_left":[0,0,0,0,0,0,0,0,0,0,0,0,0,0,0,0,0,0,0,0,0,0,0,0,0,0,0,0,0],"id":15,"left_children":[1,3,5,7,9,11,13,-1,15,17,19,21,23,25,27,-1,-1,-1,-1,-1,-1,-1,-1,-1,-1,-1,-1,-1,-1],"loss_changes":[1.1258929E1,3.355093E0,7.7003217E0,4.5790734E0,3.1946802E0,9.668712E0,2.732287E0,0E0,3.124395E0,1.6421884E0,3.1145763E-1,2.4423783E0,1.4470615E0,4.6793127E0,2.6150985E0,0E0,0E0,0E0,0E0,0E0,0E0,0E0,0E0,0E0,0E0,0E0,0E0,0E0,0E0],"parents":[2147483647,0,0,1,1,2,2,3,3,4,4,5,5,6,6,8,8,9,9,10,10,11,11,12,12,13,13,14,14],"right_children":[2,4,6,8,10,12,14,-1,16,18,20,22,24,26,28,-1,-1,-1,-1,-1,-1,-1,-1,-1,-1,-1,-1,-1,-1],"split_conditions":[-2.588675E-1,-1.2052753E0,-4.536409E-2,-2.4663925E-1,-4.2244336E-1,6.1169884E-4,6.3847566E-1,-2.4450852E-2,-1.3382472E0,-3.125101E-1,-1.1516608E0,1.4288642E-1,4.2508313E-1,7.2777957E-1,1.2519788E0,4.582996E-2,-0E0,-1.6913397E-2,1.0393385E-2,-1.1694497E-2,-3.292535E-2,-2.0016959E-2,1.5661677E-2,5.183318E-2,1.4579238E-2,-2.5377604E-3,3.8357165E-2,-2.5692144E-2,4.9528284E-3],"split_indices":[1,19,10,11,11,19,6,0,12,13,19,16,15,3,6,0,0,0,0,0,0,0,0,0,0,0,0,0,0],"split_type":[0,0,0,0,0,0,0,0,0,0,0,0,0,0,0,0,0,0,0,0,0,0,0,0,0,0,0,0,0],"sum_hessian":[1.6947614E2,7.102415E1,9.845198E1,2.1291252E1,4.9732895E1,4.214898E1,5.6302998E1,8.000484E0,1.3290768E1,1.89623E1,3.0770597E1,1.614153E1,2.6007452E1,3.0952053E1,2.5350946E1,5.036608E0,8.25416E0,9.86623E0,9.096068E0,5.0611653E0,2.5709433E1,8.188108E0,7.9534206E0,2.0935389E1,5.072063E0,2.253699E1,8.415062E0,1.3650087E1,1.170086E1],"tree_param":{"num_deleted":"0","num_feature":"20","num_nodes":"29","size_leaf_vector":"1"}},{"base_weights":[-3.364539E-2,3.9430207E-1,-1.548507E-1,-0E0,5.9494656E-1,-3.552736E-1,-8.813394E-2,9.073638E-3,-1.068595E-2,8.491599E-1,5.631039E-3,2.4263319E-4,-4.762204E-1,1.7421214E-1,-1.9010366E-1,1.723992E-2,5.709956E-2,-2.6627302E-2,-1.0495812E-2,-1.1907999E-2,2.3189101E-2,-1.6936429E-2,4.87349E-4],"categories":[],"categories_nodes":[],"categories_segments":[],"categories_sizes":[],"default_left":[0,0,0,0,0,0,0,0,0,0,0,0,0,0,0,0,0,0,0,0,0,0,0],"id":16,"left_children":[1,3,5,7,9,11,13,-1,-1,15,-1,-1,17,19,21,-1,-1,-1,-1,-1,-1,-1,-1],"loss_changes":[8.247101E0,2.7658029E0,1.5687349E0,5.7512605E-1,2.605915E0,1.3632064E0,2.6063232E0,0E0,0E0,1.4513149E0,0E0,0E0,9.979963E-2,3.4411352E0,2.1102147E0,0E0,0E0,0E0,0E0,0E0,0E0,0E0,0E0],"parents":[2147483647,0,0,1,1,2,2,3,3,4,4,5,5,6,6,9,9,12,12,13,13,14,14],"right_children":[2,4,6,8,10,12,14,-1,-1,16,-1,-1,18,20,22,-1,-1,-1,-1,-1,-1,-1,-1],"split_conditions":[-1.0780609E0,-2.9800698E-1,-8.9024895E-1,-1.3816965E0,3.928814E-1,-1.6263119E0,-2.9964942E-1,9.073638E-3,-1.068595E-2,-4.8832814E-3,5.631039E-3,2.4263319E-4,-2.887893E-2,9.131865E-3,7.588377E-1,1.723992E-2,5.709956E-2,-2.6627302E-2,-1.0495812E-2,-1.1907999E-2,2.3189101E-2,-1.6936429E-2,4.87349E-4],"split_indices":[19,17,8,12,17,17,16,0,0,9,0,0,10,4,17,0,0,0,0,0,0,0,0],"split_type":[0,0,0,0,0,0,0,0,0,0,0,0,0,0,0,0,0,0,0,0,0,0,0],"sum_hessian":[1.5619302E2,3.354582E1,1.226472E2,1.183843E1,2.1707388E1,2.863592E1,9.4011284E1,6.5536513E0,5.284779E0,1.333233E1,8.375058E0,7.3534856E0,2.1282434E1,2.5741241E1,6.827004E1,6.2225447E0,7.109785E0,1.6019096E1,5.2633376E0,1.05863495E1,1.5154892E1,3.8842022E1,2.9428022E1],"tree_param":{"num_deleted":"0","num_feature":"20","num_nodes":"23","size_leaf_vector":"1"}},{"base_weights":[3.5435032E-2,2.5640026E-1,-8.200092E-2,4.5622244E-1,-4.5947412E-1,-3.6418515E-1,1.02969915E-1,6.002275E-1,1.8180256E-1,-7.908608E-3,-3.3794567E-2,-5.646949E-1,-3.850704E-2,6.123943E-1,9.1536104E-4,3.4913667E-2,7.428083E-3,-9.373417E-3,2.9064074E-2,-3.4669045E-2,-1.1074174E-2,-1.5202142E-2,2.1657173E-2,3.7492897E-2,1.5316415E-2,-1.4147061E-2,1.2756179E-2],"categories":[],"categories_nodes":[],"categories_segments":[],"categories_sizes":[],"default_left":[0,0,0,0,0,0,0,0,0,0,0,0,0,0,0,0,0,0,0,0,0,0,0,0,0,0,0],"id":17,"left_children":[1,3,5,7,9,11,13,15,17,-1,-1,19,21,23,25,-1,-1,-1,-1,-1,-1,-1,-1,-1,-1,-1,-1],"loss_changes":[5.272192E0,1.0400608E1,6.9865346E0,1.9705763E0,8.011782E-1,3.3627515E0,4.1414204E0,1.3462906E0,3.397889E0,0E0,0E0,1.1115217E0,2.9355476E0,1.10609055E-1,5.0863566E0,0E0,0E0,0E0,0E0,0E0,0E0,0E0,0E0,0E0,0E0,0E0,0E0],"parents":[2147483647,0,0,1,1,2,2,3,3,4,4,5,5,6,6,7,7,8,8,11,11,12,12,13,13,14,14],"right_children":[2,4,6,8,10,12,14,16,18,-1,-1,20,22,24,26,-1,-1,-1,-1,-1,-1,-1,-1,-1,-1,-1,-1],"split_conditions":[-5.0390565E-1,7.1538484E-1,2.9216316E-1,-8.9250755E-1,6.7200226E-1,-9.494629E-2,4.5155424E-1,-2.3808327E-2,-3.3666825E-1,-7.908608E-3,-3.3794567E-2,2.698688E-1,3.7478277E-1,-3.561955E-1,7.5018656E-1,3.4913667E-2,7.428083E-3,-9.373417E-3,2.9064074E-2,-3.4669045E-2,-1.1074174E-2,-1.5202142E-2,2.1657173E-2,3.7492897E-2,1.5316415E-2,-1.4147061E-2,1.2756179E-2],"split_indices":[8,4,8,8,12,15,8,16,16,0,0,16,18,13,18,0,0,0,0,0,0,0,0,0,0,0,0],"split_type":[0,0,0,0,0,0,0,0,0,0,0,0,0,0,0,0,0,0,0,0,0,0,0,0,0,0,0],"sum_hessian":[1.9978566E2,6.90115E1,1.3077415E2,5.4486435E1,1.4525063E1,5.1418865E1,7.935529E1,3.4327423E1,2.0159012E1,7.3502355E0,7.174827E0,3.0953724E1,2.0465141E1,1.1828796E1,6.75265E1,2.7349998E1,6.977424E0,1.0759178E1,9.399834E0,2.1187695E1,9.766029E0,1.3570254E1,6.8948874E0,6.436333E0,5.3924627E0,3.1636879E1,3.5889618E1],"tree_param":{"num_deleted":"0","num_feature":"20","num_nodes":"27","size_leaf_vector":"1"}},{"base_weights":[-2.9553317E-2,-2.4659215E-1,1.59125E-1,-4.0294597E-1,9.2324674E-2,5.2853525E-1,-1.02159806E-1,3.7168518E-3,-4.9192443E-1,3.059417E-2,-9.123316E-2,1.2324439E-2,7.838862E-1,1.9822139E-1,-2.3937066E-1,-2.7138649E-2,-1.1962066E-2,-2.8454458E-2,8.363884E-3,-2.8337816E-2,2.409056E-2,-0E0,5.6301057E-2,-2.275001E-2,3.2793608E-2,-2.6370315E-2,4.754452E-3],"categories":[],"categories_nodes":[],"categories_segments":[],"categories_sizes":[],"default_left":[0,0,0,0,0,0,0,0,0,0,0,0,0,0,0,0,0,0,0,0,0,0,0,0,0,0,0],"id":18,"left_children":[1,3,5,7,9,11,13,-1,15,-1,17,19,21,23,25,-1,-1,-1,-1,-1,-1,-1,-1,-1,-1,-1,-1],"loss_changes":[7.172783E0,4.406886E0,9.146694E0,2.4862251E0,2.6874013E0,5.0637503E0,2.377303E0,0E0,3.4118748E-1,0E0,2.7688982E0,4.3714113E0,6.9381285E0,5.88023E0,3.8994496E0,0E0,0E0,0E0,0E0,0E0,0E0,0E0,0E0,0E0,0E0,0E0,0E0],"parents":[2147483647,0,0,1,1,2,2,3,3,4,4,5,5,6,6,8,8,10,10,11,11,12,12,13,13,14,14],"right_children":[2,4,6,8,10,12,14,-1,16,-1,18,20,22,24,26,-1,-1,-1,-1,-1,-1,-1,-1,-1,-1,-1,-1],"split_conditions":[-2.3810679E-1,6.962482E-1,-4.536409E-2,-1.4768336E0,-1.2527423E0,1.7260687E-1,5.869962E-1,3.7168518E-3,-3.4184828E-1,3.059417E-2,-1.1508129E0,-5.0584584E-1,-2.4136251E-1,7.297002E-2,1.2558603E0,-2.7138649E-2,-1.1962066E-2,-2.8454458E-2,8.363884E-3,-2.8337816E-2,2.409056E-2,-0E0,5.6301057E-2,-2.275001E-2,3.2793608E-2,-2.6370315E-2,4.754452E-3],"split_indices":[13,8,10,6,19,19,13,0,13,0,13,10,1,13,13,0,0,0,0,0,0,0,0,0,0,0,0],"split_type":[0,0,0,0,0,0,0,0,0,0,0,0,0,0,0,0,0,0,0,0,0,0,0,0,0,0,0],"sum_hessian":[1.720064E2,8.002375E1,9.198264E1,5.476874E1,2.5255007E1,3.7629585E1,5.435306E1,8.468173E0,4.630057E1,5.821604E0,1.9433403E1,1.3103635E1,2.4525951E1,1.6605223E1,3.7747837E1,3.678113E1,9.51944E0,6.325485E0,1.3107918E1,5.632521E0,7.4711137E0,7.940876E0,1.6585075E1,6.7544837E0,9.8507395E0,1.9977196E1,1.7770641E1],"tree_param":{"num_deleted":"0","num_feature":"20","num_nodes":"27","size_leaf_vector":"1"}},{"base_weights":[-2.3721717E-2,2.8122047E-1,-1.17651604E-1,3.7535655E-1,-6.5421904E-3,2.4288867E-2,-2.2738518E-1,-3.2801242E-3,5.248459E-1,-1.5937777E-1,3.8006413E-1,7.529318E-2,-3.4087342E-1,3.3023984E-3,4.144707E-2,-1.8152291E-2,-4.9726723E-4,4.0853616E-2,-3.336639E-3,-2.5114475E-2,1.8109957E-2,-6.4737457E-3,-2.505198E-2],"categories":[],"categories_nodes":[],"categories_segments":[],"categories_sizes":[],"default_left":[0,0,0,0,0,0,0,0,0,0,0,0,0,0,0,0,0,0,0,0,0,0,0],"id":19,"left_children":[1,3,5,7,-1,9,11,-1,13,15,17,19,21,-1,-1,-1,-1,-1,-1,-1,-1,-1,-1],"loss_changes":[4.2683644E0,1.456178E0,1.8096135E0,2.0148091E0,0E0,3.4333646E0,2.2989287E0,0E0,2.905765E0,1.0037781E0,3.6576629E0,3.3614182E0,1.4584136E0,0E0,0E0,0E0,0E0,0E0,0E0,0E0,0E0,0E0,0E0],"parents":[2147483647,0,0,1,1,2,2,3,3,5,5,6,6,8,8,9,9,10,10,11,11,12,12],"right_children":[2,4,6,8,-1,10,12,-1,14,16,18,20,22,-1,-1,-1,-1,-1,-1,-1,-1,-1,-1],"split_conditions":[-7.4820787E-1,3.7272987E-1,-1.8846913E-1,-8.9024895E-1,-6.5421904E-3,4.6994883E-1,-3.6846906E-1,-3.2801242E-3,-1.2653391E0,-8.502298E-1,5.914698E-1,-6.7609656E-1,1.312116E-1,3.3023984E-3,4.144707E-2,-1.8152291E-2,-4.9726723E-4,4.0853616E-2,-3.336639E-3,-2.5114475E-2,1.8109957E-2,-6.4737457E-3,-2.505198E-2],"split_indices":[6,16,16,8,0,1,13,0,19,18,19,7,19,0,0,0,0,0,0,0,0,0,0],"split_type":[0,0,0,0,0,0,0,0,0,0,0,0,0,0,0,0,0,0,0,0,0,0,0],"sum_hessian":[1.4635689E2,3.3510372E1,1.1284652E2,2.7584902E1,5.925469E0,4.9314655E1,6.3531864E1,7.027674E0,2.0557228E1,3.2884968E1,1.6429686E1,1.7222458E1,4.6309406E1,9.053132E0,1.1504095E1,1.27262945E1,2.0158674E1,7.79054E0,8.639145E0,5.2263846E0,1.1996074E1,2.1400476E1,2.490893E1],"tree_param":{"num_deleted":"0","num_feature":"20","num_nodes":"23","size_leaf_vector":"1"}},{"base_weights":[-3.4609632E-4,2.1264806E-1,-1.106042E-1,3.776076E-1,-3.4441706E-2,-2.1754579E-1,3.8855308E-1,1.7741573E-1,6.404601E-1,-0E0,-4.6827468E-1,-3.893159E-3,5.4486614E-1,2.019825E-2,-1.8065717E-2,3.7034154E-2,1.1568144E-2,-1.2076642E-2,4.5163598E-2,8.4320875E-3,-2.8607173E-2,3.844994E-2,3.8183813E-3],"categories":[],"categories_nodes":[],"categories_segments":[],"categories_sizes":[],"default_left":[0,0,0,0,0,0,0,0,0,0,0,0,0,0,0,0,0,0,0,0,0,0,0],"id":20,"left_children":[1,3,5,7,-1,9,11,13,15,17,19,-1,21,-1,-1,-1,-1,-1,-1,-1,-1,-1,-1],"loss_changes":[4.483867E0,1.0019721E1,6.856921E0,2.6933799E0,0E0,5.6994624E0,1.763535E0,4.381066E0,6.05608E-1,1.2929424E1,3.4069452E0,0E0,1.6473079E0,0E0,0E0,0E0,0E0,0E0,0E0,0E0,0E0,0E0,0E0],"parents":[2147483647,0,0,1,1,2,2,3,3,5,5,6,6,7,7,8,8,9,9,10,10,12,12],"right_children":[2,4,6,8,-1,10,12,14,16,18,20,-1,22,-1,-1,-1,-1,-1,-1,-1,-1,-1,-1],"split_conditions":[-5.0390565E-1,8.9501274E-1,8.3992094E-1,-3.3238435E-1,-3.4441706E-2,-2.7121577E-1,-3.0185434E-1,-8.5074395E-1,-1.23150334E-1,-5.0963295E-1,-2.1024817E-1,-3.893159E-3,1.7786914E-1,2.019825E-2,-1.8065717E-2,3.7034154E-2,1.1568144E-2,-1.2076642E-2,4.5163598E-2,8.4320875E-3,-2.8607173E-2,3.844994E-2,3.8183813E-3],"split_indices":[8,4,13,16,0,6,11,8,15,7,4,0,15,0,0,0,0,0,0,0,0,0,0],"split_type":[0,0,0,0,0,0,0,0,0,0,0,0,0,0,0,0,0,0,0,0,0,0,0],"sum_hessian":[1.8836241E2,6.346405E1,1.2489837E2,5.4477913E1,8.986136E0,1.0372292E2,2.1175444E1,3.2567196E1,2.1910719E1,5.65217E1,4.7201225E1,5.34369E0,1.5831753E1,2.3320995E1,9.246201E0,1.6426277E1,5.4844413E0,4.5538185E1,1.0983518E1,6.3521414E0,4.0849083E1,9.913506E0,5.9182477E0],"tree_param":{"num_deleted":"0","num_feature":"20","num_nodes":"23","size_leaf_vector":"1"}},{"base_weights":[-2.1872688E-3,-2.0933317E-1,1.7527425E-1,-5.6708705E-1,-5.0088868E-2,4.555199E-1,-9.310791E-2,-3.1488176E-2,-1.3146514E-2,9.341056E-2,-3.9349025E-1,-3.3770686E-1,8.0565315E-1,-2.2174047E-1,2.126301E-2,-2.1196058E-2,1.0395027E-2,-2.980882E-2,1.2071987E-3,-5.4964027E-3,-2.7002702E-2,4.1402634E-3,4.772681E-2,7.6099667E-3,-1.7227177E-2],"categories":[],"categories_nodes":[],"categories_segments":[],"categories_sizes":[],"default_left":[0,0,0,0,0,0,0,0,0,0,0,0,0,0,0,0,0,0,0,0,0,0,0,0,0],"id":21,"left_children":[1,3,5,7,9,11,13,-1,-1,15,17,19,21,23,-1,-1,-1,-1,-1,-1,-1,-1,-1,-1,-1],"loss_changes":[5.9647646E0,4.172922E0,6.650314E0,9.6749306E-2,2.7358909E0,1.2408974E1,3.1583807E0,0E0,0E0,2.4172924E0,1.4625199E0,4.981351E-1,3.048397E0,1.8261377E0,0E0,0E0,0E0,0E0,0E0,0E0,0E0,0E0,0E0,0E0,0E0],"parents":[2147483647,0,0,1,1,2,2,3,3,4,4,5,5,6,6,9,9,10,10,11,11,12,12,13,13],"right_children":[2,4,6,8,10,12,14,-1,-1,16,18,20,22,24,-1,-1,-1,-1,-1,-1,-1,-1,-1,-1,-1],"split_conditions":[6.1169884E-4,-2.6151976E-1,-4.536409E-2,-2.800538E-2,3.211945E-1,-2.7861965E-1,8.822315E-1,-3.1488176E-2,-1.3146514E-2,-5.731702E-1,-1.7723241E-1,-7.055918E-1,-1.5769088E0,-7.6448417E-1,2.126301E-2,-2.1196058E-2,1.0395027E-2,-2.980882E-2,1.2071987E-3,-5.4964027E-3,-2.7002702E-2,4.1402634E-3,4.772681E-2,7.6099667E-3,-1.7227177E-2],"split_indices":[19,10,10,1,10,2,15,0,0,16,19,14,18,15,0,0,0,0,0,0,0,0,0,0,0],"split_type":[0,0,0,0,0,0,0,0,0,0,0,0,0,0,0,0,0,0,0,0,0,0,0,0,0],"sum_hessian":[1.5917068E2,7.3578575E1,8.559212E1,2.1286737E1,5.2291836E1,4.154126E1,4.4050858E1,1.6045696E1,5.241041E0,3.7445152E1,1.4846683E1,1.2650097E1,2.8891161E1,3.6135204E1,7.9156528E0,5.8924036E0,3.155275E1,9.725087E0,5.121596E0,7.272577E0,5.37752E0,5.4477086E0,2.3443453E1,8.643142E0,2.7492064E1],"tree_param":{"num_deleted":"0","num_feature":"20","num_nodes":"25","size_leaf_vector":"1"}},{"base_weights":[-3.650743E-2,3.175508E-1,-1.3327737E-1,4.4595572E-1,-2.1099306E-3,2.9292965E-1,-1.8743187E-1,-4.3942477E-3,6.190792E-1,-1.3147317E-2,4.359566E-2,-2.5907347E-1,1.2620917E-1,1.4782021E-2,5.029526E-2,-3.5935193E-3,-1.6847169E-2,2.7250547E-2,-8.765379E-3],"categories":[],"categories_nodes":[],"categories_segments":[],"categories_sizes":[],"default_left":[0,0,0,0,0,0,0,0,0,0,0,0,0,0,0,0,0,0,0],"id":22,"left_children":[1,3,5,7,-1,9,11,-1,13,-1,-1,15,17,-1,-1,-1,-1,-1,-1],"loss_changes":[5.0435915E0,1.5254095E0,2.7458303E0,2.3136277E0,0E0,4.7297573E0,2.39729E0,0E0,1.6921582E0,0E0,0E0,1.1668944E0,2.7148607E0,0E0,0E0,0E0,0E0,0E0,0E0],"parents":[2147483647,0,0,1,1,2,2,3,3,5,5,6,6,8,8,11,11,12,12],"right_children":[2,4,6,8,-1,10,12,-1,14,-1,-1,16,18,-1,-1,-1,-1,-1,-1],"split_conditions":[-1.0780609E0,3.8696602E-1,-1.437485E0,-1.2917542E0,-2.1099306E-3,-2.4905646E-1,1.1585538E0,-4.3942477E-3,-1.2653391E0,-1.3147317E-2,4.359566E-2,-4.769673E-1,-3.6846906E-1,1.4782021E-2,5.029526E-2,-3.5935193E-3,-1.6847169E-2,2.7250547E-2,-8.765379E-3],"split_indices":[19,16,11,3,0,9,17,0,19,0,0,16,13,0,0,0,0,0,0],"split_type":[0,0,0,0,0,0,0,0,0,0,0,0,0,0,0,0,0,0,0],"sum_hessian":[1.443907E2,3.003696E1,1.14353745E2,2.2075949E1,7.961013E0,1.1938107E1,1.02415634E2,5.445428E0,1.6630522E1,6.420198E0,5.5179086E0,8.38439E1,1.8571735E1,1.0639438E1,5.991083E0,2.5855255E1,5.7988647E1,7.405679E0,1.1166056E1],"tree_param":{"num_deleted":"0","num_feature":"20","num_nodes":"19","size_leaf_vector":"1"}},{"base_weights":[-4.4280633E-2,1.2929939E-1,-1.5611884E-1,2.2832003E-1,-3.2751843E-2,-5.243858E-1,-1.5886666E-2,3.3813697E-1,-1.4872989E-1,-6.038811E-1,-3.6371313E-3,-4.490745E-1,8.130513E-2,9.207984E-3,3.6300045E-2,4.413007E-3,-1.6930016E-2,-3.3968788E-2,-1.02818245E-2,-6.143757E-3,-3.3414565E-2,3.105751E-2,-7.363806E-3],"categories":[],"categories_nodes":[],"categories_segments":[],"categories_sizes":[],"default_left":[0,0,0,0,0,0,0,0,0,0,0,0,0,0,0,0,0,0,0,0,0,0,0],"id":23,"left_children":[1,3,5,7,-1,9,11,13,15,17,-1,19,21,-1,-1,-1,-1,-1,-1,-1,-1,-1,-1],"loss_changes":[3.8520236E0,6.2050967E0,6.1653385E0,2.9964685E0,0E0,1.0525198E0,3.8444257E0,2.9897275E0,8.18856E-1,5.346613E-1,0E0,9.9567676E-1,9.301823E0,0E0,0E0,0E0,0E0,0E0,0E0,0E0,0E0,0E0,0E0],"parents":[2147483647,0,0,1,1,2,2,3,3,5,5,6,6,7,7,8,8,9,9,11,11,12,12],"right_children":[2,4,6,8,-1,10,12,14,16,18,-1,20,22,-1,-1,-1,-1,-1,-1,-1,-1,-1,-1],"split_conditions":[-3.5815266E-1,1.4871594E0,1.3915831E-1,2.7612367E-1,-3.2751843E-2,1.0459869E0,-1.1335571E0,-4.3966928E-1,-1.4272226E-1,3.070945E-1,-3.6371313E-3,1.117997E-1,-2.6135513E-1,9.207984E-3,3.6300045E-2,4.413007E-3,-1.6930016E-2,-3.3968788E-2,-1.02818245E-2,-6.143757E-3,-3.3414565E-2,3.105751E-2,-7.363806E-3],"split_indices":[8,6,14,15,0,6,19,17,19,15,0,18,6,0,0,0,0,0,0,0,0,0,0],"split_type":[0,0,0,0,0,0,0,0,0,0,0,0,0,0,0,0,0,0,0,0,0,0,0],"sum_hessian":[1.9522833E2,7.605609E1,1.1917224E2,6.8587875E1,7.4682145E0,3.1535059E1,8.763718E1,5.3442585E1,1.5145291E1,2.6197006E1,5.338053E0,1.5252831E1,7.2384346E1,4.0023693E1,1.341889E1,6.8595204E0,8.28577E0,2.0921047E1,5.2759576E0,7.254671E0,7.998161E0,2.089576E1,5.1488586E1],"tree_param":{"num_deleted":"0","num_feature":"20","num_nodes":"23","size_leaf_vector":"1"}},{"base_weights":[3.0365737E-2,-2.0811222E-1,2.2419015E-1,-4.4430935E-1,-6.5146945E-2,5.2465034E-1,-3.2794435E-2,-5.540803E-1,2.2826458E-3,3.0421218E-2,-2.4426904E-1,-7.8171035E-3,6.741888E-1,1.718305E-1,-3.4422272E-1,-1.0937529E-2,-3.1188613E-2,-7.0157866E-3,-2.8635278E-2,2.2087455E-2,5.312364E-2,3.6968812E-2,2.1274881E-4,-2.9795451E-2,-3.6169284E-3],"categories":[],"categories_nodes":[],"categories_segments":[],"categories_sizes":[],"default_left":[0,0,0,0,0,0,0,0,0,0,0,0,0,0,0,0,0,0,0,0,0,0,0,0,0],"id":24,"left_children":[1,3,5,7,9,11,13,15,-1,-1,17,-1,19,21,23,-1,-1,-1,-1,-1,-1,-1,-1,-1,-1],"loss_changes":[8.053976E0,2.538673E0,7.504422E0,1.6420135E0,6.2908945E0,4.7542667E0,3.4894314E0,2.6900864E-1,0E0,0E0,1.2132547E0,0E0,2.4842758E0,3.0449858E0,1.3565848E0,0E0,0E0,0E0,0E0,0E0,0E0,0E0,0E0,0E0,0E0],"parents":[2147483647,0,0,1,1,2,2,3,3,4,4,5,5,6,6,7,7,10,10,12,12,13,13,14,14],"right_children":[2,4,6,8,10,12,14,16,-1,-1,18,-1,20,22,24,-1,-1,-1,-1,-1,-1,-1,-1,-1,-1],"split_conditions":[-2.6234403E-1,-2.730223E-1,-4.536409E-2,1.0110538E0,-1.3136545E0,-2.709973E-1,6.6058743E-1,-1.2758443E0,2.2826458E-3,3.0421218E-2,3.4350356E-1,-7.8171035E-3,1.7633669E-1,-7.783054E-1,7.2910017E-1,-1.0937529E-2,-3.1188613E-2,-7.0157866E-3,-2.8635278E-2,2.2087455E-2,5.312364E-2,3.6968812E-2,2.1274881E-4,-2.9795451E-2,-3.6169284E-3],"split_indices":[13,10,10,14,4,3,8,8,0,0,10,0,11,15,12,0,0,0,0,0,0,0,0,0,0],"split_type":[0,0,0,0,0,0,0,0,0,0,0,0,0,0,0,0,0,0,0,0,0,0,0,0,0],"sum_hessian":[1.7119347E2,7.647434E1,9.4719124E1,2.737919E1,4.9095154E1,4.3125088E1,5.1594032E1,2.237427E1,5.004921E0,9.44076E0,3.9654396E1,7.6320486E0,3.549304E1,3.1348003E1,2.024603E1,5.1650815E0,1.7209188E1,3.1978271E1,7.6761227E0,2.4369022E1,1.1124016E1,5.8431954E0,2.5504808E1,9.394223E0,1.0851807E1],"tree_param":{"num_deleted":"0","num_feature":"20","num_nodes":"25","size_leaf_vector":"1"}},{"base_weights":[-6.866183E-2,3.067845E-1,-1.4009014E-1,1.4673561E-2,4.1611712E-2,-2.4053508E-1,1.3252524E-1,1.8478964E-2,-1.695662E-2,1.1789908E-2,-2.7323812E-1,4.819001E-2,-7.6782964E-2,-8.922365E-3,-2.1661133E-2,2.0038884E-2,-1.135443E-2],"categories":[],"categories_nodes":[],"categories_segments":[],"categories_sizes":[],"default_left":[0,0,0,0,0,0,0,0,0,0,0,0,0,0,0,0,0],"id":25,"left_children":[1,3,5,7,-1,9,11,-1,-1,-1,13,-1,15,-1,-1,-1,-1],"loss_changes":[4.0370307E0,3.5843332E0,3.5151935E0,2.336898E0,0E0,1.5498033E0,6.2348876E0,0E0,0E0,0E0,1.1567717E0,0E0,2.2009587E0,0E0,0E0,0E0,0E0],"parents":[2147483647,0,0,1,1,2,2,3,3,5,5,6,6,10,10,12,12],"right_children":[2,4,6,8,-1,10,12,-1,-1,-1,14,-1,16,-1,-1,-1,-1],"split_conditions":[-1.0855008E0,-1.3179982E0,7.1493465E-1,-1.268762E0,4.1611712E-2,-1.2069191E0,7.660592E-1,1.8478964E-2,-1.695662E-2,1.1789908E-2,3.9995462E-1,4.819001E-2,1.4423205E-1,-8.922365E-3,-2.1661133E-2,2.0038884E-2,-1.135443E-2],"split_indices":[5,4,2,13,0,13,3,0,0,0,16,0,19,0,0,0,0],"split_type":[0,0,0,0,0,0,0,0,0,0,0,0,0,0,0,0,0],"sum_hessian":[1.4725491E2,2.2523394E1,1.24731514E2,1.5589174E1,6.9342194E0,9.154511E1,3.3186405E1,7.8902082E0,7.6989655E0,5.086399E0,8.645871E1,5.683783E0,2.7502623E1,5.6676216E1,2.9782495E1,5.8262258E0,2.1676397E1],"tree_param":{"num_deleted":"0","num_feature":"20","num_nodes":"17","size_leaf_vector":"1"}},{"base_weights":[-3.657031E-2,-5.2017987E-1,2.3561504E-2,-0E0,-3.666447E-2,4.1370308E-1,-5.9370864E-2,6.4619607E-1,-1.3094656E-2,-3.260776E-2,-8.67525E-3,4.2914785E-2,-0E0,1.6715428E-2,-6.5824697E-3],"categories":[],"categories_nodes":[],"categories_segments":[],"categories_sizes":[],"default_left":[0,0,0,0,0,0,0,0,0,0,0,0,0,0,0],"id":26,"left_children":[1,3,5,-1,-1,7,9,11,-1,-1,13,-1,-1,-1,-1],"loss_changes":[5.9220223E0,2.5598536E0,5.9057164E0,0E0,0E0,5.319496E0,4.4267616E0,3.3641481E0,0E0,0E0,5.9364257E0,0E0,0E0,0E0,0E0],"parents":[2147483647,0,0,1,1,2,2,5,5,6,6,7,7,10,10],"right_children":[2,4,6,-1,-1,8,10,12,-1,-1,14,-1,-1,-1,-1],"split_conditions":[-1.4577686E0,-1.2883854E0,-6.775055E-1,-0E0,-3.666447E-2,3.055292E-1,-6.41168E-1,-4.8210683E-1,-1.3094656E-2,-3.260776E-2,-2.0964791E-1,4.2914785E-2,-0E0,1.6715428E-2,-6.5824697E-3],"split_indices":[6,0,2,0,0,18,6,6,0,0,13,0,0,0,0],"split_type":[0,0,0,0,0,0,0,0,0,0,0,0,0,0,0],"sum_hessian":[1.9980371E2,2.1010885E1,1.7879283E2,6.422373E0,1.4588512E1,3.0505922E1,1.4828691E2,2.2854347E1,7.651575E0,1.0125113E1,1.3816179E2,1.6871523E1,5.9828234E0,3.5568287E1,1.02593506E2],"tree_param":{"num_deleted":"0","num_feature":"20","num_nodes":"15","size_leaf_vector":"1"}},{"base_weights":[1.7286532E-2,-2.5335804E-1,1.7780563E-1,2.1283734E-1,-4.0489477E-1,-3.2147536E-1,2.4517559E-1,3.705674E-2,-7.8062112E-3,-5.781024E-2,-5.034065E-1,-1.3883702E-3,-2.7394174E-2,5.0530907E-2,1.5061986E-1,-2.6232798E-2,1.9555239E-2,-6.1810403E-3,-2.7951306E-2,3.3677835E-2,2.1644384E-3],"categories":[],"categories_nodes":[],"categories_segments":[],"categories_sizes":[],"default_left":[0,0,0,0,0,0,0,0,0,0,0,0,0,0,0,0,0,0,0,0,0],"id":27,"left_children":[1,3,5,7,9,11,13,-1,-1,15,17,-1,-1,-1,19,-1,-1,-1,-1,-1,-1],"loss_changes":[7.4807706E0,4.66833E0,3.7545826E0,3.4514136E0,1.5743675E0,8.075305E-1,6.6385956E0,0E0,0E0,2.9919002E0,6.248398E-1,0E0,0E0,0E0,4.809901E0,0E0,0E0,0E0,0E0,0E0,0E0],"parents":[2147483647,0,0,1,1,2,2,3,3,4,4,5,5,6,6,9,9,10,10,14,14],"right_children":[2,4,6,8,10,12,14,-1,-1,16,18,-1,-1,-1,20,-1,-1,-1,-1,-1,-1],"split_conditions":[-1.8313357E-1,-1.2527423E0,-2.709973E-1,-1.4809371E0,-5.210845E-1,-4.164228E-1,3.8590853E-3,3.705674E-2,-7.8062112E-3,-1.0172946E0,-1.2039614E0,-1.3883702E-3,-2.7394174E-2,5.0530907E-2,-8.0158067E-1,-2.6232798E-2,1.9555239E-2,-6.1810403E-3,-2.7951306E-2,3.3677835E-2,2.1644384E-3],"split_indices":[6,19,3,7,17,1,7,0,0,14,19,0,0,0,9,0,0,0,0,0,0],"split_type":[0,0,0,0,0,0,0,0,0,0,0,0,0,0,0,0,0,0,0,0,0],"sum_hessian":[1.693134E2,6.2479237E1,1.0683417E2,1.5016133E1,4.74631E1,1.1852543E1,9.498163E1,5.6640453E0,9.352088E0,1.1243716E1,3.6219387E1,6.084747E0,5.7677956E0,8.729043E0,8.625258E1,5.4969177E0,5.746798E0,5.4739046E0,3.0745481E1,1.3182087E1,7.3070496E1],"tree_param":{"num_deleted":"0","num_feature":"20","num_nodes":"21","size_leaf_vector":"1"}},{"base_weights":[5.7687096E-2,-3.0457994E-1,2.032051E-1,-4.5258984E-1,-7.5309694E-2,5.3700876E-1,4.64625E-2,-7.6330006E-3,-2.699312E-2,-2.81123E-1,1.7586613E-2,3.6442843E-1,4.8761055E-2,-2.3654392E-1,1.9328187E-1,-5.3221085E-3,-1.9010171E-2,3.2762002E-2,-1.6673466E-2,-1.9477865E-2,7.4918256E-3,1.5804827E-2,-4.8084743E-3],"categories":[],"categories_nodes":[],"categories_segments":[],"categories_sizes":[],"default_left":[0,0,0,0,0,0,0,0,0,0,0,0,0,0,0,0,0,0,0,0,0,0,0],"id":28,"left_children":[1,3,5,7,9,11,13,-1,-1,15,-1,17,-1,19,21,-1,-1,-1,-1,-1,-1,-1,-1],"loss_changes":[8.040747E0,1.3778043E0,5.596528E0,4.8690844E-1,1.8282703E0,1.9357882E0,3.2170534E0,0E0,0E0,1.319623E-1,0E0,5.8907347E0,0E0,1.6699802E0,1.8812208E0,0E0,0E0,0E0,0E0,0E0,0E0,0E0,0E0],"parents":[2147483647,0,0,1,1,2,2,3,3,4,4,5,5,6,6,9,9,11,11,13,13,14,14],"right_children":[2,4,6,8,10,12,14,-1,-1,16,-1,18,-1,20,22,-1,-1,-1,-1,-1,-1,-1,-1],"split_conditions":[-4.9766794E-1,1.8518765E-1,-1.0780609E0,-1.2548764E0,-7.9501694E-1,-6.775055E-1,-2.513751E-4,-7.6330006E-3,-2.699312E-2,-7.378737E-1,1.7586613E-2,-1.097958E0,4.8761055E-2,1.1910945E0,1.1331142E0,-5.3221085E-3,-1.9010171E-2,3.2762002E-2,-1.6673466E-2,-1.9477865E-2,7.4918256E-3,1.5804827E-2,-4.8084743E-3],"split_indices":[18,13,19,8,18,2,7,0,0,16,0,4,0,8,13,0,0,0,0,0,0,0,0],"split_type":[0,0,0,0,0,0,0,0,0,0,0,0,0,0,0,0,0,0,0,0,0,0,0],"sum_hessian":[1.4945966E2,4.2164448E1,1.07295204E2,2.4470078E1,1.7694372E1,3.2917038E1,7.437817E1,6.703123E0,1.7766954E1,1.24437895E1,5.2505827E0,2.575115E1,7.1658864E0,2.4860231E1,4.9517933E1,5.9950757E0,6.4487133E0,1.834276E1,7.4083915E0,1.7984526E1,6.8757067E0,3.4912083E1,1.4605852E1],"tree_param":{"num_deleted":"0","num_feature":"20","num_nodes":"23","size_leaf_vector":"1"}},{"base_weights":[-2.3220502E-2,2.1866989E-1,-1.2384188E-1,6.097023E-1,-2.3190077E-1,-5.0973433E-1,-1.2362938E-2,7.683716E-1,5.5417214E-3,2.2095302E-2,-4.5064285E-1,-3.2775693E-2,-7.0606465E-3,3.590941E-2,-9.262786E-2,4.2813182E-2,1.81376E-2,-3.9224527E-3,-2.946657E-2,-3.466004E-2,-1.3722669E-3],"categories":[],"categories_nodes":[],"categories_segments":[],"categories_sizes":[],"default_left":[0,0,0,0,0,0,0,0,0,0,0,0,0,0,0,0,0,0,0,0,0],"id":29,"left_children":[1,3,5,7,9,11,13,15,-1,-1,17,-1,-1,-1,19,-1,-1,-1,-1,-1,-1],"loss_changes":[4.7896824E0,1.0413403E1,5.931834E0,2.2710314E0,4.3926516E0,1.4462881E0,6.4776125E0,2.474699E-1,0E0,0E0,9.901576E-1,0E0,0E0,0E0,3.8302455E0,0E0,0E0,0E0,0E0,0E0,0E0],"parents":[2147483647,0,0,1,1,2,2,3,3,4,4,5,5,6,6,7,7,10,10,14,14],"right_children":[2,4,6,8,10,12,14,16,-1,-1,18,-1,-1,-1,20,-1,-1,-1,-1,-1,-1],"split_conditions":[-3.7112093E-1,-2.7861965E-1,-8.226977E-1,-3.2153696E-2,-1.4272226E-1,-1.1516608E0,-6.775055E-1,9.409917E-1,5.5417214E-3,2.2095302E-2,-1.8684337E-1,-3.2775693E-2,-7.0606465E-3,3.590941E-2,-7.5828224E-1,4.2813182E-2,1.81376E-2,-3.9224527E-3,-2.946657E-2,-3.466004E-2,-1.3722669E-3],"split_indices":[10,2,13,12,19,19,2,16,0,0,0,0,0,0,12,0,0,0,0,0,0],"split_type":[0,0,0,0,0,0,0,0,0,0,0,0,0,0,0,0,0,0,0,0,0],"sum_hessian":[1.9400832E2,5.6185837E1,1.3782248E2,2.991552E1,2.6270319E1,2.9488873E1,1.083336E2,2.1929766E1,7.9857535E0,5.9511347E0,2.0319183E1,2.0098724E1,9.390148E0,9.42076E0,9.891284E1,1.6451843E1,5.4779224E0,6.3492975E0,1.3969887E1,8.119139E0,9.07937E1],"tree_param":{"num_deleted":"0","num_feature":"20","num_nodes":"21","size_leaf_vector":"1"}},{"base_weights":[-3.2284316E-2,-2.5781673E-1,1.3062271E-1,-4.0747687E-1,-7.832035E-2,4.0470395E-2,3.966608E-2,-1.7753525E-2,-5.4442006E-1,1.8479231E-1,-3.9831224E-1,2.7751524E-2,-3.369726E-2,-4.1724914E-3,1.8468017E-3,-2.938954E-2,-1.2785429E-2,3.1716447E-2,-8.960677E-3,-2.6132295E-2,-4.1198735E-3,-9.612876E-3,7.5226086E-3],"categories":[],"categories_nodes":[],"categories_segments":[],"categories_sizes":[],"default_left":[0,0,0,0,0,0,0,0,0,0,0,0,0,0,0,0,0,0,0,0,0,0,0],"id":30,"left_children":[1,3,5,7,9,-1,11,13,15,17,19,-1,21,-1,-1,-1,-1,-1,-1,-1,-1,-1,-1],"loss_changes":[6.181808E0,1.800219E0,5.882224E0,1.9488688E0,3.01648E0,0E0,3.393144E0,5.0880168E-2,3.7813187E-2,3.4323606E0,5.0756955E-1,0E0,2.3235848E0,0E0,0E0,0E0,0E0,0E0,0E0,0E0,0E0,0E0,0E0],"parents":[2147483647,0,0,1,1,2,2,3,3,4,4,6,6,7,7,8,8,9,9,10,10,12,12],"right_children":[2,4,6,8,10,-1,12,14,16,18,20,-1,22,-1,-1,-1,-1,-1,-1,-1,-1,-1,-1],"split_conditions":[-2.3259975E-1,-2.419223E-1,-8.0158067E-1,-1.3250091E0,2.8660253E-1,4.0470395E-2,-2.2119457E-1,-3.5157672E-1,-3.7525788E-1,-1.0363538E0,1.7633161E-1,2.7751524E-2,7.2552747E-1,-4.1724914E-3,1.8468017E-3,-2.938954E-2,-1.2785429E-2,3.1716447E-2,-8.960677E-3,-2.6132295E-2,-4.1198735E-3,-9.612876E-3,7.5226086E-3],"split_indices":[0,9,9,17,17,0,12,15,0,4,9,0,0,0,0,0,0,0,0,0,0,0,0],"split_type":[0,0,0,0,0,0,0,0,0,0,0,0,0,0,0,0,0,0,0,0,0,0,0],"sum_hessian":[1.6503342E2,6.910405E1,9.592937E1,3.634124E1,3.2762806E1,9.805542E0,8.6123825E1,1.0079869E1,2.6261372E1,1.8155634E1,1.4607174E1,9.674812E0,7.644901E1,5.0514507E0,5.0284185E0,2.1179516E1,5.0818567E0,7.747933E0,1.0407701E1,9.550347E0,5.0568266E0,4.1334927E1,3.5114086E1],"tree_param":{"num_deleted":"0","num_feature":"20","num_nodes":"23","size_leaf_vector":"1"}},{"base_weights":[2.8257119E-2,4.460359E-1,-3.0177463E-2,1.1847852E-3,6.679398E-1,-1.999473E-1,1.3062535E-1,4.2636257E-2,1.5852584E-2,-3.3560523E-1,2.2811083E-1,2.4682899E-1,-2.4572842E-1,6.011773E-4,-2.2174327E-2,-1.1702673E-2,2.566353E-2,1.831383E-2,-9.234562E-3,-1.613166E-2,-1.6409543E-3],"categories":[],"categories_nodes":[],"categories_segments":[],"categories_sizes":[],"default_left":[0,0,0,0,0,0,0,0,0,0,0,0,0,0,0,0,0,0,0,0,0],"id":31,"left_children":[1,3,5,-1,7,9,11,-1,-1,13,15,17,19,-1,-1,-1,-1,-1,-1,-1,-1],"loss_changes":[3.794706E0,1.6941304E0,3.74085E0,0E0,2.7434587E-1,4.0005693E0,3.1572995E0,0E0,0E0,1.9808803E0,2.418804E0,2.9299047E0,2.2838545E-1,0E0,0E0,0E0,0E0,0E0,0E0,0E0,0E0],"parents":[2147483647,0,0,1,1,2,2,4,4,5,5,6,6,9,9,10,10,11,11,12,12],"right_children":[2,4,6,-1,8,10,12,-1,-1,14,16,18,20,-1,-1,-1,-1,-1,-1,-1,-1],"split_conditions":[-1.4577686E0,-1.3785573E0,2.9658834E-2,1.1847852E-3,-1.6672586E-1,4.2508313E-1,1.0110538E0,4.2636257E-2,1.5852584E-2,-1.0099444E0,-4.974385E-1,1.2558603E0,9.8343664E-1,6.011773E-4,-2.2174327E-2,-1.1702673E-2,2.566353E-2,1.831383E-2,-9.234562E-3,-1.613166E-2,-1.6409543E-3],"split_indices":[6,5,10,0,15,15,14,0,0,17,1,13,10,0,0,0,0,0,0,0,0],"split_type":[0,0,0,0,0,0,0,0,0,0,0,0,0,0,0,0,0,0,0,0,0],"sum_hessian":[1.5140916E2,1.7568027E1,1.3384114E2,6.7781973E0,1.078983E1,6.523019E1,6.8610954E1,5.47585E0,5.31398E0,4.9955982E1,1.5274201E1,5.3021793E1,1.5589158E1,1.1927513E1,3.802847E1,5.797013E0,9.477189E0,4.188601E1,1.1135788E1,1.0539485E1,5.0496726E0],"tree_param":{"num_deleted":"0","num_feature":"20","num_nodes":"21","size_leaf_vector":"1"}},{"base_weights":[3.8389254E-3,3.1066304E-1,-6.313364E-2,7.038397E-1,-3.8148358E-1,-1.0707185E-1,4.4344613E-1,1.7965121E-2,4.3386206E-2,-2.7747734E-3,-3.1977132E-2,-6.003255E-2,-3.5166062E-2,4.3467294E-2,-6.3627264E-3,-5.6783794E-3,2.7331462E-2],"categories":[],"categories_nodes":[],"categories_segments":[],"categories_sizes":[],"default_left":[0,0,0,0,0,0,0,0,0,0,0,0,0,0,0,0,0],"id":32,"left_children":[1,3,5,7,9,11,13,-1,-1,-1,-1,15,-1,-1,-1,-1,-1],"loss_changes":[4.1877985E0,1.0385E1,3.734644E0,7.6119614E-1,1.0656018E0,4.1860976E0,3.4891148E0,0E0,0E0,0E0,0E0,4.750936E0,0E0,0E0,0E0,0E0,0E0],"parents":[2147483647,0,0,1,1,2,2,3,3,4,4,5,5,6,6,11,11],"right_children":[2,4,6,8,10,12,14,-1,-1,-1,-1,16,-1,-1,-1,-1,-1],"split_conditions":[-5.930405E-1,-2.2767304E-1,1.7391899E0,-1.4335476E0,-9.118875E-1,1.2558801E0,1.9039041E0,1.7965121E-2,4.3386206E-2,-2.7747734E-3,-3.1977132E-2,1.0297577E0,-3.5166062E-2,4.3467294E-2,-6.3627264E-3,-5.6783794E-3,2.7331462E-2],"split_indices":[10,2,9,9,18,4,18,0,0,0,0,6,0,0,0,0,0],"split_type":[0,0,0,0,0,0,0,0,0,0,0,0,0,0,0,0,0],"sum_hessian":[1.9966142E2,3.506265E1,1.6459877E2,2.2436592E1,1.2626059E1,1.5273193E2,1.1866848E1,8.97245E0,1.3464142E1,6.5552936E0,6.070765E0,1.4324944E2,9.482491E0,6.446365E0,5.4204836E0,1.3290521E2,1.0344221E1],"tree_param":{"num_deleted":"0","num_feature":"20","num_nodes":"17","size_leaf_vector":"1"}},{"base_weights":[4.85843E-2,-1.8176867E-1,2.098547E-1,2.712118E-1,-3.4838173E-1,5.231922E-1,3.248516E-2,-1.8862685E-2,5.738056E-1,-1.22937694E-1,-5.264971E-1,2.3739316E-2,7.7758664E-1,-1.8249993E-1,2.040613E-1,4.579695E-2,6.968116E-3,-1.576203E-2,1.1844329E-2,-3.8234845E-3,-3.0987287E-2,-2.2063864E-2,2.8240114E-2,9.3086E-3,4.6930615E-2,4.5302855E-3,-2.6574297E-2,4.3675438E-2,-4.230177E-3],"categories":[],"categories_nodes":[],"categories_segments":[],"categories_sizes":[],"default_left":[0,0,0,0,0,0,0,0,0,0,0,0,0,0,0,0,0,0,0,0,0,0,0,0,0,0,0,0,0],"id":33,"left_children":[1,3,5,7,9,11,13,-1,15,17,19,21,23,25,27,-1,-1,-1,-1,-1,-1,-1,-1,-1,-1,-1,-1,-1,-1],"loss_changes":[6.002202E0,5.162156E0,5.2007637E0,3.9827437E0,1.8206434E0,4.218339E0,2.3629797E0,0E0,1.6862512E0,1.7803403E0,9.872265E-1,3.6998215E0,1.7565928E0,2.8106134E0,7.092403E0,0E0,0E0,0E0,0E0,0E0,0E0,0E0,0E0,0E0,0E0,0E0,0E0,0E0,0E0],"parents":[2147483647,0,0,1,1,2,2,3,3,4,4,5,5,6,6,8,8,9,9,10,10,11,11,12,12,13,13,14,14],"right_children":[2,4,6,8,10,12,14,-1,16,18,20,22,24,26,28,-1,-1,-1,-1,-1,-1,-1,-1,-1,-1,-1,-1,-1,-1],"split_conditions":[-2.4032564E-1,-1.2341999E0,-1.2746179E-1,-2.4663925E-1,-3.541517E-1,-3.516874E-2,7.3150676E-1,-1.8862685E-2,8.817727E-2,-8.401241E-1,-1.175062E0,3.2340545E-2,-7.6518404E-1,4.1763303E-1,6.590183E-1,4.579695E-2,6.968116E-3,-1.576203E-2,1.1844329E-2,-3.8234845E-3,-3.0987287E-2,-2.2063864E-2,2.8240114E-2,9.3086E-3,4.6930615E-2,4.5302855E-3,-2.6574297E-2,4.3675438E-2,-4.230177E-3],"split_indices":[1,19,10,11,11,19,2,0,11,8,19,16,8,10,7,0,0,0,0,0,0,0,0,0,0,0,0,0,0],"split_type":[0,0,0,0,0,0,0,0,0,0,0,0,0,0,0,0,0,0,0,0,0,0,0,0,0,0,0,0,0],"sum_hessian":[1.5845471E2,6.491775E1,9.3536964E1,1.7042213E1,4.7875534E1,3.2548695E1,6.098827E1,5.199337E0,1.1842877E1,2.249718E1,2.5378355E1,1.1670011E1,2.0878683E1,2.6768713E1,3.421956E1,5.5665007E0,6.2763767E0,1.4963777E1,7.533404E0,5.008641E0,2.0369713E1,6.3254333E0,5.3445773E0,5.293176E0,1.5585506E1,1.5479193E1,1.128952E1,9.498591E0,2.4720966E1],"tree_param":{"num_deleted":"0","num_feature":"20","num_nodes":"29","size_leaf_vector":"1"}},{"base_weights":[-4.2579867E-2,3.0881464E-1,-1.4536294E-1,1.6501157E-1,3.700393E-2,-1.9204263E-1,2.2540713E-2,4.309815E-1,-2.2039961E-2,-2.9789346E-1,-1.43527035E-2,9.278133E-3,4.1566905E-2,3.486475E-3,-1.7051516E-2,2.6128E-2,-7.649882E-3],"categories":[],"categories_nodes":[],"categories_segments":[],"categories_sizes":[],"default_left":[0,0,0,0,0,0,0,0,0,0,0,0,0,0,0,0,0],"id":34,"left_children":[1,3,5,7,-1,9,-1,11,-1,13,15,-1,-1,-1,-1,-1,-1],"loss_changes":[5.4509563E0,1.840796E0,3.3576899E0,4.742956E0,0E0,2.0244274E0,0E0,1.6422169E0,0E0,1.1455455E0,3.273251E0,0E0,0E0,0E0,0E0,0E0,0E0],"parents":[2147483647,0,0,1,1,2,2,3,3,5,5,7,7,9,9,10,10],"right_children":[2,4,6,8,-1,10,-1,12,-1,14,16,-1,-1,-1,-1,-1,-1],"split_conditions":[-1.1132058E0,-6.775055E-1,1.7258524E0,-1.299205E0,3.700393E-2,1.0132341E-1,2.2540713E-2,2.6979974E-1,-2.2039961E-2,-1.5017701E0,2.0034224E-1,9.278133E-3,4.1566905E-2,3.486475E-3,-1.7051516E-2,2.6128E-2,-7.649882E-3],"split_indices":[19,2,17,6,0,10,0,17,0,16,9,0,0,0,0,0,0],"split_type":[0,0,0,0,0,0,0,0,0,0,0,0,0,0,0,0,0],"sum_hessian":[1.4801144E2,3.2595234E1,1.15416214E2,2.6173582E1,6.4216533E0,1.0813405E2,7.2821665E0,1.8603855E1,7.569727E0,6.677709E1,4.135696E1,1.3049513E1,5.5543423E0,6.672187E0,6.0104904E1,7.487238E0,3.386972E1],"tree_param":{"num_deleted":"0","num_feature":"20","num_nodes":"17","size_leaf_vector":"1"}},{"base_weights":[-6.240069E-3,1.2903033E-1,-1.4960898E-1,-2.933367E-1,3.278934E-1,-2.1504676E-1,2.9203638E-2,1.4398836E-1,-5.3783274E-1,4.7466046E-1,-2.4923222E-1,2.113199E-2,-2.7031454E-1,-1.803164E-2,3.2366987E-2,-3.14984E-2,-1.050208E-2,2.8454158E-2,7.659942E-3,5.9190034E-3,-2.479366E-2,-2.1926904E-2,-3.1876569E-3],"categories":[],"categories_nodes":[],"categories_segments":[],"categories_sizes":[],"default_left":[0,0,0,0,0,0,0,0,0,0,0,0,0,0,0,0,0,0,0,0,0,0,0],"id":35,"left_children":[1,3,5,7,9,11,-1,13,15,17,19,-1,21,-1,-1,-1,-1,-1,-1,-1,-1,-1,-1],"loss_changes":[3.747462E0,8.467077E0,4.6685762E0,3.61317E0,5.9776487E0,3.243546E0,0E0,3.5875046E0,3.5792637E-1,1.4675121E0,1.456352E0,0E0,2.7459002E0,0E0,0E0,0E0,0E0,0E0,0E0,0E0,0E0,0E0,0E0],"parents":[2147483647,0,0,1,1,2,2,3,3,4,4,5,5,7,7,8,8,9,9,10,10,12,12],"right_children":[2,4,6,8,10,12,-1,14,16,18,20,-1,22,-1,-1,-1,-1,-1,-1,-1,-1,-1,-1],"split_conditions":[-2.0964791E-1,-1.1516608E0,2.2469532E0,-2.3510073E-1,1.0329561E0,-8.8903874E-2,2.9203638E-2,-1.459022E0,3.928814E-1,-1.01588145E-1,-4.0319112E-1,2.113199E-2,7.3182255E-1,-1.803164E-2,3.2366987E-2,-3.14984E-2,-1.050208E-2,2.8454158E-2,7.659942E-3,5.9190034E-3,-2.479366E-2,-2.1926904E-2,-3.1876569E-3],"split_indices":[13,19,3,8,17,6,0,6,17,10,3,0,13,0,0,0,0,0,0,0,0,0,0],"split_type":[0,0,0,0,0,0,0,0,0,0,0,0,0,0,0,0,0,0,0,0,0,0,0],"sum_hessian":[1.9013298E2,9.754786E1,9.258513E1,3.0837135E1,6.6710724E1,8.610223E1,6.4829006E0,1.113242E1,1.9704716E1,5.353579E1,1.3174933E1,5.927691E0,8.017454E1,5.6723733E0,5.4600463E0,1.4063811E1,5.6409044E0,4.0247417E1,1.3288373E1,5.440541E0,7.734393E0,4.2992653E1,3.718188E1],"tree_param":{"num_deleted":"0","num_feature":"20","num_nodes":"23","size_leaf_vector":"1"}},{"base_weights":[2.7795175E-2,-1.6034383E-1,1.6325028E-1,-4.705487E-1,9.925304E-2,3.5036615E-1,-1.3199629E-1,-4.3844613E-3,-2.9302476E-2,-1.8526692E-2,2.4402781E-1,7.3234566E-2,5.925053E-1,-2.8511742E-1,1.6148588E-2,2.607212E-2,-8.626705E-3,-2.410767E-2,3.3139553E-2,4.0659275E-2,-3.6254493E-3,-0E0,-1.9649303E-2],"categories":[],"categories_nodes":[],"categories_segments":[],"categories_sizes":[],"default_left":[0,0,0,0,0,0,0,0,0,0,0,0,0,0,0,0,0,0,0,0,0,0,0],"id":36,"left_children":[1,3,5,7,9,11,13,-1,-1,-1,15,17,19,21,-1,-1,-1,-1,-1,-1,-1,-1,-1],"loss_changes":[4.334221E0,5.823889E0,5.562228E0,1.305057E0,2.8238425E0,3.9773664E0,2.872048E0,0E0,0E0,0E0,3.801103E0,1.0470232E1,4.8991528E0,9.6926093E-1,0E0,0E0,0E0,0E0,0E0,0E0,0E0,0E0,0E0],"parents":[2147483647,0,0,1,1,2,2,3,3,4,4,5,5,6,6,10,10,11,11,12,12,13,13],"right_children":[2,4,6,8,10,12,14,-1,-1,-1,16,18,20,22,-1,-1,-1,-1,-1,-1,-1,-1,-1],"split_conditions":[-2.4032564E-1,-2.730223E-1,4.4281375E-1,-7.8194773E-1,-5.522453E-1,-3.9237198E-1,4.0205374E-1,-4.3844613E-3,-2.9302476E-2,-1.8526692E-2,-8.500053E-1,6.241385E-1,7.10945E-1,3.9989108E-1,1.6148588E-2,2.607212E-2,-8.626705E-3,-2.410767E-2,3.3139553E-2,4.0659275E-2,-3.6254493E-3,-0E0,-1.9649303E-2],"split_indices":[1,10,18,16,8,8,15,0,0,0,13,5,13,10,0,0,0,0,0,0,0,0,0],"split_type":[0,0,0,0,0,0,0,0,0,0,0,0,0,0,0,0,0,0,0,0,0,0,0],"sum_hessian":[1.6702147E2,6.9490074E1,9.7531395E1,3.127926E1,3.821081E1,5.973336E1,3.779803E1,8.061565E0,2.3217695E1,8.287732E0,2.9923079E1,2.8957623E1,3.077574E1,2.8863647E1,8.934382E0,1.7878838E1,1.2044241E1,1.4964271E1,1.3993352E1,2.2969603E1,7.8061366E0,8.105006E0,2.075864E1],"tree_param":{"num_deleted":"0","num_feature":"20","num_nodes":"23","size_leaf_vector":"1"}},{"base_weights":[3.998054E-2,-2.6751302E-2,4.9960324E-1,2.2175802E-1,-1.1344008E-1,4.6255592E-2,-0E0,2.5347928E-2,4.2445816E-2,1.7624639E-1,-2.50172E-1,-5.486553E-3,1.8956862E-2,-1.1524167E-2,2.9460866E-2,-7.941204E-3,-2.8676877E-2],"categories":[],"categories_nodes":[],"categories_segments":[],"categories_sizes":[],"default_left":[0,0,0,0,0,0,0,0,0,0,0,0,0,0,0,0,0],"id":37,"left_children":[1,3,5,7,9,-1,-1,11,-1,13,15,-1,-1,-1,-1,-1,-1],"loss_changes":[4.6358733E0,2.8555038E0,4.06162E0,4.0888925E0,3.9803727E0,0E0,0E0,1.4124255E0,0E0,5.6603622E0,1.794671E0,0E0,0E0,0E0,0E0,0E0,0E0],"parents":[2147483647,0,0,1,1,2,2,3,3,4,4,7,7,9,9,10,10],"right_children":[2,4,6,8,10,-1,-1,12,-1,14,16,-1,-1,-1,-1,-1,-1],"split_conditions":[1.1910945E0,-7.5555855E-1,1.0013726E0,-6.775055E-1,-7.015258E-1,4.6255592E-2,-0E0,1.5000159E-1,4.2445816E-2,-9.243126E-1,1.1331142E0,-5.486553E-3,1.8956862E-2,-1.1524167E-2,2.9460866E-2,-7.941204E-3,-2.8676877E-2],"split_indices":[8,7,14,2,17,0,0,18,0,18,13,0,0,0,0,0,0],"split_type":[0,0,0,0,0,0,0,0,0,0,0,0,0,0,0,0,0],"sum_hessian":[1.4745084E2,1.2980045E2,1.7650383E1,3.2666172E1,9.713428E1,8.831024E0,8.819358E0,2.6185585E1,6.4805865E0,3.0772789E1,6.636149E1,1.9494549E1,6.6910343E0,1.5715491E1,1.5057297E1,5.37294E1,1.263209E1],"tree_param":{"num_deleted":"0","num_feature":"20","num_nodes":"17","size_leaf_vector":"1"}},{"base_weights":[1.9999381E-2,3.1722867E-1,-5.362028E-2,5.050451E-1,-2.0986896E-2,-1.3158226E-1,1.9446006E-1,6.7218654E-3,6.0665697E-1,9.819482E-2,-2.4346054E-1,4.4626552E-1,-2.72476E-1,1.3419682E-2,3.579892E-2,-2.035137E-2,2.5101159E-2,-1.6606113E-2,7.175577E-3,1.1835746E-2,3.4336925E-2,-2.71799E-2,2.5829345E-3],"categories":[],"categories_nodes":[],"categories_segments":[],"categories_sizes":[],"default_left":[0,0,0,0,0,0,0,0,0,0,0,0,0,0,0,0,0,0,0,0,0,0,0],"id":38,"left_children":[1,3,5,7,-1,9,11,-1,13,15,17,19,21,-1,-1,-1,-1,-1,-1,-1,-1,-1,-1],"loss_changes":[4.1838E0,5.5823936E0,2.9787893E0,9.728093E-1,0E0,3.061371E0,4.518317E0,0E0,4.9081135E-1,8.299519E0,2.817841E0,9.0189457E-1,1.2917664E0,0E0,0E0,0E0,0E0,0E0,0E0,0E0,0E0,0E0,0E0],"parents":[2147483647,0,0,1,1,2,2,3,3,5,5,6,6,8,8,9,9,10,10,11,11,12,12],"right_children":[2,4,6,8,-1,10,12,-1,14,16,18,20,22,-1,-1,-1,-1,-1,-1,-1,-1,-1,-1],"split_conditions":[-7.431575E-1,7.1538484E-1,8.062857E-1,-1.2918513E0,-2.0986896E-2,-6.564147E-1,1.6520685E0,6.7218654E-3,-1.274754E0,-1.459022E0,8.410996E-1,7.987954E-1,1.4098704E0,1.3419682E-2,3.579892E-2,-2.035137E-2,2.5101159E-2,-1.6606113E-2,7.175577E-3,1.1835746E-2,3.4336925E-2,-2.71799E-2,2.5829345E-3],"split_indices":[18,4,18,16,0,0,18,0,18,6,7,17,16,0,0,0,0,0,0,0,0,0,0],"split_type":[0,0,0,0,0,0,0,0,0,0,0,0,0,0,0,0,0,0,0,0,0,0,0],"sum_hessian":[1.8732826E2,3.6472073E1,1.508562E2,2.9549181E1,6.922891E0,1.1562672E2,3.5229477E1,7.3199415E0,2.2229239E1,3.7630447E1,7.799627E1,2.3069378E1,1.2160101E1,6.918701E0,1.5310537E1,1.6601322E1,2.1029123E1,6.384041E1,1.4155863E1,1.4140023E1,8.929355E0,6.236495E0,5.9236054E0],"tree_param":{"num_deleted":"0","num_feature":"20","num_nodes":"23","size_leaf_vector":"1"}},{"base_weights":[-3.3289533E-2,-3.5780525E-1,7.85211E-2,-1.11133575E-1,-2.8825024E-2,3.909328E-1,-9.7336145E-3,1.5079148E-2,-4.2879125E-1,6.894598E-1,1.9854836E-2,-4.1014886E-1,6.044352E-2,-2.5899777E-2,-1.0924383E-2,1.9689752E-2,4.3141566E-2,-2.2206109E-2,2.9132945E-2,-2.778146E-2,-6.6615506E-3,1.9713249E-2,-4.845522E-3],"categories":[],"categories_nodes":[],"categories_segments":[],"categories_sizes":[],"default_left":[0,0,0,0,0,0,0,0,0,0,0,0,0,0,0,0,0,0,0,0,0,0,0],"id":39,"left_children":[1,3,5,7,-1,9,11,-1,13,15,17,19,21,-1,-1,-1,-1,-1,-1,-1,-1,-1,-1],"loss_changes":[5.8912125E0,2.079845E0,3.3612933E0,3.0421224E0,0E0,2.8761454E0,2.7425508E0,0E0,4.5776367E-5,1.1572933E-1,3.963038E0,4.0731597E-1,4.3919935E0,0E0,0E0,0E0,0E0,0E0,0E0,0E0,0E0,0E0,0E0],"parents":[2147483647,0,0,1,1,2,2,3,3,5,5,6,6,8,8,9,9,10,10,11,11,12,12],"right_children":[2,4,6,8,-1,10,12,-1,14,16,18,20,22,-1,-1,-1,-1,-1,-1,-1,-1,-1,-1],"split_conditions":[-6.6865015E-1,-1.1738604E0,-2.2119457E-1,-1.2052753E0,-2.8825024E-2,-6.211172E-2,-2.3259975E-1,1.5079148E-2,-1.2783034E0,-2.660146E-1,9.9468184E-1,-7.9501694E-1,-9.620969E-2,-2.5899777E-2,-1.0924383E-2,1.9689752E-2,4.3141566E-2,-2.2206109E-2,2.9132945E-2,-2.778146E-2,-6.6615506E-3,1.9713249E-2,-4.845522E-3],"split_indices":[1,0,12,19,0,18,0,0,13,9,8,18,10,0,0,0,0,0,0,0,0,0,0],"split_type":[0,0,0,0,0,0,0,0,0,0,0,0,0,0,0,0,0,0,0,0,0,0,0],"sum_hessian":[1.5893134E2,4.0110394E1,1.18820946E2,2.0127548E1,1.9982845E1,2.5289099E1,9.3531845E1,8.650063E0,1.1477487E1,1.3152014E1,1.2137084E1,1.3076795E1,8.0455055E1,6.1842074E0,5.2932787E0,6.888452E0,6.263562E0,6.7286234E0,5.4084606E0,7.346458E0,5.7303367E0,2.5254837E1,5.520022E1],"tree_param":{"num_deleted":"0","num_feature":"20","num_nodes":"23","size_leaf_vector":"1"}},{"base_weights":[-7.450936E-3,1.8041891E-1,-1.443476E-1,7.378888E-2,5.910558E-1,1.23860635E-1,-2.5873482E-1,2.3225278E-1,-3.5771117E-1,4.1299842E-2,1.2467871E-2,-1.17581055E-1,3.0363355E-2,-3.7301388E-1,-2.86518E-2,2.8167387E-2,4.0031082E-4,-1.1693913E-3,-2.6443968E-2,1.4975068E-2,-2.3199977E-2,-5.7401387E-3,-2.247678E-2,1.036807E-2,-2.1128623E-2],"categories":[],"categories_nodes":[],"categories_segments":[],"categories_sizes":[],"default_left":[0,0,0,0,0,0,0,0,0,0,0,0,0,0,0,0,0,0,0,0,0,0,0,0,0],"id":40,"left_children":[1,3,5,7,9,11,13,15,17,-1,-1,19,-1,21,23,-1,-1,-1,-1,-1,-1,-1,-1,-1,-1],"loss_changes":[3.8233E0,2.6021287E0,2.7104006E0,3.631873E0,5.8412933E-1,3.2567523E0,1.5548825E0,2.8115892E0,7.4153876E-1,0E0,0E0,2.9464257E0,0E0,6.668501E-1,2.221453E0,0E0,0E0,0E0,0E0,0E0,0E0,0E0,0E0,0E0,0E0],"parents":[2147483647,0,0,1,1,2,2,3,3,4,4,5,5,6,6,7,7,8,8,11,11,13,13,14,14],"right_children":[2,4,6,8,10,12,14,16,18,-1,-1,20,-1,22,24,-1,-1,-1,-1,-1,-1,-1,-1,-1,-1],"split_conditions":[-3.5702398E-1,9.506244E-1,-7.015258E-1,-7.658505E-1,1.0531063E0,-9.70733E-1,7.2053194E-1,-4.3510848E-1,-9.375852E-1,4.1299842E-2,1.2467871E-2,1.078539E-1,3.0363355E-2,-3.8196203E-1,1.2529744E0,2.8167387E-2,4.0031082E-4,-1.1693913E-3,-2.6443968E-2,1.4975068E-2,-2.3199977E-2,-5.7401387E-3,-2.247678E-2,1.036807E-2,-2.1128623E-2],"split_indices":[13,17,17,6,14,17,8,15,9,0,0,5,0,9,17,0,0,0,0,0,0,0,0,0,0],"split_type":[0,0,0,0,0,0,0,0,0,0,0,0,0,0,0,0,0,0,0,0,0,0,0,0,0],"sum_hessian":[1.457794E2,6.0940487E1,8.483891E1,4.997623E1,1.0964255E1,2.5066364E1,5.9772545E1,3.7228745E1,1.2747486E1,5.0638595E0,5.900396E0,1.7336018E1,7.730346E0,3.902361E1,2.0748938E1,1.3936948E1,2.3291796E1,5.091674E0,7.6558127E0,7.8269625E0,9.509055E0,1.0077109E1,2.8946499E1,1.3260557E1,7.4883804E0],"tree_param":{"num_deleted":"0","num_feature":"20","num_nodes":"25","size_leaf_vector":"1"}},{"base_weights":[-8.226195E-3,-3.4720954E-1,6.3582905E-2,1.8014217E-2,-5.135139E-1,5.169287E-1,-3.0497445E-2,-3.2379165E-2,-6.3983793E-3,6.226611E-3,3.6821518E-2,-8.384612E-2,3.1464253E-2,-7.3803724E-3,2.490836E-2],"categories":[],"categories_nodes":[],"categories_segments":[],"categories_sizes":[],"default_left":[0,0,0,0,0,0,0,0,0,0,0,0,0,0,0],"id":41,"left_children":[1,3,5,-1,7,9,11,-1,-1,-1,-1,13,-1,-1,-1],"loss_changes":[4.489599E0,4.090294E0,6.5184307E0,0E0,1.1868029E0,2.0364852E0,4.4735737E0,0E0,0E0,0E0,0E0,4.4692388E0,0E0,0E0,0E0],"parents":[2147483647,0,0,1,1,2,2,4,4,5,5,6,6,11,11],"right_children":[2,4,6,-1,8,10,12,-1,-1,-1,-1,14,-1,-1,-1],"split_conditions":[-1.1516608E0,-4.086945E-1,-6.4391303E-1,1.8014217E-2,-8.500053E-1,-1.2531494E0,2.3806963E0,-3.2379165E-2,-6.3983793E-3,6.226611E-3,3.6821518E-2,1.2969315E0,3.1464253E-2,-7.3803724E-3,2.490836E-2],"split_indices":[19,11,2,0,13,13,2,0,0,0,0,14,0,0,0],"split_type":[0,0,0,0,0,0,0,0,0,0,0,0,0,0,0],"sum_hessian":[1.8041216E2,3.0774988E1,1.4963716E2,5.4097676E0,2.5365221E1,2.4740587E1,1.2489657E2,1.7871693E1,7.4935284E0,9.881795E0,1.4858793E1,1.1690482E2,7.991745E0,1.0652598E2,1.0378848E1],"tree_param":{"num_deleted":"0","num_feature":"20","num_nodes":"15","size_leaf_vector":"1"}},{"base_weights":[-2.1134285E-2,-1.921613E-1,1.0036776E-1,1.4070334E-1,-2.80469E-1,3.921322E-1,-5.9449907E-2,-1.2280297E-2,1.9878717E-2,5.996311E-2,-3.602502E-1,-7.5112097E-3,5.074233E-1,-3.7748E-1,9.706603E-3,1.0879472E-2,-4.7607585E-3,-2.1922229E-2,9.690241E-3,4.134012E-2,5.559675E-3,-6.2585236E-3,-2.6776541E-2,2.1249799E-2,-8.434306E-3],"categories":[],"categories_nodes":[],"categories_segments":[],"categories_sizes":[],"default_left":[0,0,0,0,0,0,0,0,0,0,0,0,0,0,0,0,0,0,0,0,0,0,0,0,0],"id":42,"left_children":[1,3,5,7,9,11,13,-1,-1,15,17,-1,19,21,23,-1,-1,-1,-1,-1,-1,-1,-1,-1,-1],"loss_changes":[3.4828734E0,2.1222603E0,4.617467E0,1.6876134E0,1.5788426E0,2.33524E0,1.4524162E0,0E0,0E0,3.282323E-1,2.1311407E0,0E0,3.478032E0,3.0185246E-1,4.123928E0,0E0,0E0,0E0,0E0,0E0,0E0,0E0,0E0,0E0,0E0],"parents":[2147483647,0,0,1,1,2,2,3,3,4,4,5,5,6,6,9,9,10,10,12,12,13,13,14,14],"right_children":[2,4,6,8,10,12,14,-1,-1,16,18,-1,20,22,24,-1,-1,-1,-1,-1,-1,-1,-1,-1,-1],"split_conditions":[-2.3259975E-1,-1.4768336E0,-9.620969E-2,-1.5418645E0,-1.3250091E0,-2.8490514E-1,1.6221853E-2,-1.2280297E-2,1.9878717E-2,-2.345092E-1,2.625054E-1,-7.5112097E-3,8.405402E-2,-1.4776357E-1,2.8028095E-1,1.0879472E-2,-4.7607585E-3,-2.1922229E-2,9.690241E-3,4.134012E-2,5.559675E-3,-6.2585236E-3,-2.6776541E-2,2.1249799E-2,-8.434306E-3],"split_indices":[0,6,10,7,17,13,9,0,0,5,9,0,4,9,8,0,0,0,0,0,0,0,0,0,0],"split_type":[0,0,0,0,0,0,0,0,0,0,0,0,0,0,0,0,0,0,0,0,0,0,0,0,0],"sum_hessian":[1.6427199E2,6.820995E1,9.6062035E1,1.3877621E1,5.4332333E1,3.3446716E1,6.261532E1,5.4131885E0,8.464433E0,1.0148242E1,4.418409E1,5.631754E0,2.7814962E1,1.0247699E1,5.236762E1,5.0548167E0,5.093425E0,3.9152004E1,5.0320845E0,1.4358763E1,1.34562E1,5.225868E0,5.02183E0,1.528107E1,3.7086548E1],"tree_param":{"num_deleted":"0","num_feature":"20","num_nodes":"25","size_leaf_vector":"1"}},{"base_weights":[-6.4298615E-2,-3.4319085E-1,4.57596E-2,-4.288349E-1,1.9778747E-3,2.0780037E-1,-2.6432604E-1,-4.9577522E-1,-1.6995326E-3,4.5987272E-1,4.8158E-2,-1.221878E-1,-2.4409885E-2,-1.6196169E-2,-2.8744623E-2,3.5239883E-2,1.7120276E-3,-4.206694E-3,1.878061E-2,-1.9214842E-2,4.4517117E-3],"categories":[],"categories_nodes":[],"categories_segments":[],"categories_sizes":[],"default_left":[0,0,0,0,0,0,0,0,0,0,0,0,0,0,0,0,0,0,0,0,0],"id":43,"left_children":[1,3,5,7,-1,9,11,13,-1,15,17,19,-1,-1,-1,-1,-1,-1,-1,-1,-1],"loss_changes":[4.3742332E0,1.3843279E0,5.202176E0,8.0042934E-1,0E0,2.6543074E0,9.777932E-1,1.2824535E-2,0E0,2.5969124E0,1.9644347E0,1.4074748E0,0E0,0E0,0E0,0E0,0E0,0E0,0E0,0E0,0E0],"parents":[2147483647,0,0,1,1,2,2,3,3,5,5,6,6,7,7,9,9,10,10,11,11],"right_children":[2,4,6,8,-1,10,12,14,-1,16,18,20,-1,-1,-1,-1,-1,-1,-1,-1,-1],"split_conditions":[-4.792151E-1,3.413493E-1,8.1891376E-1,9.784926E-1,1.9778747E-3,-4.747417E-1,1.2839278E0,-3.2153696E-2,-1.6995326E-3,2.8088742E-1,2.6979974E-1,7.4415356E-1,-2.4409885E-2,-1.6196169E-2,-2.8744623E-2,3.5239883E-2,1.7120276E-3,-4.206694E-3,1.878061E-2,-1.9214842E-2,4.4517117E-3],"split_indices":[18,15,14,19,0,15,14,12,0,7,17,17,0,0,0,0,0,0,0,0,0],"split_type":[0,0,0,0,0,0,0,0,0,0,0,0,0,0,0,0,0,0,0,0,0],"sum_hessian":[1.3927278E2,3.876693E1,1.0050585E2,3.1744429E1,7.022503E0,6.654753E1,3.3958317E1,2.659835E1,5.146077E0,2.4467087E1,4.2080444E1,2.246222E1,1.1496098E1,1.11924095E1,1.5405941E1,1.4756734E1,9.710354E0,3.0548164E1,1.1532281E1,9.686462E0,1.2775757E1],"tree_param":{"num_deleted":"0","num_feature":"20","num_nodes":"21","size_leaf_vector":"1"}},{"base_weights":[1.4847865E-2,3.5743028E-1,-6.758571E-2,5.164126E-1,-8.496488E-3,-1.7522416E-1,2.8184995E-1,4.057222E-2,1.9298895E-1,2.1103695E-2,-2.254842E-1,4.1457215E-1,-1.5125818E-2,1.7602928E-2,-3.6180771E-3,-3.392661E-2,-7.541392E-3,3.8341317E-2,6.5738196E-3],"categories":[],"categories_nodes":[],"categories_segments":[],"categories_sizes":[],"default_left":[0,0,0,0,0,0,0,0,0,0,0,0,0,0,0,0,0,0,0],"id":44,"left_children":[1,3,5,7,-1,9,11,-1,13,-1,15,17,-1,-1,-1,-1,-1,-1,-1],"loss_changes":[5.3079033E0,3.2248397E0,5.730336E0,2.3886523E0,0E0,3.6152894E0,2.9787896E0,0E0,7.309005E-1,0E0,3.431015E0,2.7482367E0,0E0,0E0,0E0,0E0,0E0,0E0,0E0],"parents":[2147483647,0,0,1,1,2,2,3,3,5,5,6,6,8,8,10,10,11,11],"right_children":[2,4,6,8,-1,10,12,-1,14,-1,16,18,-1,-1,-1,-1,-1,-1,-1],"split_conditions":[-7.431575E-1,6.5979385E-1,7.5018656E-1,9.714039E-2,-8.496488E-3,-1.2883854E0,1.9039041E0,4.057222E-2,-5.024416E-1,2.1103695E-2,-1.4577686E0,-2.7121577E-1,-1.5125818E-2,1.7602928E-2,-3.6180771E-3,-3.392661E-2,-7.541392E-3,3.8341317E-2,6.5738196E-3],"split_indices":[18,7,18,19,0,0,18,0,15,0,6,6,0,0,0,0,0,0,0],"split_type":[0,0,0,0,0,0,0,0,0,0,0,0,0,0,0,0,0,0,0],"sum_hessian":[1.841455E2,3.498051E1,1.4916498E2,2.7047352E1,7.933158E0,1.1482795E2,3.4337032E1,1.2799183E1,1.424817E1,7.8966475E0,1.06931305E2,2.8476398E1,5.860636E0,8.837227E0,5.410943E0,1.3221966E1,9.3709335E1,1.1388923E1,1.7087475E1],"tree_param":{"num_deleted":"0","num_feature":"20","num_nodes":"19","size_leaf_vector":"1"}},{"base_weights":[-3.8802892E-2,-2.7739084E-1,7.7658586E-2,-9.16158E-2,-3.0814966E-2,1.4443193E-1,-2.3178546E-2,-2.5859667E-2,2.0395184E-1,7.6765314E-2,3.9978217E-2,2.235984E-2,-4.455266E-3,9.714202E-3,-1.3358282E-2],"categories":[],"categories_nodes":[],"categories_segments":[],"categories_sizes":[],"default_left":[0,0,0,0,0,0,0,0,0,0,0,0,0,0,0],"id":45,"left_children":[1,3,5,7,-1,9,-1,-1,11,13,-1,-1,-1,-1,-1],"loss_changes":[4.6240053E0,3.2808156E0,4.096394E0,4.8696213E0,0E0,4.2764482E0,0E0,0E0,1.7275803E0,3.825757E0,0E0,0E0,0E0,0E0,0E0],"parents":[2147483647,0,0,1,1,2,2,3,3,5,5,8,8,9,9],"right_children":[2,4,6,8,-1,10,-1,-1,12,14,-1,-1,-1,-1,-1],"split_conditions":[-4.0268588E-1,-8.500053E-1,1.5455328E0,-2.730223E-1,-3.0814966E-2,1.105298E0,-2.3178546E-2,-2.5859667E-2,-1.3136545E0,7.10945E-1,3.9978217E-2,2.235984E-2,-4.455266E-3,9.714202E-3,-1.3358282E-2],"split_indices":[13,13,4,10,0,12,0,0,4,13,0,0,0,0,0],"split_type":[0,0,0,0,0,0,0,0,0,0,0,0,0,0,0],"sum_hessian":[1.6303142E2,5.3078487E1,1.09952934E2,3.5706356E1,1.7372131E1,9.902086E1,1.093207E1,1.4312243E1,2.1394112E1,9.140801E1,7.6128507E0,1.1445951E1,9.948161E0,6.883202E1,2.2575989E1],"tree_param":{"num_deleted":"0","num_feature":"20","num_nodes":"15","size_leaf_vector":"1"}},{"base_weights":[3.3860255E-2,3.346544E-1,-4.986853E-2,-1.1944915E-2,4.7137812E-1,-1.6088505E-1,1.993567E-1,7.0280945E-1,1.5786704E-1,-1.0990025E-1,-2.6412783E-2,5.143214E-1,-1.3133511E-1,1.9044986E-2,4.360001E-2,-1.2126478E-2,2.332389E-2,-7.7452497E-3,1.8339364E-2,2.8036127E-3,6.334221E-2,1.8918825E-2,-1.8268308E-2],"categories":[],"categories_nodes":[],"categories_segments":[],"categories_sizes":[],"default_left":[0,0,0,0,0,0,0,0,0,0,0,0,0,0,0,0,0,0,0,0,0,0,0],"id":46,"left_children":[1,3,5,-1,7,9,11,13,15,17,-1,19,21,-1,-1,-1,-1,-1,-1,-1,-1,-1,-1],"loss_changes":[3.7876124E0,2.75951E0,3.2821794E0,0E0,1.712502E0,1.3863018E0,3.936823E0,1.9142437E-1,1.8750309E0,1.6558952E0,0E0,6.3588305E0,2.4515965E0,0E0,0E0,0E0,0E0,0E0,0E0,0E0,0E0,0E0,0E0],"parents":[2147483647,0,0,1,1,2,2,4,4,5,5,6,6,7,7,8,8,9,9,11,11,12,12],"right_children":[2,4,6,-1,8,10,12,14,16,18,-1,20,22,-1,-1,-1,-1,-1,-1,-1,-1,-1,-1],"split_conditions":[-1.1132058E0,-3.8415974E-1,3.8957053E-1,-1.1944915E-2,-1.8735786E-1,8.435787E-1,-2.1598001E-1,-1.3179982E0,1.117997E-1,3.8624504E-1,-2.6412783E-2,2.2661453E-1,-1.5323803E-1,1.9044986E-2,4.360001E-2,-1.2126478E-2,2.332389E-2,-7.7452497E-3,1.8339364E-2,2.8036127E-3,6.334221E-2,1.8918825E-2,-1.8268308E-2],"split_indices":[19,11,10,0,15,13,15,4,18,1,0,11,11,0,0,0,0,0,0,0,0,0,0],"split_type":[0,0,0,0,0,0,0,0,0,0,0,0,0,0,0,0,0,0,0,0,0,0,0],"sum_hessian":[1.467661E2,3.1239122E1,1.1552698E2,5.656765E0,2.5582357E1,8.057019E1,3.4956783E1,1.3462714E1,1.2119642E1,7.270141E1,7.868787E0,1.7632406E1,1.7324377E1,6.521888E0,6.940827E0,5.274097E0,6.845546E0,6.754658E1,5.1548285E0,1.2043293E1,5.5891137E0,5.02583E0,1.2298547E1],"tree_param":{"num_deleted":"0","num_feature":"20","num_nodes":"23","size_leaf_vector":"1"}},{"base_weights":[1.1269455E-3,2.195935E-1,-1.0014729E-1,3.8061026E-1,-4.1183874E-1,-2.1056469E-1,3.2836533E-1,1.229607E-1,5.6056494E-1,-3.1246165E-2,-2.2047951E-3,-2.6878515E-1,2.7265808E-1,-1.594924E-2,5.010184E-1,1.6797978E-2,-5.8072447E-3,4.251642E-2,1.43232895E-2,-3.3388678E-2,-1.0071136E-2,-5.2952995E-3,2.9996468E-2,3.9467994E-2,1.00748865E-2],"categories":[],"categories_nodes":[],"categories_segments":[],"categories_sizes":[],"default_left":[0,0,0,0,0,0,0,0,0,0,0,0,0,0,0,0,0,0,0,0,0,0,0,0,0],"id":47,"left_children":[1,3,5,7,9,11,13,15,17,-1,-1,19,21,-1,23,-1,-1,-1,-1,-1,-1,-1,-1,-1,-1],"loss_changes":[4.3928113E0,6.639944E0,6.478917E0,2.1987104E0,9.4182754E-1,3.1600728E0,3.3937955E0,1.260758E0,1.8600836E0,0E0,0E0,2.3374953E0,1.6585952E0,0E0,1.6362004E0,0E0,0E0,0E0,0E0,0E0,0E0,0E0,0E0,0E0,0E0],"parents":[2147483647,0,0,1,1,2,2,3,3,4,4,5,5,6,6,7,7,8,8,11,11,12,12,14,14],"right_children":[2,4,6,8,10,12,14,16,18,-1,-1,20,22,-1,24,-1,-1,-1,-1,-1,-1,-1,-1,-1,-1],"split_conditions":[-6.3305604E-1,6.3818234E-1,8.435787E-1,-9.5442516E-1,-4.4774324E-1,1.2969315E0,-4.4572294E-1,-1.0290107E0,-5.501887E-1,-3.1246165E-2,-2.2047951E-3,-1.1788971E0,-6.0212757E-2,-1.594924E-2,2.2661453E-1,1.6797978E-2,-5.8072447E-3,4.251642E-2,1.43232895E-2,-3.3388678E-2,-1.0071136E-2,-5.2952995E-3,2.9996468E-2,3.9467994E-2,1.00748865E-2],"split_indices":[8,5,13,17,9,14,11,9,11,0,0,0,10,0,11,0,0,0,0,0,0,0,0,0,0],"split_type":[0,0,0,0,0,0,0,0,0,0,0,0,0,0,0,0,0,0,0,0,0,0,0,0,0],"sum_hessian":[1.95014E2,6.1526142E1,1.3348787E2,4.9625683E1,1.190046E1,1.06930695E2,2.6557177E1,2.1674255E1,2.7951426E1,6.69827E0,5.202191E0,9.621138E1,1.0719312E1,5.2020297E0,2.1355146E1,1.13627615E1,1.0311495E1,1.1877216E1,1.607421E1,1.1751699E1,8.445968E1,5.2989283E0,5.420384E0,9.460635E0,1.1894512E1],"tree_param":{"num_deleted":"0","num_feature":"20","num_nodes":"25","size_leaf_vector":"1"}},{"base_weights":[-1.4742021E-2,-1.7388615E-1,9.8389514E-2,-4.1945788E-1,-7.3968177E-3,2.91416E-1,-1.3119188E-1,-2.7424265E-2,-1.5603709E-1,3.1495163E-1,-2.0716232E-1,-1.4957407E-1,4.9768713E-1,3.056701E-1,-4.3155837E-1,1.8916288E-3,-1.696362E-2,3.3776652E-2,-3.7545115E-3,-1.9325454E-2,8.651772E-3,1.1788401E-2,-2.0213492E-2,-1.7796582E-2,3.2225147E-2,-1.1281604E-2,3.1556647E-2,-2.8431166E-2,-1.1756456E-3],"categories":[],"categories_nodes":[],"categories_segments":[],"categories_sizes":[],"default_left":[0,0,0,0,0,0,0,0,0,0,0,0,0,0,0,0,0,0,0,0,0,0,0,0,0,0,0,0,0],"id":48,"left_children":[1,3,5,7,9,11,13,-1,15,17,19,21,23,25,27,-1,-1,-1,-1,-1,-1,-1,-1,-1,-1,-1,-1,-1,-1],"loss_changes":[3.132477E0,2.914152E0,4.5583634E0,7.867322E-1,2.9808104E0,5.2115602E0,6.380871E0,0E0,4.7158572E-1,2.611034E0,2.0882192E0,1.9994488E0,5.1902685E0,3.6954534E0,1.5215607E0,0E0,0E0,0E0,0E0,0E0,0E0,0E0,0E0,0E0,0E0,0E0,0E0,0E0,0E0],"parents":[2147483647,0,0,1,1,2,2,3,3,4,4,5,5,6,6,8,8,9,9,10,10,11,11,12,12,13,13,14,14],"right_children":[2,4,6,8,10,12,14,-1,16,18,20,22,24,26,28,-1,-1,-1,-1,-1,-1,-1,-1,-1,-1,-1,-1,-1,-1],"split_conditions":[-2.5732526E-1,-2.3932098E-1,6.87556E-1,-4.9503636E-2,-8.9574975E-1,-5.0390565E-1,-8.675013E-1,-2.7424265E-2,-3.541517E-1,6.2855977E-1,8.992438E-1,-7.4419803E-3,-1.5864655E-1,8.9501274E-1,1.3141917E0,1.8916288E-3,-1.696362E-2,3.3776652E-2,-3.7545115E-3,-1.9325454E-2,8.651772E-3,1.1788401E-2,-2.0213492E-2,-1.7796582E-2,3.2225147E-2,-1.1281604E-2,3.1556647E-2,-2.8431166E-2,-1.1756456E-3],"split_indices":[13,9,13,15,13,8,11,0,11,14,14,12,6,4,19,0,0,0,0,0,0,0,0,0,0,0,0,0,0],"split_type":[0,0,0,0,0,0,0,0,0,0,0,0,0,0,0,0,0,0,0,0,0,0,0,0,0,0,0,0,0],"sum_hessian":[1.7064102E2,7.093454E1,9.970648E1,2.7496876E1,4.3437664E1,5.418262E1,4.552386E1,1.71122E1,1.0384676E1,1.609719E1,2.7340473E1,1.7243977E1,3.6938644E1,1.8401197E1,2.7122663E1,5.3591E0,5.025576E0,7.9272013E0,8.169989E0,1.8739027E1,8.601446E0,6.7501626E0,1.0493814E1,5.007327E0,3.1931316E1,7.048201E0,1.1352997E1,1.9677505E1,7.445158E0],"tree_param":{"num_deleted":"0","num_feature":"20","num_nodes":"29","size_leaf_vector":"1"}},{"base_weights":[1.4611307E-2,3.945159E-1,-8.602938E-2,-5.2924086E-3,5.1441413E-1,-1.23733155E-1,1.637121E-2,6.2384135E-1,4.7279107E-3,-7.4198104E-2,-2.4366958E-2,1.7567718E-2,4.0407717E-2,-6.7359232E-3,1.7869836E-2],"categories":[],"categories_nodes":[],"categories_segments":[],"categories_sizes":[],"default_left":[0,0,0,0,0,0,0,0,0,0,0,0,0,0,0],"id":49,"left_children":[1,3,5,-1,7,9,-1,11,-1,13,-1,-1,-1,-1,-1],"loss_changes":[5.7785964E0,2.023203E0,1.8926277E0,0E0,1.0330515E0,1.8744204E0,0E0,4.6999884E-1,0E0,2.6357925E0,0E0,0E0,0E0,0E0,0E0],"parents":[2147483647,0,0,1,1,2,2,4,4,5,5,7,7,9,9],"right_children":[2,4,6,-1,8,10,-1,12,-1,14,-1,-1,-1,-1,-1],"split_conditions":[-1.1132058E0,-3.9021954E-1,1.4346648E0,-5.2924086E-3,3.8696602E-1,1.2558603E0,1.637121E-2,-1.0857733E0,4.7279107E-3,8.2565093E-1,-2.4366958E-2,1.7567718E-2,4.0407717E-2,-6.7359232E-3,1.7869836E-2],"split_indices":[19,11,19,0,16,13,0,13,0,0,0,0,0,0,0],"split_type":[0,0,0,0,0,0,0,0,0,0,0,0,0,0,0],"sum_hessian":[1.474998E2,3.0181688E1,1.17318115E2,5.7069488E0,2.447474E1,1.086986E2,8.61951E0,1.8647648E1,5.827091E0,9.749738E1,1.1201221E1,9.501981E0,9.145667E0,8.661525E1,1.0882132E1],"tree_param":{"num_deleted":"0","num_feature":"20","num_nodes":"15","size_leaf_vector":"1"}},{"base_weights":[-3.9075408E-2,2.8305787E-1,-1.1280258E-1,5.634366E-1,-8.690489E-3,-2.6984164E-1,5.771063E-2,3.3508655E-2,1.27267735E-2,2.4801811E-2,-3.1118867E-1,1.6452311E-1,-3.920197E-1,3.0799565E-1,-1.3766648E-1,6.962183E-4,-2.7592076E-2,2.4261413E-2,-2.4482787E-2,-2.6453702E-2,9.415285E-3,2.1646356E-2,-1.151269E-2,-1.49548E-2,7.4121924E-3],"categories":[],"categories_nodes":[],"categories_segments":[],"categories_sizes":[],"default_left":[0,0,0,0,0,0,0,0,0,0,0,0,0,0,0,0,0,0,0,0,0,0,0,0,0],"id":50,"left_children":[1,3,5,7,9,11,13,-1,-1,-1,15,17,19,21,23,-1,-1,-1,-1,-1,-1,-1,-1,-1,-1],"loss_changes":[4.4823875E0,2.9326315E0,4.1642313E0,2.4802828E-1,3.0369241E0,4.4000306E0,3.7330072E0,0E0,0E0,0E0,1.0519263E0,4.2548246E0,5.2400026E0,2.4179006E0,2.0550976E0,0E0,0E0,0E0,0E0,0E0,0E0,0E0,0E0,0E0,0E0],"parents":[2147483647,0,0,1,1,2,2,3,3,4,4,5,5,6,6,10,10,11,11,12,12,13,13,14,14],"right_children":[2,4,6,8,10,12,14,-1,-1,-1,16,18,20,22,24,-1,-1,-1,-1,-1,-1,-1,-1,-1,-1],"split_conditions":[-7.431575E-1,4.619365E-1,4.6315465E-2,1.759348E-2,-1.7435286E0,-8.9024895E-1,5.7807404E-1,3.3508655E-2,1.27267735E-2,2.4801811E-2,-5.024416E-1,2.553444E-1,1.0459869E0,1.3042665E0,4.8579124E-1,6.962183E-4,-2.7592076E-2,2.4261413E-2,-2.4482787E-2,-2.6453702E-2,9.415285E-3,2.1646356E-2,-1.151269E-2,-1.49548E-2,7.4121924E-3],"split_indices":[18,19,16,15,10,8,16,0,0,0,15,7,6,8,9,0,0,0,0,0,0,0,0,0,0],"split_type":[0,0,0,0,0,0,0,0,0,0,0,0,0,0,0,0,0,0,0,0,0,0,0,0,0],"sum_hessian":[1.8593257E2,3.3583267E1,1.523493E2,1.6587801E1,1.6995466E1,7.915859E1,7.319072E1,1.0783631E1,5.8041687E0,5.885337E0,1.1110129E1,1.7083904E1,6.2074688E1,3.1931955E1,4.1258762E1,5.150146E0,5.959984E0,1.1826386E1,5.2575173E0,5.0461967E1,1.1612719E1,2.6305552E1,5.626404E0,2.6549227E1,1.4709535E1],"tree_param":{"num_deleted":"0","num_feature":"20","num_nodes":"25","size_leaf_vector":"1"}},{"base_weights":[-3.6283857E-3,-1.7168719E-1,6.8480216E-2,-4.1080928E-1,5.6015444E-1,1.8300512E-1,-3.143666E-1,-4.787796E-1,1.5641324E-3,8.443388E-3,3.8392447E-2,-6.6236936E-2,4.6001077E-1,-5.222139E-1,-0E0,-6.2959655E-3,-2.827186E-2,2.0520473E-2,-1.2402776E-2,-4.8556505E-3,2.6939005E-2,-3.0242829E-2,-1.2050224E-2,-2.0520097E-2,2.2459354E-2],"categories":[],"categories_nodes":[],"categories_segments":[],"categories_sizes":[],"default_left":[0,0,0,0,0,0,0,0,0,0,0,0,0,0,0,0,0,0,0,0,0,0,0,0,0],"id":51,"left_children":[1,3,5,7,9,11,13,15,-1,-1,-1,17,19,21,23,-1,-1,-1,-1,-1,-1,-1,-1,-1,-1],"loss_changes":[2.0767674E0,9.361031E0,5.289033E0,1.2651E0,7.8785944E-1,6.4864407E0,1.8335757E0,8.894024E-1,0E0,0E0,0E0,4.4631953E0,2.0663671E0,8.665562E-2,2.576035E0,0E0,0E0,0E0,0E0,0E0,0E0,0E0,0E0,0E0,0E0],"parents":[2147483647,0,0,1,1,2,2,3,3,4,4,5,5,6,6,7,7,11,11,12,12,13,13,14,14],"right_children":[2,4,6,8,10,12,14,16,-1,-1,-1,18,20,22,24,-1,-1,-1,-1,-1,-1,-1,-1,-1,-1],"split_conditions":[-5.9577715E-1,6.3818234E-1,7.3182255E-1,-2.8820547E-1,-1.463397E0,-3.0446982E-1,1.2558801E0,-1.2656381E0,1.5641324E-3,8.443388E-3,3.8392447E-2,-1.459022E0,-3.8555843E-1,5.364646E-1,-2.6655453E-1,-6.2959655E-3,-2.827186E-2,2.0520473E-2,-1.2402776E-2,-4.8556505E-3,2.6939005E-2,-3.0242829E-2,-1.2050224E-2,-2.0520097E-2,2.2459354E-2],"split_indices":[8,5,13,18,14,6,4,11,0,0,0,6,13,10,15,0,0,0,0,0,0,0,0,0,0],"split_type":[0,0,0,0,0,0,0,0,0,0,0,0,0,0,0,0,0,0,0,0,0,0,0,0,0],"sum_hessian":[1.6756494E2,5.0104656E1,1.1746028E2,3.8364174E1,1.1740481E1,9.12176E1,2.6242678E1,3.333997E1,5.0242047E0,5.180924E0,6.559557E0,4.842576E1,4.2791843E1,1.5277264E1,1.0965414E1,7.526488E0,2.5813482E1,1.2698954E1,3.5726803E1,5.1001806E0,3.769166E1,1.0198211E1,5.079053E0,5.7512956E0,5.214118E0],"tree_param":{"num_deleted":"0","num_feature":"20","num_nodes":"25","size_leaf_vector":"1"}},{"base_weights":[2.518772E-3,3.5770163E-1,-4.8968483E-2,-0E0,4.535161E-2,2.7093792E-2,-8.42661E-2,-1.3233458E-2,1.4211051E-2,-4.2697766E-1,-3.3731703E-2,-2.5980935E-2,-1.0000592E-2,3.3123937E-2,-4.1874438E-3],"categories":[],"categories_nodes":[],"categories_segments":[],"categories_sizes":[],"default_left":[0,0,0,0,0,0,0,0,0,0,0,0,0,0,0],"id":52,"left_children":[1,3,5,7,-1,-1,9,-1,-1,11,13,-1,-1,-1,-1],"loss_changes":[2.7024353E0,3.6444008E0,2.6799304E0,1.0837517E0,0E0,0E0,2.0397692E0,0E0,0E0,9.288597E-2,3.783792E0,0E0,0E0,0E0,0E0],"parents":[2147483647,0,0,1,1,2,2,3,3,6,6,9,9,10,10],"right_children":[2,4,6,8,-1,-1,10,-1,-1,12,14,-1,-1,-1,-1],"split_conditions":[-1.1900895E0,5.5618054E-1,-1.052238E0,-1.2478411E0,4.535161E-2,2.7093792E-2,-9.118875E-1,-1.3233458E-2,1.4211051E-2,-3.0893685E-2,-1.366096E0,-2.5980935E-2,-1.0000592E-2,3.3123937E-2,-4.1874438E-3],"split_indices":[13,17,15,2,0,0,18,0,0,1,11,0,0,0,0],"split_type":[0,0,0,0,0,0,0,0,0,0,0,0,0,0,0],"sum_hessian":[1.4315092E2,1.724033E1,1.259106E2,1.1396E1,5.8443294E0,5.724703E0,1.201859E2,5.8780565E0,5.517943E0,1.3754386E1,1.0643151E2,8.081168E0,5.673218E0,5.7686286E0,1.0066288E2],"tree_param":{"num_deleted":"0","num_feature":"20","num_nodes":"15","size_leaf_vector":"1"}},{"base_weights":[8.223518E-3,3.0266115E-1,-6.751479E-2,4.1129592E-1,-1.5755853E-2,-1.10308655E-1,2.7012302E-2,6.0846823E-1,5.7660658E-2,-3.148799E-1,-5.319256E-3,3.5739135E-2,9.560748E-3,-8.996162E-3,1.714642E-2,-5.931492E-3,-2.6802516E-2,2.5763437E-3,-2.9466404E-2],"categories":[],"categories_nodes":[],"categories_segments":[],"categories_sizes":[],"default_left":[0,0,0,0,0,0,0,0,0,0,0,0,0,0,0,0,0,0,0],"id":53,"left_children":[1,3,5,7,-1,9,-1,11,13,15,17,-1,-1,-1,-1,-1,-1,-1,-1],"loss_changes":[4.4461026E0,2.9448254E0,4.1455073E0,2.3574615E0,0E0,3.1579046E0,0E0,7.009926E-1,1.0952243E0,2.0121136E0,3.421713E0,0E0,0E0,0E0,0E0,0E0,0E0,0E0,0E0],"parents":[2147483647,0,0,1,1,2,2,3,3,5,5,7,7,8,8,9,9,10,10],"right_children":[2,4,6,8,-1,10,-1,12,14,16,18,-1,-1,-1,-1,-1,-1,-1,-1],"split_conditions":[-7.431575E-1,7.689635E-1,2.2469532E0,-7.957259E-2,-1.5755853E-2,-4.621082E-1,2.7012302E-2,-5.1235116E-1,7.40164E-2,1.581955E-1,1.2558801E0,3.5739135E-2,9.560748E-3,-8.996162E-3,1.714642E-2,-5.931492E-3,-2.6802516E-2,2.5763437E-3,-2.9466404E-2],"split_indices":[18,4,3,15,0,15,0,8,12,7,4,0,0,0,0,0,0,0,0],"split_type":[0,0,0,0,0,0,0,0,0,0,0,0,0,0,0,0,0,0,0],"sum_hessian":[1.95446E2,3.933904E1,1.5610696E2,3.4019936E1,5.3191013E0,1.4713885E2,8.968104E0,2.0966305E1,1.3053633E1,4.8562973E1,9.857588E1,1.5665528E1,5.300776E0,7.2330213E0,5.8206115E0,2.7191751E1,2.1371222E1,9.092215E1,7.6537366E0],"tree_param":{"num_deleted":"0","num_feature":"20","num_nodes":"19","size_leaf_vector":"1"}},{"base_weights":[3.5259414E-2,-1.22552164E-1,1.7858343E-1,-4.1820154E-1,5.2690946E-2,4.0320364E-1,-6.1236065E-2,1.4520427E-3,-5.1424307E-1,4.8408577E-1,-1.6018888E-1,-8.593704E-2,7.34049E-1,-5.142165E-1,2.0188789E-1,-2.9537663E-2,-1.4160024E-2,6.8943435E-3,4.6528514E-2,-2.7493903E-2,-4.123203E-4,-1.5863586E-2,2.1654416E-2,1.8230826E-2,4.1580807E-2,-3.0141292E-2,-1.1767658E-2,3.286059E-2,-1.3864987E-3],"categories":[],"categories_nodes":[],"categories_segments":[],"categories_sizes":[],"default_left":[0,0,0,0,0,0,0,0,0,0,0,0,0,0,0,0,0,0,0,0,0,0,0,0,0,0,0,0,0],"id":54,"left_children":[1,3,5,7,9,11,13,-1,15,17,19,21,23,25,27,-1,-1,-1,-1,-1,-1,-1,-1,-1,-1,-1,-1,-1,-1],"loss_changes":[3.7712402E0,4.1680965E0,4.7809544E0,1.351778E0,4.812657E0,7.5322204E0,5.356395E0,0E0,1.00259304E-1,2.376144E0,2.0084016E0,2.5482066E0,4.1518402E-1,1.1105156E-1,3.0566535E0,0E0,0E0,0E0,0E0,0E0,0E0,0E0,0E0,0E0,0E0,0E0,0E0,0E0,0E0],"parents":[2147483647,0,0,1,1,2,2,3,3,4,4,5,5,6,6,8,8,9,9,10,10,11,11,12,12,13,13,14,14],"right_children":[2,4,6,8,10,12,14,-1,16,18,20,22,24,26,28,-1,-1,-1,-1,-1,-1,-1,-1,-1,-1,-1,-1,-1,-1],"split_conditions":[-3.516874E-2,-1.7664784E-1,-4.536409E-2,-1.1818349E0,-8.500053E-1,-2.3553239E-1,7.7240473E-1,1.4520427E-3,-2.863239E-1,9.701086E-2,-7.5555855E-1,-6.032436E-1,-1.0236551E-1,6.8895185E-1,9.280029E-1,-2.9537663E-2,-1.4160024E-2,6.8943435E-3,4.6528514E-2,-2.7493903E-2,-4.123203E-4,-1.5863586E-2,2.1654416E-2,1.8230826E-2,4.1580807E-2,-3.0141292E-2,-1.1767658E-2,3.286059E-2,-1.3864987E-3],"split_indices":[19,10,10,19,13,1,1,0,19,10,7,10,1,14,7,0,0,0,0,0,0,0,0,0,0,0,0,0,0],"split_type":[0,0,0,0,0,0,0,0,0,0,0,0,0,0,0,0,0,0,0,0,0,0,0,0,0,0,0,0,0],"sum_hessian":[1.6353569E2,7.760541E1,8.593029E1,2.8319363E1,4.928604E1,4.4058857E1,4.1871433E1,5.0072093E0,2.3312153E1,1.5808779E1,3.3477264E1,1.8102785E1,2.5956072E1,1.4998844E1,2.687259E1,1.5433237E1,7.878916E0,1.013637E1,5.67241E0,8.104613E0,2.537265E1,1.3058311E1,5.0444736E0,7.1214924E0,1.883458E1,9.787623E0,5.211221E0,8.218269E0,1.865432E1],"tree_param":{"num_deleted":"0","num_feature":"20","num_nodes":"29","size_leaf_vector":"1"}},{"base_weights":[-4.528502E-2,3.970121E-1,-1.0657671E-1,3.0621592E-2,1.0667829E-3,-1.4123659E-1,1.4418897E-2,-2.840364E-2,-2.81503E-1,-1.880258E-2,5.512799E-3,-5.097831E-4,-1.904933E-2],"categories":[],"categories_nodes":[],"categories_segments":[],"categories_sizes":[],"default_left":[0,0,0,0,0,0,0,0,0,0,0,0,0],"id":55,"left_children":[1,3,5,-1,-1,7,-1,9,11,-1,-1,-1,-1],"loss_changes":[3.913219E0,1.3359516E0,1.7855432E0,0E0,0E0,1.8251548E0,0E0,3.3415873E0,1.3601389E0,0E0,0E0,0E0,0E0],"parents":[2147483647,0,0,1,1,2,2,5,5,7,7,8,8],"right_children":[2,4,6,-1,-1,8,-1,10,12,-1,-1,-1,-1],"split_conditions":[-1.4577686E0,-1.3880186E0,1.4511843E0,3.0621592E-2,1.0667829E-3,1.3845421E-1,1.4418897E-2,-6.7649233E-1,-8.7539E-1,-1.880258E-2,5.512799E-3,-5.097831E-4,-1.904933E-2],"split_indices":[6,12,19,0,0,19,0,2,16,0,0,0,0],"split_type":[0,0,0,0,0,0,0,0,0,0,0,0,0],"sum_hessian":[1.415807E2,1.6033197E1,1.255475E2,9.420061E0,6.6131372E0,1.1653737E2,9.010132E0,6.5979164E1,5.0558205E1,1.8285872E1,4.769329E1,1.4278212E1,3.6279995E1],"tree_param":{"num_deleted":"0","num_feature":"20","num_nodes":"13","size_leaf_vector":"1"}},{"base_weights":[-1.7421829E-2,2.9775018E-2,-4.2260386E-2,-6.769248E-2,2.2829784E-2,-2.0617643E-2,-3.0491946E-2,-3.499708E-3,4.1777078E-2],"categories":[],"categories_nodes":[],"categories_segments":[],"categories_sizes":[],"default_left":[0,0,0,0,0,0,0,0,0],"id":56,"left_children":[1,-1,3,5,-1,7,-1,-1,-1],"loss_changes":[2.882522E0,0E0,2.3498912E0,4.439809E0,0E0,6.9754295E0,0E0,0E0,0E0],"parents":[2147483647,0,0,2,2,3,3,5,5],"right_children":[2,-1,4,6,-1,8,-1,-1,-1],"split_conditions":[-2.0319552E0,2.9775018E-2,2.2469532E0,1.2519788E0,2.2829784E-2,8.741829E-1,-3.0491946E-2,-3.499708E-3,4.1777078E-2],"split_indices":[18,0,3,6,0,7,0,0,0],"split_type":[0,0,0,0,0,0,0,0,0],"sum_hessian":[1.889938E2,5.861666E0,1.8313213E2,1.756731E2,7.4590435E0,1.6324034E2,1.2432741E1,1.5575197E2,7.4883766E0],"tree_param":{"num_deleted":"0","num_feature":"20","num_nodes":"9","size_leaf_vector":"1"}},{"base_weights":[-2.3670727E-2,-2.2080031E-1,1.0862632E-1,-2.8023357E-2,-3.4737468E-1,4.03997E-1,-3.2358978E-2,-2.3905063E-2,2.0394574E-1,-7.164473E-2,-2.7905403E-2,6.838433E-2,6.1696565E-1,1.9598295E-1,-3.0474505E-1,2.9299423E-2,-2.595005E-3,7.212782E-3,-1.7654447E-2,-8.427379E-3,1.8413952E-2,3.827709E-2,1.660171E-2,-5.170599E-3,2.8444363E-2,-2.7159754E-2,1.987945E-3],"categories":[],"categories_nodes":[],"categories_segments":[],"categories_sizes":[],"default_left":[0,0,0,0,0,0,0,0,0,0,0,0,0,0,0,0,0,0,0,0,0,0,0,0,0,0,0],"id":57,"left_children":[1,3,5,7,9,11,13,-1,15,17,-1,19,21,23,25,-1,-1,-1,-1,-1,-1,-1,-1,-1,-1,-1,-1],"loss_changes":[4.3113003E0,1.5695405E0,4.160368E0,3.126888E0,2.182343E0,2.1681838E0,4.321366E0,0E0,2.011958E0,1.2586783E0,0E0,1.1335524E0,3.2674646E-1,4.335958E0,2.6895747E0,0E0,0E0,0E0,0E0,0E0,0E0,0E0,0E0,0E0,0E0,0E0,0E0],"parents":[2147483647,0,0,1,1,2,2,3,3,4,4,5,5,6,6,8,8,9,9,11,11,12,12,13,13,14,14],"right_children":[2,4,6,8,10,12,14,-1,16,18,-1,20,22,24,26,-1,-1,-1,-1,-1,-1,-1,-1,-1,-1,-1,-1],"split_conditions":[-2.3259975E-1,-1.175062E0,-1.6731915E-1,-2.4663925E-1,-3.4700406E-1,2.0873521E-1,7.10945E-1,-2.3905063E-2,1.065595E-1,2.4143152E-1,-2.7905403E-2,3.2340545E-2,6.295665E-2,1.8194627E-3,6.038092E-1,2.9299423E-2,-2.595005E-3,7.212782E-3,-1.7654447E-2,-8.427379E-3,1.8413952E-2,3.827709E-2,1.660171E-2,-5.170599E-3,2.8444363E-2,-2.7159754E-2,1.987945E-3],"split_indices":[0,19,9,11,16,19,13,0,11,19,0,16,4,6,9,0,0,0,0,0,0,0,0,0,0,0,0],"split_type":[0,0,0,0,0,0,0,0,0,0,0,0,0,0,0,0,0,0,0,0,0,0,0,0,0,0,0],"sum_hessian":[1.6200311E2,6.4960686E1,9.7042435E1,2.6786346E1,3.817434E1,3.0679169E1,6.6363266E1,8.715538E0,1.8070808E1,1.7613195E1,2.0561144E1,1.2861776E1,1.7817392E1,3.6129463E1,3.0233803E1,6.6283164E0,1.1442492E1,1.0179893E1,7.4333024E0,7.365878E0,5.4958987E0,9.817174E0,8.000218E0,2.0492466E1,1.5636995E1,1.7527332E1,1.27064705E1],"tree_param":{"num_deleted":"0","num_feature":"20","num_nodes":"27","size_leaf_vector":"1"}},{"base_weights":[-1.190967E-2,2.9413287E-2,-4.5480695E-2,3.4783012E-1,-9.959595E-2,-0E0,3.1281084E-2,-2.0131674E-1,9.390915E-2,-1.360364E-2,1.7037193E-3,3.3479948E-2,-1.4670163E-3],"categories":[],"categories_nodes":[],"categories_segments":[],"categories_sizes":[],"default_left":[0,0,0,0,0,0,0,0,0,0,0,0,0],"id":58,"left_children":[1,-1,3,5,7,-1,-1,9,11,-1,-1,-1,-1],"loss_changes":[2.9305208E0,0E0,3.0059915E0,1.6757016E0,2.4880934E0,0E0,0E0,1.4095366E0,3.183724E0,0E0,0E0,0E0,0E0],"parents":[2147483647,0,0,2,2,3,3,4,4,7,7,8,8],"right_children":[2,-1,4,6,8,-1,-1,10,12,-1,-1,-1,-1],"split_conditions":[-9.889254E-1,2.9413287E-2,-1.2653939E0,1.17065944E-1,2.562097E-1,-0E0,3.1281084E-2,4.2508313E-1,-1.366096E0,-1.360364E-2,1.7037193E-3,3.3479948E-2,-1.4670163E-3],"split_indices":[15,0,13,11,10,0,0,15,11,0,0,0,0],"split_type":[0,0,0,0,0,0,0,0,0,0,0,0,0],"sum_hessian":[1.4464821E2,6.191666E0,1.3845654E2,1.5537849E1,1.22918686E2,7.4900327E0,8.047816E0,8.086579E1,4.2052895E1,6.2323185E1,1.8542608E1,6.3860674E0,3.566683E1],"tree_param":{"num_deleted":"0","num_feature":"20","num_nodes":"13","size_leaf_vector":"1"}},{"base_weights":[2.4891458E-2,2.656324E-1,-4.9549304E-2,5.0407666E-1,-3.867907E-1,-2.7058643E-1,6.563494E-2,6.187346E-3,6.3875306E-1,-3.8378944E-3,-2.8911917E-2,1.7051851E-2,-3.7000877E-1,1.2025756E-1,-2.1507202E-2,1.4415448E-2,3.5484668E-2,-2.3731923E-2,-3.1506424E-3,-6.5358676E-4,1.9617585E-2],"categories":[],"categories_nodes":[],"categories_segments":[],"categories_sizes":[],"default_left":[0,0,0,0,0,0,0,0,0,0,0,0,0,0,0,0,0,0,0,0,0],"id":59,"left_children":[1,3,5,7,9,11,13,-1,15,-1,-1,-1,17,19,-1,-1,-1,-1,-1,-1,-1],"loss_changes":[3.4138355E0,7.3046417E0,3.7308679E0,1.5323133E0,6.265323E-1,3.2422242E0,2.647148E0,0E0,1.985569E-1,0E0,0E0,0E0,1.314837E0,3.2327685E0,0E0,0E0,0E0,0E0,0E0,0E0,0E0],"parents":[2147483647,0,0,1,1,2,2,3,3,4,4,5,5,6,6,8,8,12,12,13,13],"right_children":[2,4,6,8,10,12,14,-1,16,-1,-1,-1,18,20,-1,-1,-1,-1,-1,-1,-1],"split_conditions":[-8.9024895E-1,5.944971E-1,1.3915831E-1,-1.3250091E0,6.6181755E-1,-6.032436E-1,1.9039041E0,6.187346E-3,-1.3747675E0,-3.8378944E-3,-2.8911917E-2,1.7051851E-2,1.938993E-1,8.062857E-1,-2.1507202E-2,1.4415448E-2,3.5484668E-2,-2.3731923E-2,-3.1506424E-3,-6.5358676E-4,1.9617585E-2],"split_indices":[8,5,14,17,12,10,18,0,12,0,0,0,10,18,0,0,0,0,0,0,0],"split_type":[0,0,0,0,0,0,0,0,0,0,0,0,0,0,0,0,0,0,0,0,0],"sum_hessian":[1.8668683E2,4.349974E1,1.4318709E2,3.2218887E1,1.1280855E1,4.86578E1,9.452928E1,9.372234E0,2.2846653E1,5.308285E0,5.9725704E0,6.15326E0,4.250454E1,8.635315E1,8.176129E0,5.362376E0,1.7484276E1,3.0846615E1,1.1657925E1,5.866637E1,2.768678E1],"tree_param":{"num_deleted":"0","num_feature":"20","num_nodes":"21","size_leaf_vector":"1"}},{"base_weights":[5.7803546E-3,-1.776026E-1,1.1319713E-1,-2.5531325E-2,-4.980693E-2,3.7304502E-2,6.1685777E-1,2.3962103E-1,-3.352326E-1,-4.2277277E-1,1.0654177E-1,4.6033103E-2,5.4365615E-3,-6.1427797E-3,1.8164776E-2,6.1317207E-3,-2.5005026E-2,-2.5702743E-2,-1.0479704E-2,1.633293E-2,-6.359398E-3],"categories":[],"categories_nodes":[],"categories_segments":[],"categories_sizes":[],"default_left":[0,0,0,0,0,0,0,0,0,0,0,0,0,0,0,0,0,0,0,0,0],"id":60,"left_children":[1,3,5,-1,7,9,11,13,15,17,19,-1,-1,-1,-1,-1,-1,-1,-1,-1,-1],"loss_changes":[3.2723243E0,2.508625E0,3.9235191E0,0E0,3.9364436E0,3.0062084E0,1.8331752E0,1.1480031E0,1.941283E0,5.5646896E-3,4.323365E0,0E0,0E0,0E0,0E0,0E0,0E0,0E0,0E0,0E0,0E0],"parents":[2147483647,0,0,1,1,2,2,4,4,5,5,6,6,7,7,8,8,9,9,10,10],"right_children":[2,4,6,-1,8,10,12,14,16,18,20,-1,-1,-1,-1,-1,-1,-1,-1,-1,-1],"split_conditions":[-1.5864655E-1,-2.730223E-1,1.2822708E0,-2.5531325E-2,-8.500053E-1,-2.527058E-1,1.05482E0,-4.6306E-1,-7.782477E-2,6.347446E-3,7.10945E-1,4.6033103E-2,5.4365615E-3,-6.1427797E-3,1.8164776E-2,6.1317207E-3,-2.5005026E-2,-2.5702743E-2,-1.0479704E-2,1.633293E-2,-6.359398E-3],"split_indices":[6,10,11,0,13,13,8,8,18,12,13,0,0,0,0,0,0,0,0,0,0],"split_type":[0,0,0,0,0,0,0,0,0,0,0,0,0,0,0,0,0,0,0,0,0],